{"X": [[0.91807753792792, 1.276156532097304], [1.556048458213695, 0.6285285399218935], [-1.7332497118928871, 1.388277303475032], [-2.3099959856875674, 1.3469531439650313], [-0.1298084404958053, 5.940822924658945], [-0.18577459453720135, -1.5058227258057597], [-0.12061906349429208, 0.9854454401207793], [-1.2670800556648247, 1.1064141663811349], [-3.8924429617151484, 4.9751031010159945], [2.500177792924218, -2.456555156076159], [4.871547572658384, -0.4649990121009264], [2.52847865614713, 2.195712697720711], [1.7651872777360762, 5.267782621807459], [6.0548885007587385, 0.7479494580151986], [-0.017691158340536806, -1.4116044793434743], [1.2735024635877243, 1.277848461753208], [0.16653382292549046, 2.6787989186034915], [0.4076969064591506, -1.7012826663527507], [-0.34716119123748057, -0.26320003290284677], [1.6080262819155944, -0.32387239731428297], [-0.7466090634233602, 2.7063813427504915], [-0.25867990115872286, 1.4221578932152807], [3.10219040245086, 2.3893948106352147], [-1.280731986273858, 1.9274646093478265], [0.34412744219732916, -0.585000957259747], [-2.267386732341491, -0.6183136466689152], [-4.104489226377708, -3.092978610790638], [1.3002551392172486, 1.0404794758855], [-1.3777456526267282, 2.781970511479334], [-2.5363642946039486, 1.9548630716833482]], "y": [-11.539125100982295, -13.96890989362994, -1.6484970366011211, -10.298320843604886, -18.815393904145687, -1.8736461206503296, -14.59222658528145, -12.32897485208631, -12.617725017031336, -10.214639909680596, 1.966987012256788, 7.668126853958, 12.128145331846225, 12.068823868655064, -7.580620856351175, 2.6018028074993347, 10.42076073677583, 4.713731813198214, -5.229049362251358, 4.624406280398035, 6.763849629667537, 7.11736175769934, 7.49758137991382, 8.585895510239016, 13.463452042690523, 12.204904410166947, 9.487258067549805, 8.962485386823564, 10.151933436154644, 9.571093330506958], "z": [0, 0, 0, 0, 0, 0, 0, 0, 0, 0, 1, 1, 1, 1, 1, 1, 1, 1, 1, 1, 2, 2, 2, 2, 2, 2, 2, 2, 2, 2], "regression_weights": [[[-10], -1.1706233770926873, -1.574021859134017], [[1], 1.2401787532619597, 1.935330217835744], [[10], 0.1, 0.1]], "ground_truth_mse": 11.061440141760235, "ground_truth_r2": 0.8861688658353998, "train": [0, 1, 2, 3, 4, 5, 6, 7, 8, 9, 10, 11, 12, 13, 14, 15, 16, 17, 18, 19, 20, 21, 22, 23, 24, 25, 26, 27, 28, 29], "val": null, "input_args": {"N": 30, "K": 3, "D": 2, "noise_std": 3.5, "outlier_ratio": 0.0}}