{"X": [[-0.33259507210310124, 2.847821608642131], [-1.0405206686489135, 3.4837995926760428], [-2.960346225355493, 1.112236574467847], [2.7651997745459322, 0.5202522570950617], [3.8815840168562294, 1.4906576338765705], [0.3560194733681562, 0.15263090402517432], [2.8414915623181023, 3.194325865596621], [-1.7887777564812, 0.2747032427835766], [-1.9595387605458199, 0.7336625354707159], [0.345567815617017, 2.9290212143733925], [2.25988785054778, -1.915454629016911], [-0.8988783310037443, -0.8203236243642014], [-0.6203539663032418, -1.9810553635451975], [-0.7755988349416199, 0.9849717117201733], [2.4095856997187024, -0.7434850868479292], [2.036144426506136, 4.663643270948701], [-1.5146853782078868, -0.675509308453764], [-1.2199181902040008, 1.4587072191994803], [3.8674488619666065, -0.8534594079068305], [1.8493416251717552, 1.1206546223661034], [0.3530523681857901, -1.090956361132069], [1.5106939571343458, 0.03089124979479585], [-0.6478609156113613, -1.0400718453518558], [0.2571770477863623, 0.42864866064217055], [1.8462720029354984, -0.03111772409024316], [1.8487077428323806, -0.8876866406190438], [2.7520567777773524, 3.092643180128909], [2.281218118839776, -2.943060223283259], [6.0203741893598455, -1.6682735249434901], [-0.9809086233450401, 1.4095690734681434], [-1.647943905188884, 1.328307844144189], [2.7322327503087784, 0.19816773642529573], [-2.2087520169037, -0.6540597247980362], [1.7617405270342412, -1.405481292004385], [0.6362369572515945, -2.1845896114464183], [-0.20033644319959487, 4.396299174228984], [-0.6826509026538241, 0.8526143041902843], [-0.7018281361221517, -0.8982638955521598], [3.1731497082136966, -0.1590665294474023], [2.0716916794213605, -1.4479950765123073], [-1.0704651219131316, 1.0963683753008517], [0.9455900564862137, 2.130058746490074]], "y": [-12.26870254079659, -12.057210220333381, -4.6044609448957745, -15.725006392676923, -18.630899585436975, -10.022700452560443, -19.098391631491268, -7.338160788101762, -7.136453048297611, -13.97697713370602, -12.62860105959546, -7.574723423100559, -6.897331146414746, -9.356789319164209, 3.4035313992554936, 10.96076079523308, -2.0946849128185, 1.8399194513964912, 5.924726479397144, 6.227379534961039, -0.42213893247566864, 3.311928576743531, -2.0812480511594385, 1.861426340224889, 4.748701098077167, 3.3846863389972093, 10.368901680874165, 0.676034282001027, 10.436854487908692, 9.989900823983598, 10.364563053626515, 9.9772542337773, 9.710621371586946, 9.985092117598363, 9.81901065915459, 10.544205102385394, 10.115826385674895, 10.50741508395336, 10.257970514737812, 10.84313580701535, 9.849663814755457, 10.068699171658523], "z": [0, 0, 0, 0, 0, 0, 0, 0, 0, 0, 0, 0, 0, 0, 1, 1, 1, 1, 1, 1, 1, 1, 1, 1, 1, 1, 1, 1, 2, 2, 2, 2, 2, 2, 2, 2, 2, 2, 2, 2, 2, 2], "regression_weights": [[[-10], -1.8203378549898988, -1.0867084072190494], [[1], 1.7846950651208895, 1.4317032878162], [[10], 0.1, 0.1]], "ground_truth_mse": 0.19512351284168786, "ground_truth_r2": 0.9978591314886981, "train": [0, 1, 2, 3, 4, 5, 6, 7, 8, 9, 10, 11, 12, 13, 14, 15, 16, 17, 18, 19, 20, 21, 22, 23, 24, 25, 26, 27, 28, 29, 30, 31, 32, 33, 34, 35, 36, 37, 38, 39, 40, 41], "val": null, "input_args": {"N": 42, "K": 3, "D": 2, "noise_std": 0.5, "outlier_ratio": 0.0}}