{"X": [[1.448986859731054, -0.5770845679181209], [0.6577817946771689, 1.7028790491632386], [4.0439013138884015, 1.46371818931895], [2.689356257240349, 3.725301961571185], [1.3407596582266392, 2.3243644969262482], [-0.4063433926747737, 6.1550213236092475], [0.18896309922326748, 0.911374632214464], [2.7435712768173817, -0.03154878509714987], [1.046200592833472, -0.8076226177913266], [1.447560547442015, 3.1820374234286573], [-2.454858323775123, 0.2525578010722923], [1.5808335531097946, 2.0219443166773203], [1.1295877212491925, -3.1455310227134765], [4.134929744002378, 2.0091974165846977], [2.3871398616349633, 4.162374932480343], [0.9626974796453711, -2.4227807888841366], [0.23828709000596981, 1.8949112754372313], [1.423652037003784, -1.1539873706709507], [-0.5157052734463969, 3.636170398286095], [-1.7021881392847051, 0.18893662150120694], [-3.938011523655172, 2.513421533964549], [0.2255338928815025, 0.6631098649748757], [-0.29631962228537656, 0.7563654433779368], [-3.11628012899315, 2.0473764352041837], [-0.6215977699671005, 2.196252147263631], [1.0553219982784996, 3.0971459466095927], [1.3322217067299564, -1.4431403997535344], [-1.2814376997445915, 4.3949645011720895], [-1.561555806562398, 4.130165948385272], [3.7815176204532985, 0.4414066609067826], [5.181387955230119, 0.5076267058716332], [2.0281933633487013, -0.6486876433857676], [1.117153554443509, -0.9571543997906831], [-0.6953074487496074, 1.9306671180137456], [0.9700129966745995, 2.527750072264147], [4.983803308641862, 2.082056635043937], [1.2548763631896942, 2.1068462261417906], [4.867916821935907, 0.7236116785269067], [0.314197770716911, 1.0768087425984743], [2.1565967528101764, -2.317409611300003], [0.28649976293766666, 1.2929236455873512], [-1.0433104663848014, 0.1674320495150854], [1.147329899473204, 2.3436030719736465], [-0.04649838048897492, 2.5439363657846457], [-1.7953816874609703, -2.656021936457814], [2.80365385741847, 0.3209141888903376], [2.682400570488041, 0.40485351568533845], [-1.9097456421325756, 2.0270003573102855], [-0.6304670533933363, 5.118768308825699], [0.25084416149009303, -1.7267075133155827]], "y": [-9.62181994705167, -5.367802454946885, -15.420128543073652, -12.824231326752743, -16.839822779291744, 0.8151599126041393, -3.550230937239844, -1.747958262728912, -7.331912190830433, -5.020199083736843, -14.53194355999166, -2.1677829258329346, -14.963938666764538, -10.693459228110013, -9.181877050970826, -13.547226269861756, -6.185959689692608, -10.98462602506717, -8.878486493741613, -10.995089800819004, -5.068193695746041, -11.813984066183682, -10.366586494862114, -8.320125478105927, -15.006784061971135, 6.857683896821946, 12.18495069361059, 12.579793441788091, 9.22613566256615, 6.712215066789206, 13.809506187497242, 9.07865424642318, 10.268856146929084, 10.003548200649787, 8.574646817229137, 6.274927074299807, 10.567100699502674, 4.660902861769886, 7.753254081817234, 9.065681137081729, 6.155311339084414, 10.43747481252849, 9.336011354343716, 9.256148174458742, 10.876727274617494, 11.238878750032312, 15.258683324475864, 13.092476944408398, -2.8936330995238304, 14.628881424056825], "z": [0, 0, 0, 0, 0, 0, 0, 0, 0, 0, 0, 0, 0, 0, 0, 0, 0, 0, 0, 0, 0, 0, 0, 0, 0, 1, 1, 1, 1, 1, 1, 1, 1, 1, 1, 1, 1, 1, 1, 1, 1, 1, 1, 1, 1, 1, 1, 1, 1, 1], "regression_weights": [[[-10], 0.2, 0.4], [[10], -0.2, -0.4]], "ground_truth_mse": 15.680109381916523, "ground_truth_r2": 0.8489902226978543, "train": [0, 1, 2, 3, 4, 5, 6, 7, 8, 9, 10, 11, 12, 13, 14, 15, 16, 17, 18, 19, 20, 21, 22, 23, 24, 25, 26, 27, 28, 29, 30, 31, 32, 33, 34, 35, 36, 37, 38, 39, 40, 41, 42, 43, 44, 45, 46, 47, 48, 49], "val": null, "input_args": {"N": 50, "K": 2, "D": 2, "noise_std": 3.5, "outlier_ratio": 0.0}}