{"X": [[0.16648430518905877, 0.887466345547341], [-3.272392191336908, 4.280541616809977], [-2.5868711703897262, -0.683494731312408], [2.0057628343160854, -1.4905761732144631], [-1.1159044377246778, -0.8180152298536987], [2.102908089092849, 5.584416025629915], [1.083078785996807, -1.2358508902270335], [2.0781166411615777, -0.19231939961293398], [0.9617390069576971, 3.350002439000582], [-0.4957418985877249, 1.0180505019466501], [-0.756215786480684, 0.6871316592307527], [1.5131409040025914, -0.9775580975392435], [0.3223560679416073, 0.5276319382947974], [-0.27531002496860246, -1.3752245727705685], [-1.8424344546082536, 0.6930096086461017], [0.461886079567973, 5.462733577773209], [-3.8695351530420883, 1.2254530096332978], [1.7408890733264686, 3.7192677253451922], [2.0037144135626264, -0.6884274076597237], [1.0000195229431923, 2.0847051442980584], [0.37298360601318226, 2.542023476138823], [-2.736181309127527, 4.462369331960936], [3.9353560211468257, 0.3286453229523051], [2.2226815591474347, 1.0959411837363768], [-0.6582705780295575, 1.1754204368166628], [3.00073177310139, 0.2378149649693001], [0.2486611538420127, 0.8510584742120381], [1.8669926601531417, 3.5567584605437363], [-0.26935861035872466, 2.0167924853668637], [1.432232012527364, -2.717224772246995], [0.1613670356946223, 0.7353422031265133], [0.9208595206127886, 1.6520068667739611], [-3.0806460974574303, 1.0925110462833938], [-0.355351154656083, -1.8788780534772362], [2.0485928600206975, 2.470559152130405], [-0.3065005355840713, 2.6849125631426802]], "y": [-9.629337936438315, -10.368793347806248, 3.3028597299212104, -12.528151183117199, -7.011324174423169, -13.516660059622525, -13.629057800222249, -15.16249876591414, -14.301116659107059, 0.8238352225444188, -3.0783563917771835, 0.7309195267506995, 1.026140122525969, 0.5263240058990841, -6.174103186569751, 7.9758135575140106, 1.8292264898219366, 15.826848492308265, 4.8424002486810105, 12.565438754848849, 6.859373109950025, 7.173632760777025, 7.374822993015126, 8.853084522220001, 13.539254380075477, 12.817329121875057, 10.316976814072044, -14.94659441798052, -0.9336785420342864, 8.89968914428614, 4.700249803685081, -6.0722622988524275, 12.020742221542463, 12.30514420350009, -10.783885813224064, -2.224606787450245], "z": [0, 0, 0, 0, 0, 0, 0, 0, 0, 1, 1, 1, 1, 1, 1, 1, 1, 1, 2, 2, 2, 2, 2, 2, 2, 2, 2, 3, 3, 3, 3, 3, 3, 3, 3, 3], "regression_weights": [[[-10], -1.5826848885290346, -1.0255509418496929], [[1], 1.3377979807316742, 1.6124765741267186], [[10], 0.1, 0.1], [[5], -3.4970737987345126, -3.414905837374687]], "ground_truth_mse": 9.593164220848838, "ground_truth_r2": 0.8930317289700764, "train": [0, 1, 2, 3, 4, 5, 6, 7, 8, 9, 10, 11, 12, 13, 14, 15, 16, 17, 18, 19, 20, 21, 22, 23, 24, 25, 26, 27, 28, 29, 30, 31, 32, 33, 34, 35], "val": null, "input_args": {"N": 36, "K": 4, "D": 2, "noise_std": 3.5, "outlier_ratio": 0.0}}