{"X": [[0.21412703016952017, 3.168836676672775, 4.8059137883853875, -1.4871034513551926], [-2.048006194106494, 2.14560190278955, 0.7076633315573644, 1.9578335986103976], [4.387348786137298, 1.1032800339170727, -0.24205989219916701, 2.158008414020352], [2.763871529224157, 4.4276554740989145, -2.222919005507702, 0.06574113687836969], [-0.902096656762714, -3.413269938993384, 2.9787269397070415, -3.1807172532861445], [-1.7432533394425498, -1.338699991343494, -1.8918950740534632, -0.7191295479254627], [1.1068997924918635, 1.364447084237985, 0.3925342364600264, 1.6439401262557536], [0.57298174841152, 1.2321085250727748, 1.4722395563736863, -2.091993567768906], [0.15317336508222146, 1.2124188789468464, 2.068045757266219, 1.4226241406131872], [-0.8833072229113501, 0.7286735868883791, 2.0348146926104627, -1.735685458205937], [-0.6128356949193883, -0.9854928516615638, 1.1234329838461694, 0.22349442848942747], [2.0177108909667867, -1.2781448754531097, 2.10983567343428, 1.3793753178723989], [-2.5582397836626996, 0.021606832457888858, 2.550215734884424, -1.2927030112129554], [7.212413830026727, 1.6763287358303933, -0.6466423452668688, 2.487475386727317], [2.217849341923913, 0.540953371811978, 2.0893208739969555, -0.5150501353636923], [-0.5388188864497645, 3.916245117431198, 0.3711919259304831, -0.6102270710469635], [1.2812735482084459, 0.4994264584872452, 1.8682990678964837, 3.3617939690775245], [-0.18246631826238469, -0.8150404197757761, 1.1117474587117355, -1.4909626116543486], [0.050404213603554404, 3.120307466015695, 0.6307994732198272, -2.2206477681786088], [1.4416370515941745, 3.2880799689863482, 0.5387074459859853, 1.2332206897686775], [2.7135008586853067, 0.549401919403895, 3.97756693069154, 1.1960470965068524], [2.8977355304363908, 1.8919209842318492, 1.998055491244142, 1.2535020093564027], [0.08584946421769091, -0.754006123319461, 2.6825596282399697, -0.6732076314757476], [4.417410277356956, -2.1523239515890125, 0.9334269616323758, 1.5862118500477351], [-0.5133253504398734, 0.8153477515875904, 0.361266864669177, 3.111948395413359], [-1.1115801606420472, -0.9440693307056058, 1.7302324919820973, -1.2485466839301753], [3.949256082498468, 2.412826626316219, -5.245640850451813, -0.14680374883871639], [1.609048247117043, -1.2998683532743307, 0.5731725181478474, 0.9440056324386514], [1.838433220383966, 0.3621943010459032, 0.3760976699570736, -0.9635558987106825], [-2.0214394103959186, 1.8439683394025295, 1.0540906117064814, 3.027899039638548], [-0.4538101179990548, 1.0404123379889632, -4.4078772250723, 2.3156767863675407], [2.5844504541085547, 2.495935332287499, -1.5659517344547242, -1.4392996401901716], [3.984341069193036, 1.789820270951509, 3.2782832353107128, 1.9430123679220848], [-0.3055713717006048, 4.404258363475762, -0.49852463925710566, 1.2048008966843182], [-1.1163842919302622, -2.0217524228410557, 0.7721080004113792, 2.771908901478927], [-0.7916260195282281, -0.31316434408896754, 1.298204023813231, 0.46644150345745305], [-0.7754642574782808, 0.36166773869492486, 0.9095507064731, 0.6393591199552524], [-0.3178291197135925, 1.1710516987063377, 0.6380436128806798, 0.357675999756197], [3.8822722398067344, 2.9601617880829396, 2.9846758867004537, -3.1016938527318176], [-0.6980148622025906, 2.6825994939400273, 0.49820718725144597, 2.7823578836539054], [0.8089340980176603, 2.294659987509503, -1.7600427779268157, -2.5062526864914862], [2.7204979882960245, 3.708579360687434, 3.216159978729397, 0.3879527661964055]], "y": [-21.23085353553255, -14.181351182707527, -22.56479815922697, -19.030712260340813, -2.374447195650441, 0.9774249922983181, -18.37589978042793, -12.432553672252109, -18.243322306504528, -10.187438599644855, -10.128773142891731, -18.092294655248022, -7.388234354771015, -29.876075659325096, 4.458788737951992, 5.2152702672252085, 11.274272186730501, -0.9051075497780166, 1.7348169964618543, 10.321909340895402, 10.155054768739262, 10.501175392815712, 1.0772630309232294, 5.797110479157621, 7.879887198763233, -1.5842864038356324, 3.127491782288652, 2.742295136987246, 10.162961350734681, 10.337486637006451, 10.245966837859498, 9.891727626279009, 11.096448240094855, 10.429962519015614, 10.01443394328597, 10.190594345647803, 10.212341376285748, 10.852318506283753, 10.629103803047013, 11.307281116988724, 9.730803351527571, 10.76445330075182], "z": [0, 0, 0, 0, 0, 0, 0, 0, 0, 0, 0, 0, 0, 0, 1, 1, 1, 1, 1, 1, 1, 1, 1, 1, 1, 1, 1, 1, 2, 2, 2, 2, 2, 2, 2, 2, 2, 2, 2, 2, 2, 2], "regression_weights": [[[-10], -1.985951007576698, -1.6258487510059454, -1.7524646927923666, -1.7134126705691863], [[1], 1.0259916582100428, 1.4790267004319602, 1.0047840420725285, 1.715779909908178], [[10], 0.1, 0.1, 0.1, 0.1]], "ground_truth_mse": 0.19512351284168786, "ground_truth_r2": 0.9986267690205568, "train": [0, 1, 2, 3, 4, 5, 6, 7, 8, 9, 10, 11, 12, 13, 14, 15, 16, 17, 18, 19, 20, 21, 22, 23, 24, 25, 26, 27, 28, 29, 30, 31, 32, 33, 34, 35, 36, 37, 38, 39, 40, 41], "val": null, "input_args": {"N": 42, "K": 3, "D": 4, "noise_std": 0.5, "outlier_ratio": 0.0}}