{"X": [[3.2734767503461626, 1.7590648029065223, -2.4807830898567205, 2.241223503992483], [0.6637756957314703, -1.8019954610454003, 0.18903935580442865, 0.3943997455954169], [2.3344771280187784, 2.783038874785673, 4.35025153655792, 2.6144646740417246], [0.9769807400731255, 0.8367759739413243, -0.9556487938909524, -0.6107884501719729], [2.100220929780054, 3.8255622429030707, 0.9892780686116207, 2.341267860640592], [3.658033026547874, 2.2755806985219182, -2.8462569182230917, -0.5787723428083582], [0.40905717537929753, 2.2292386148697307, 0.1257323153863915, 2.984212249925284], [2.2835402245067535, 1.7123370831577776, -2.505257668295482, -0.4849086499959472], [-0.021671046272808026, 1.4314409117587508, 1.2979523789870386, 2.2739571422509517], [4.040006371711481, 2.8129134998205716, 0.4049582115309146, 1.2988315322679265], [-0.9951863737096975, 1.731398419661736, 1.637732745925542, -0.2267646921376496], [3.6993146801467884, -0.6916211054279449, 1.414838781916417, 0.31071891971226673], [2.034720565710224, -0.10313950813255879, 2.870884714411198, -1.0830526521857178], [-0.6683558721813927, 0.21419508397546527, 1.0474031973190019, 1.4132370986010288], [2.6042539858166043, 2.9832524732584176, 2.0081932907993636, 3.938586706010942], [0.06062698423446433, 2.591584305848474, 0.8345636239796119, 2.1422196897515073], [2.5514228282175857, 0.46178038546717093, -0.9877398453407744, 2.5916210581238825], [1.3698797334132662, 4.519338647102813, -0.2826881638681955, -0.030668389725099665], [2.159386529228131, 1.6940617928424322, -4.666837943805513, -1.2473784449261567], [-4.068097657431709, 0.5732194324282389, 5.407385997741967, 3.5491776419891314], [-0.7964715224712193, -3.2930076518811893, 2.6287159431335705, 1.278955457656748], [-2.912031200954429, -1.1559114737393985, 2.0476372628780677, 2.6985196833022194], [5.566365001888945, -0.23202504160011217, -0.48214436684172424, 0.8796148783839426], [-3.226914247407181, 4.241487446582438, -1.8549309266372953, 2.4635069178202733], [1.1049759186850447, -0.804115128100833, -1.894522664393795, 5.2584600719292816], [1.3004766571006139, 4.196985314249094, -2.9366049675439645, 0.6827253584442581], [3.6877206957599618, -0.03177166475399984, 0.2237421838275051, -1.0351153062850913], [-2.4923650659538126, -1.0341304903169215, 0.5198386768165186, 1.1903838535042537], [1.19303865891892, 2.794792157506059, 0.3577277739142183, -2.1503071668666838], [3.0263925213839293, 1.5885738104022398, -0.7947112613662173, -1.1015133749305313], [6.810731729100059, -0.687397089479761, 1.0860559721468024, -0.42874892893607974], [2.305527433611908, 2.4930095809587556, -3.642412093908132, 4.3476116792742], [5.2550159460205705, -0.8967746759863058, 1.1131531127508867, 2.4374310657666354], [-2.301142876813976, 5.039741112744905, -4.550645929432202, 2.3529352531791536], [-0.2719604726836813, -1.7196354192232075, 0.7476448192153484, 3.7719956093699842], [-2.598954042072284, 0.6326211308679028, 3.0533132039112743, 4.728599514496741], [1.2438634855698958, 5.2384648097770246, 1.2563766389996267, 4.016719454947244], [3.0213264175683157, -2.0228719975555745, -0.3175791688061793, -4.1770802630643], [-1.9433609636284719, -1.5694243444171492, -2.6909546031871026, 1.3239972054483895], [3.0978485713470683, 0.8219225297618388, -0.3995123399467546, 0.7665247618117733], [2.9880962699121048, 1.8186932204919366, -1.0887902009786168, -1.4178558062507731], [3.823690539585119, 3.1904069495639424, 1.768223256990057, 1.2056411853160591]], "y": [-16.44627275226118, -8.173803302083831, -24.9570479723141, -11.198802586999026, -23.550293326512357, -13.656343880964844, -16.87005249886141, -12.823191900776209, -15.399500839562117, -21.406423964188274, -11.91733343922371, -14.949372926100507, -14.550478685154332, -11.658821930166035, 20.048386403698746, 11.106876522258295, 8.009297008587174, 9.46106811770303, -3.858169542887455, 14.086992202651256, 1.7565810275540006, 5.571299825303991, 6.906977132113504, 6.065136643731326, 8.384286975236186, 5.231430685916306, 4.092287921926525, 0.12649025276077086, 10.12902184341612, 10.538973932342437, 10.384757688373972, 9.809447025599406, 11.219506354073836, 10.52563824965439, 10.310025170802326, 10.57057963892358, 10.1119701656754, 9.233175764711754, 9.279271574447076, 10.545533647680362, 10.922531961298285, 10.738982649808454], "z": [0, 0, 0, 0, 0, 0, 0, 0, 0, 0, 0, 0, 0, 0, 1, 1, 1, 1, 1, 1, 1, 1, 1, 1, 1, 1, 1, 1, 2, 2, 2, 2, 2, 2, 2, 2, 2, 2, 2, 2, 2, 2], "regression_weights": [[[-10], -1.1896250718882588, -1.6061495030895698, -1.1484334261258564, -1.0797067142211347], [[1], 1.0894851507523973, 1.678608909872917, 1.697163991127089, 1.9650649660164874], [[10], 0.1, 0.1, 0.1, 0.1]], "ground_truth_mse": 0.2836248441746172, "ground_truth_r2": 0.9981055644243986, "train": [0, 1, 2, 3, 4, 5, 6, 7, 8, 9, 10, 11, 12, 13, 14, 15, 16, 17, 18, 19, 20, 21, 22, 23, 24, 25, 26, 27, 28, 29, 30, 31, 32, 33, 34, 35, 36, 37, 38, 39, 40, 41], "val": null, "input_args": {"N": 42, "K": 3, "D": 4, "noise_std": 0.5, "outlier_ratio": 0.0}}