{"X": [[-2.732719977333891, 5.755505044477376], [3.1839489105838568, 1.5257478475499995], [-0.2224803299512128, -0.2055832099717887], [1.3776701845062675, -2.7033752586021387], [1.9169261920266991, 0.15601180461185793], [-0.7485546249611534, -0.928832556602522], [0.4948219947052557, 3.059710118962214], [-0.11747188409265275, 0.9021072094482842], [3.9108628440887565, 2.3725226881922947], [-1.1667080365045654, 0.41915032030304644], [3.3335812117725254, 2.711608744849763], [0.8806953435291794, 2.6564214021506514], [1.877841549462798, 1.4899525504853322], [0.010767212729957065, -0.35453418609613774], [-0.41351389807829375, 2.847534507082571], [0.794689741414639, 1.2224582356477731], [-2.3185614786730175, 1.7464538249362054], [0.9075473951632882, 0.8520707456133437], [2.659992208666379, -0.8928724078724692], [3.1279006824732853, -1.4485962448827188], [0.9917365879826949, -1.441739673382298], [-1.5375450823673829, 1.3494540635843846], [-2.83807718762087, 3.6459168874596055], [0.9968822721494784, 5.373941973918064], [-0.031166262656580068, -1.3594558895213797], [-3.328182846230411, 0.9196997642376181], [-0.6144247030885313, 3.933759127615796], [-0.19872322810459986, 1.5111267290775845], [3.0392470347206415, 0.7867585687748163], [1.4451667883423511, 1.18847335139609], [-2.693264401708376, 1.6871979873307446], [2.880919590252838, 4.614659441531742], [-4.1078120433224, 0.6979948748644227], [2.514750970798507, 2.3182447260071677], [-0.18718997133130033, 2.7782015911878], [1.0598737693417941, 4.159957675914177], [3.5023750419515167, 0.41035098870670195], [2.842260001044475, 1.5961687516757448], [3.3723352485564257, 1.9020276370809006], [-0.6267290754130823, -0.2834899146278149], [-1.9440478732934126, -1.6733929969875958], [0.8703266903762397, 2.8694470818248474], [0.22743436354441138, 1.1160557085103848], [7.24955133385696, -0.929502240116364], [2.477349828638611, 0.4773739532729844], [1.0599587982382372, 0.5243438483558072], [1.7231019090389874, -0.7627875494797816], [1.162673385332326, 1.0414553102266395], [1.09310187709196, -1.333237591617649], [2.1677673436073426, 1.4743401654995707]], "y": [-6.700045773578182, -9.910956610492535, -1.619030195451728, -11.688138520150371, -9.170575594226277, -4.982560037917768, -11.85946497047091, -11.733379795795226, -7.612207065475707, -11.220226331407453, -12.42331640318191, -9.478360157490458, -10.28435198441766, -8.02750962275923, -14.77044882993356, -11.802705389372793, -5.7352622325550255, -2.977003697412414, -15.114278973324993, -7.696892073333705, -13.810476150021557, -12.766713432546037, -12.16082582393512, -9.129824508071259, -7.062476214143101, 12.791231111619021, 8.756386140838027, 8.163705879303174, 9.088958115815329, 8.864820754572113, 12.63946030352627, 5.367451601063982, 10.520682279018553, 8.216015274105075, 8.743078829809635, 8.996303980743146, 9.827194914775761, 13.465050508966343, 8.26065727348463, 15.704104808004859, 9.987681199370513, 7.006095868721069, 9.860674504521945, 10.165925282497886, 10.257223875526538, 14.100142542867902, 13.94819506387261, 11.08142459226669, 9.137497754250733, 8.624560253003825], "z": [0, 0, 0, 0, 0, 0, 0, 0, 0, 0, 0, 0, 0, 0, 0, 0, 0, 0, 0, 0, 0, 0, 0, 0, 0, 1, 1, 1, 1, 1, 1, 1, 1, 1, 1, 1, 1, 1, 1, 1, 1, 1, 1, 1, 1, 1, 1, 1, 1, 1], "regression_weights": [[[-10], 0.2, 0.4], [[10], -0.2, -0.4]], "ground_truth_mse": 8.899603963813297, "ground_truth_r2": 0.91603204295743, "train": [0, 1, 2, 3, 4, 5, 6, 7, 8, 9, 10, 11, 12, 13, 14, 15, 16, 17, 18, 19, 20, 21, 22, 23, 24, 25, 26, 27, 28, 29, 30, 31, 32, 33, 34, 35, 36, 37, 38, 39, 40, 41, 42, 43, 44, 45, 46, 47, 48, 49], "val": null, "input_args": {"N": 50, "K": 2, "D": 2, "noise_std": 3.5, "outlier_ratio": 0.0}}