{"X": [[1.1531691595829372, -0.840522380204896], [0.34386009826156116, -1.6596240763576584], [-1.2263925014456993, -0.2317332851508236], [1.9950255393060465, -3.978305493803548], [-0.2717258710470485, 2.7316381653797404], [3.1616641051263388, 1.2863576784876711], [2.4218476316393747, -1.8493430340636237], [1.1514323697986766, 2.098994520493332], [1.429310748409149, -1.8172343219273674], [1.7724400804200156, 0.5321373538035925], [-0.33168049893161733, -1.950118251676336], [2.9165046940894293, -1.5865810506666094], [-5.0113430845665725, 1.534559647686773], [-1.2208176609601464, 0.5404016212597678], [3.7459491998201058, 2.2715867075249925], [1.4942937701414278, -1.623293599150144], [4.660552491265689, 1.4176063494838442], [3.0286655023817413, 2.4103752897742394], [-0.5546883166266272, 1.2585345678358308], [1.9633636052146888, -0.7471482168913335], [-2.2383780601914682, 1.2886779207147567], [1.78303288465108, 5.154622873776565], [-1.8980039374158322, 2.1084880244732203], [2.2672181622236542, 3.5998239425408802], [2.8957861302127883, 3.5852320216601563], [-0.6136837239841555, 3.3916286269298865], [-0.6791332218567208, 2.127325542823434], [2.6077723854855064, -3.65822392017847], [4.083225934057662, 0.7712020384297057], [-1.727636172461184, 1.4052572950101523]], "y": [-10.774105891903694, -9.328215379488134, -11.54723788827522, -7.956467216139241, -14.58831870148763, -18.702934766365562, -16.83011880955386, -16.492860405138615, -10.751550795446974, -15.945504497471697, 0.14003140934996017, 9.550277301921769, -3.7576294550783684, 2.2836499004831543, 16.214559999936313, 2.70076912081321, 15.536253403231273, 5.746101397627564, 1.312261118222895, 7.620126669057841, 12.268479072064977, 10.805618985226209, 13.234559045746924, 11.918487343017297, 12.455388020519969, 9.03445638608321, 10.875538736391944, 11.04439361242026, 8.741656114570509, 2.6465434048632606], "z": [0, 0, 0, 0, 0, 0, 0, 0, 0, 0, 1, 1, 1, 1, 1, 1, 1, 1, 1, 1, 2, 2, 2, 2, 2, 2, 2, 2, 2, 2], "regression_weights": [[[-10], -1.6664169869611198, -1.360671494188478], [[1], 1.5598533741783265, 1.3169531765054046], [[10], 0.1, 0.1]], "ground_truth_mse": 9.702442795893774, "ground_truth_r2": 0.9218012224433157, "train": [0, 1, 2, 3, 4, 5, 6, 7, 8, 9, 10, 11, 12, 13, 14, 15, 16, 17, 18, 19, 20, 21, 22, 23, 24, 25, 26, 27, 28, 29], "val": null, "input_args": {"N": 30, "K": 3, "D": 2, "noise_std": 3.5, "outlier_ratio": 0.0}}