{"X": [[-3.6539631699696464, 2.817022565617838], [2.067388141938462, 2.882969446946486], [3.0340633358171596, -0.9199951202928971], [-2.0457851326127336, 3.593409150595575], [-3.1413895137307337, 1.6302936362064344], [-0.9061693524868715, 4.632326490804342], [0.09418881520905253, -1.2127606025760858], [2.7057042879977398, -0.4097305449312081], [1.338344587198929, -0.8976049901595204], [2.8838165533214557, 4.844027564720149], [1.0743729884053221, -2.420082926873466], [0.3037077261450938, 1.6618107941676425], [-0.7079442394087858, 3.4579075255503926], [0.04945371088600947, 1.686622281472977], [0.15329659872407408, 1.7837780213653325], [0.9132981963382532, 0.9415822516467482], [-2.353785113851025, 0.08218358407372806], [4.0804824890663784, -0.5434038163993402], [1.2094028900468168, 0.598247670954643], [3.935801482677555, -1.601162442549667], [1.9748071943420118, -0.9086346022630039], [2.657697523459585, 2.0655030085387827], [1.9809982867267553, 0.5278332497236606], [-0.8435883167449298, -1.0540823678452114], [2.0947712448543347, -2.3424577566858362], [2.31588535865845, 1.8294834956377786], [2.9807346455525208, -3.4967289431294084], [-1.0187426263386423, 1.4042463822308708], [0.2696486576520225, 0.02895725562857565], [4.196070404614485, 3.37702688786592], [-3.970378520861555, 1.6248169329050763], [4.040644346472378, -0.5078885675507541], [3.816907975014335, 5.884659667419338], [-1.9077573987895242, -0.9469250078004829], [0.580472990463538, 1.8739549546560506], [5.573308357584202, 2.6919833299833673], [3.024937586359293, 2.332669066374147], [-2.679053673060978, 4.0161805789425005], [1.6758578895856109, 1.2615450644293003], [-1.5039212482923086, 1.255668000139694], [0.6835150822187237, 0.881880011783188], [0.8047815960419368, -0.5309289668226107], [-1.395161299976039, 2.235117934729025], [1.809920773172637, 1.1365537589498202], [1.99443181742895, -1.134794371779401], [1.7352111412294464, -3.2751371859219525], [3.0640939916432286, 3.9310161804674886], [-1.175612254398167, 1.038050611131499], [1.0224478948720543, 3.4653281885553704], [0.7830025444405816, 0.39899991658276834]], "y": [-8.05968740364915, -9.59138012446302, -1.2534862264264959, -9.854115819895085, -9.592526002739932, -2.7896193644601652, -13.64857989498547, -11.693479663128945, -9.434761788194397, -8.640170515675408, -14.927834716544645, -9.991601924160479, -10.01432715216595, -7.203309736100373, -15.082589324859983, -11.89133409198848, -6.408015055935619, -2.900606503436869, -14.807948805518059, -7.596338392359632, -13.400620000301977, -11.641245333398885, -12.444244184159972, -12.06912836255545, -7.030489459506701, 11.298503978081186, 11.009549499407898, 8.370461897688669, 9.94599831648755, 7.439218616729754, 12.919835549127175, 7.1845258534530725, 6.861072358329239, 10.406584841545742, 8.951244892063366, 8.68080680146699, 9.153755174827227, 13.601308512880731, 8.856145774339433, 15.2638800766737, 8.440059404759772, 8.379355307046913, 9.73756874673858, 10.427428995008276, 10.998674807789424, 15.484884487980763, 11.802475155372854, 11.550443599850844, 7.232202238625506, 9.331649312403897], "z": [0, 0, 0, 0, 0, 0, 0, 0, 0, 0, 0, 0, 0, 0, 0, 0, 0, 0, 0, 0, 0, 0, 0, 0, 0, 1, 1, 1, 1, 1, 1, 1, 1, 1, 1, 1, 1, 1, 1, 1, 1, 1, 1, 1, 1, 1, 1, 1, 1, 1], "regression_weights": [[[-10], 0.2, 0.4], [[10], -0.2, -0.4]], "ground_truth_mse": 8.899603963813295, "ground_truth_r2": 0.9172193140991579, "train": [0, 1, 2, 3, 4, 5, 6, 7, 8, 9, 10, 11, 12, 13, 14, 15, 16, 17, 18, 19, 20, 21, 22, 23, 24, 25, 26, 27, 28, 29, 30, 31, 32, 33, 34, 35, 36, 37, 38, 39, 40, 41, 42, 43, 44, 45, 46, 47, 48, 49], "val": null, "input_args": {"N": 50, "K": 2, "D": 2, "noise_std": 3.5, "outlier_ratio": 0.0}}