{"X": [[0.4032001939588066, -1.78204216121779, 3.162333413560389, -0.10780081306899869], [-0.3323417369992694, 3.038877205426462, -0.7407106050845864, -0.4465670925437728], [0.9772846389310692, 1.8534616265579686, -1.6693762156070773, 0.867359835923398], [-0.2074067903843062, -2.3229780650247926, -1.28415391787021, -0.10768085802151828], [0.9505316071070504, 0.07929296753567139, 4.9845853231725075, 3.681977453460181], [2.3913275450635187, -0.6559918617467002, 1.435770109314039, 0.617882418066094], [2.246578870235125, 5.827935418091903, 2.2359944976270136, 3.1039703065601754], [-1.0093641826280515, 0.0003976934548635125, -1.4467939857052334, 1.1541896188298786], [-0.6161435370237651, 2.8103631780206575, 4.420385967668158, 0.6158691045607672], [0.15271476169536702, -1.4773687975018461, 0.41190185983021277, -1.2305037320456376], [0.5614370881892479, 0.910480630562381, -2.147974246390001, 4.326638578904907], [3.7227629786080114, -0.5032895368837811, 3.209699640835323, 2.3971381563805525], [-1.1562411331232143, 0.7443673685783078, 1.6841592723057572, 0.44553263016437694], [1.8617804944315772, 4.588123365988222, -0.27350855645598493, -0.13634535120825375], [1.5546922537643006, 2.092627654651382, -0.7547000347684074, 1.2043149515619982], [1.727658391652993, 1.0382340610098992, 1.2758949336716994, 0.5685843859781573], [1.4593143031939608, -0.8465432392438506, 4.020887632469353, -0.7568103161754782], [1.3197648854102708, 0.4557386689098468, 1.2553231467044934, -1.3729855018528592], [-1.9635122186519314, -0.9248967414112181, -0.4774010822317387, 0.6233489502280276], [1.6275538505376903, 1.0567803612044058, 6.228907071022175, -1.7269101609982407], [1.966849744090248, -0.09354182141019463, 0.9608130153562143, 0.13261647086403316], [1.3397603389748673, 1.6492413474635526, -0.2482218289583702, 1.5086004435979965], [-2.5564740624791376, 0.30958817429211616, 0.8994627611440221, -0.7595111459828787], [-0.16416777784477565, -0.2801217554797546, 1.5734956637687842, 1.1095207997718144], [-1.0107665293987806, 1.245607123077166, -6.5241257829777854, -0.5110542024404692], [-2.886950673155583, 0.6024807790628692, -0.20338583839628366, 0.07609398597236039], [0.1871951136906339, 1.5198827569423514, -0.3375945762486172, -3.4532676634196706], [2.249525182669192, 2.3134687808127747, -1.2938856539753072, -2.762630576799187], [-0.4750744901893078, 0.46091808028356007, 2.369082365565615, -2.785422381712974], [0.22760208274359806, 4.849039978665055, -0.8779801563422138, 3.105795884585098], [1.9977589150421222, -0.019989809200208875, -0.5719772237741865, 3.424892160516513], [0.08676255046560444, 1.7481490305039364, 1.9334907990990522, -1.1669064905766797], [3.0972942249096347, 0.20621880579098562, -1.8321886987526286, 2.933138306692535], [0.4093554703985032, 1.902154012288324, 3.5241381225759056, 0.09082067530712723], [2.897108809639059, 0.3858254929970727, 2.8422732698963475, -0.9778457139628838], [3.689259339818031, 1.7996133511898935, 0.9289683312101025, -1.5363811423467992], [0.6703685584617678, 1.8184746938275518, 0.6449218548008797, -0.5666306002964518], [-0.41185145214814467, 3.5157986253386375, -0.6740589124560341, 1.4310524000209517], [2.998110003267982, -0.8395773093387884, 1.4764541298173657, 1.7757030036068693], [-1.6371691274191624, -0.9244225617131743, 1.0599502756965564, 1.0318313628027285], [-0.589905435510004, 1.3605564337044345, 0.6779677251552443, 2.391594045161204], [-0.8168240923222805, -2.613876185726779, 2.02071529096807, -1.555918587573101]], "y": [-12.320964124614017, -10.96457198815576, -13.948740065796315, -5.957342628317859, -23.010245121056663, -15.016159283445326, -26.238020498563483, -6.485861940075647, -17.611278940417446, -7.250240158363001, -14.862098832708858, -22.046963864955185, -11.692716641242788, -18.747524679155866, 6.705323616786132, 6.788256372073548, 5.9224065470710645, 2.222541965745242, -2.2082129567365962, 8.900398309544833, 5.595022055899276, 6.951725617585328, -2.366126220709523, 4.644130178496914, -8.671297212631863, -2.432319036434685, -3.388095664810896, 0.7072864477455028, 10.03779191176723, 10.39402881542838, 11.204330470100127, 10.14940928348328, 10.456078420707126, 10.68361162207204, 10.483271820924061, 10.21736175799366, 10.49397265962185, 9.803798480013803, 10.29061428744963, 9.748738515382946, 9.916847098266357, 9.745664719542814], "z": [0, 0, 0, 0, 0, 0, 0, 0, 0, 0, 0, 0, 0, 0, 1, 1, 1, 1, 1, 1, 1, 1, 1, 1, 1, 1, 1, 1, 2, 2, 2, 2, 2, 2, 2, 2, 2, 2, 2, 2, 2, 2], "regression_weights": [[[-10], -1.9224251296412214, -1.1574691928567675, -1.192529212784625, -1.08600086715456], [[1], 1.3217738463910147, 1.2249224625567765, 1.2413813808260508, 1.8376549176010264], [[10], 0.1, 0.1, 0.1, 0.1]], "ground_truth_mse": 0.2893514368659381, "ground_truth_r2": 0.9977535913850395, "train": [0, 1, 2, 3, 4, 5, 6, 7, 8, 9, 10, 11, 12, 13, 14, 15, 16, 17, 18, 19, 20, 21, 22, 23, 24, 25, 26, 27, 28, 29, 30, 31, 32, 33, 34, 35, 36, 37, 38, 39, 40, 41], "val": null, "input_args": {"N": 42, "K": 3, "D": 4, "noise_std": 0.5, "outlier_ratio": 0.0}}