{"X": [[1.2007982449758292, 0.5541476083256787, 1.62185094611069, 1.9311753572503623], [0.7044770554795451, 1.2822699945401945, 0.2937001397676532, 1.0372198929619167], [-0.15216154469975152, 1.4365366956991061, 3.977691935507992, -0.4106943641131824], [-4.496893657463785, -2.0172649584917637, 3.276520525378231, -0.9654761694359726], [3.4287494384771935, 3.1552212216651174, 2.241981927679455, -1.5388380274595668], [-1.6875657591431779, -1.3877628168458038, -0.8091803859439275, 0.6320676571179871], [2.7550830428782707, 2.198125521391211, 3.0288732681100154, -1.7693920729005805], [3.223547839361203, 1.0582680860329186, 0.557986905340069, -0.4456470716982912], [-0.5360514258939189, 3.247128889967677, 1.2672494850544314, 1.507454795590192], [-1.0821010806353568, 2.7223462486713776, 1.0824703128954085, -3.5454923907219973], [0.361948903327612, 0.25513868729314104, -0.24271145738571787, -0.3547336595928108], [-0.41768384086333765, 0.8057154639625046, -2.0065777668156013, 0.5787729579478212], [1.6367191159704966, 2.832632169720468, -0.4210335789951958, 0.02426316805477069], [1.6362738157708763, 4.018941721422391, 1.8913879115991308, 3.7202158605476483], [-1.7493243907341194, -1.301013522418783, 3.214832805159666, -2.8587814004025933], [1.9590199248848656, 4.183717299319577, 0.5858573589681901, 0.5615369961387517], [1.697071713681522, 0.5798499333375232, -0.8434084260392303, -0.0049193042659751995], [2.1766376317561082, 2.449048118658968, 1.8030708869978416, -1.5157041138890999], [2.0346120841283177, 1.866476295851861, -0.07825551268672326, 0.6236315826523904], [-1.1392882455442308, 3.1301495988164842, 2.240753422025726, -0.23506084824420714], [0.8088580923981767, -2.225410241459484, -0.0006181733870551653, 4.625850971162086], [1.7748362292722333, 3.129608252080697, 2.023691527847726, -1.192972117290831], [3.5069775302115542, 1.6006560419593772, 3.2007858948427486, 3.3771248483712144], [0.37890325756385057, -3.633193880661789, 2.785658740089667, 3.7251379312302317], [3.226751253687602, 2.6758301386454946, -1.162347616054411, -2.1758635271272797], [1.2720196267294621, 2.024739190242391, 0.4642401813081901, 1.4261955019186887], [2.059163186203273, -1.0957973462551327, 1.092236860777995, -0.7008775916146692], [0.22783846277030906, -0.24240016453475266, -0.4127809768165529, 4.147891913385321], [-3.0594365018025584, -0.6705193757171781, 0.2113947286439326, -4.726767838859935], [0.5885441784808406, 0.6407615699864139, 0.12167937316457544, 0.9218861234193705], [-2.3017352422399853, 0.4927885193675978, -4.9596513928870944, 0.7191783873292323], [-1.2018392047207125, 0.453010607810046, 3.410363268648166, -0.29169042517028254], [4.766000908252611, 3.216491046658228, -1.4278330135315058, 4.20630823921211], [0.48463437712740864, -0.8263150340257956, 1.7947731274002594, 1.9207367783618832], [-0.5984403869193422, 2.144725618198456, -0.29249488019194847, 2.3905295143398018], [3.267224633432532, 2.1712950457518096, 1.1719872771876414, -0.20105697972890502], [1.1178185306643778, -1.2007231595054688, 4.519483682588506, 2.4368469846822736], [3.6568644107632764, -0.6107454528641261, 1.5125414099808552, -0.7894176112937659], [0.301154767027069, 0.6915389745516443, -0.6807678566486417, -2.4181834766984167], [2.7966328566030603, 1.940503759600596, 0.9959841106727213, 2.592122672586543], [1.787414490938318, -0.07848946380835575, 2.1602747477115, 3.092186307145915], [3.1187153576110793, 1.450807178450552, 2.8998296672696826, -0.10781670852857816]], "y": [-17.617952826654587, -15.549356793908519, -15.027506515424225, -2.683791667777674, -19.991099692924752, -4.679652921687579, -18.40441479283632, -16.294473779578606, -19.12443543232373, -8.633594872587201, -10.625893073612083, -9.69431534519518, -16.960088572882906, -27.76601181355818, -4.161182303046471, 12.941612694019168, 3.9845791481483044, 10.27405176834679, 7.546415089448278, 8.251206086013948, 4.305534415057341, 10.318721703228961, 18.478460320197247, 4.248238150324152, 6.508543609857813, 9.718456497339403, 2.861488575778428, 6.01614509813283, 9.177111522693481, 10.174321903476407, 9.791584686887958, 9.921198609760614, 11.072999263816264, 10.286849118981753, 10.338277911116768, 10.765553826946762, 10.786172649364218, 11.044348562779415, 9.745936437684348, 11.613290486670738, 10.543212097615422, 10.497287840841167], "z": [0, 0, 0, 0, 0, 0, 0, 0, 0, 0, 0, 0, 0, 0, 1, 1, 1, 1, 1, 1, 1, 1, 1, 1, 1, 1, 1, 1, 2, 2, 2, 2, 2, 2, 2, 2, 2, 2, 2, 2, 2, 2], "regression_weights": [[[-10], -1.3163084365653352, -1.789801674558087, -1.1548577367963397, -1.7570254645718473], [[1], 1.5464893490871066, 1.8136266725048937, 1.4942363331180673, 1.422859284095798], [[10], 0.1, 0.1, 0.1, 0.1]], "ground_truth_mse": 0.19512351284168786, "ground_truth_r2": 0.9986544090140276, "train": [0, 1, 2, 3, 4, 5, 6, 7, 8, 9, 10, 11, 12, 13, 14, 15, 16, 17, 18, 19, 20, 21, 22, 23, 24, 25, 26, 27, 28, 29, 30, 31, 32, 33, 34, 35, 36, 37, 38, 39, 40, 41], "val": null, "input_args": {"N": 42, "K": 3, "D": 4, "noise_std": 0.5, "outlier_ratio": 0.0}}