{"X": [[0.16648430518905877, 0.887466345547341], [-3.272392191336908, 4.280541616809977], [-2.5868711703897262, -0.683494731312408], [2.0057628343160854, -1.4905761732144631], [-1.1159044377246778, -0.8180152298536987], [2.102908089092849, 5.584416025629915], [1.083078785996807, -1.2358508902270335], [2.0781166411615777, -0.19231939961293398], [0.9617390069576971, 3.350002439000582], [-0.4957418985877249, 1.0180505019466501], [-0.756215786480684, 0.6871316592307527], [1.5131409040025914, -0.9775580975392435], [0.3223560679416073, 0.5276319382947974], [-0.27531002496860246, -1.3752245727705685], [-1.8424344546082536, 0.6930096086461017], [0.461886079567973, 5.462733577773209], [-3.8695351530420883, 1.2254530096332978], [1.7408890733264686, 3.7192677253451922], [2.0037144135626264, -0.6884274076597237], [1.0000195229431923, 2.0847051442980584], [0.37298360601318226, 2.542023476138823], [-2.736181309127527, 4.462369331960936], [3.9353560211468257, 0.3286453229523051], [2.2226815591474347, 1.0959411837363768], [-0.6582705780295575, 1.1754204368166628], [3.00073177310139, 0.2378149649693001], [0.2486611538420127, 0.8510584742120381], [1.8669926601531417, 3.5567584605437363], [-0.26935861035872466, 2.0167924853668637], [1.432232012527364, -2.717224772246995]], "y": [-9.415362005208074, -10.520590678530713, -3.5089618113709826, -5.83179791535237, -8.450292436793344, -19.511841895135472, -4.649782845086148, -9.932097591586018, -16.450905923697732, -8.493058346098254, -0.3199229614774328, -0.615088142346168, 2.9970455325501923, -8.119915921781415, -5.830529523763111, 8.016123734174062, -4.569586104583745, 9.667101064022324, -1.213628158735112, 0.3231188695626024, 15.421271399440641, 9.382401750580465, 10.662748850817646, 5.3452436225412825, 8.146375450040571, 10.7120837377916, 6.0814944418273456, 11.85731817627954, 8.072507972784996, 8.850572599751569], "z": [0, 0, 0, 0, 0, 0, 0, 0, 0, 0, 1, 1, 1, 1, 1, 1, 1, 1, 1, 1, 2, 2, 2, 2, 2, 2, 2, 2, 2, 2], "regression_weights": [[[-10], -1.356624281122759, -1.0456789652454002], [[1], 1.0168465546427874, 1.5586450806451533], [[10], 0.1, 0.1]], "ground_truth_mse": 10.025527867196763, "ground_truth_r2": 0.8757447097901414, "train": [0, 1, 2, 3, 4, 5, 6, 7, 8, 9, 10, 11, 12, 13, 14, 15, 16, 17, 18, 19, 20, 21, 22, 23, 24, 25, 26, 27, 28, 29], "val": null, "input_args": {"N": 30, "K": 3, "D": 2, "noise_std": 3.5, "outlier_ratio": 0.0}}