{"X": [[2.219279074092765, 1.2860776257679425], [0.8842344617445622, 4.60069121490975], [-0.33579557463132925, 0.45236073803704746], [-0.8367533600013062, 0.5598708486333119], [2.84855686406783, -1.1140605809394701], [2.244358541381933, 2.590033446008218], [0.647985306985748, 0.2764196696367909], [-0.13723634609693725, 1.7834959880206247], [1.2757149804246253, 1.9134513522090622], [0.9753179149777567, 0.8746128305502561], [-1.208955620256996, 2.341843123732489], [-3.863386344708874, 2.198016479236647], [0.7813074754479729, 0.34626863982269085], [-0.718197360354708, -0.46233598428136835], [0.12056096726682863, 2.520029742082177], [-0.3965399912406231, -0.1426875008074031], [2.215549294067146, 1.6252114743927022], [3.653623002770114, 2.7856580130332897], [-0.7401303417084242, 0.7999638061802002], [2.7116049883353477, -1.111324108625094], [0.5033829020393923, 0.021529989031932595], [-2.866465978881555, 0.6238356894968057], [0.729889283871618, 1.529861735895942], [0.482359236552135, 2.0911180732665415], [1.3041699532287485, 1.4424681747332715], [-0.7606877524760107, -1.4541373714589838], [2.2726163968941524, -1.6002953252407233], [0.6122022300139336, -0.30337243339416586], [-1.7739098791897514, 0.6979553117964243], [2.645578040834428, 2.6798569814617257], [4.152927989899597, -2.4707450330951914], [-1.60610337560983, 2.184808735050497], [0.9218900571472959, 2.6188545243943775], [0.2316641434692891, -0.5301758265289649], [-1.2829043463608683, 2.8194542209393], [3.7384189843411177, -0.2772064388534017], [2.2669786583615026, -2.848350469913686], [2.4674224916768774, 2.572584266886916], [0.4456979423009225, 2.6787353590313563], [-0.9404364467113737, 1.648862644528342], [0.3164751667030756, -0.487912934727031], [3.7409873854951314, -0.027793900235361546], [-3.072252504350076, -0.4352552651346475], [3.4024091281016218, 0.7398512230963503], [-1.9367734245474417, -0.6821762484362697], [2.596541629812872, 1.9184147411050292], [-1.211883164813234, 1.6221806147580757], [1.250262468171004, 1.4475869983389587], [0.19038364155652976, 2.5627667457370658], [-0.29704052232011935, 0.62027059617658], [1.2919019570338865, 0.022901815570021355], [1.204696337884232, 2.1908058070757117], [3.464684227032907, 2.2815330720775817], [2.1434115522181783, -0.43370613519261814], [1.5327101762211728, 4.013481560656686], [2.5124644409556476, 2.861431547129923], [-0.8367851889226141, 0.47109713834627176], [1.1488513159355913, 1.557886230262461], [1.0184139886428296, 0.4691356101712192], [2.595996126085435, -0.32782085375820413], [2.546302267786495, -4.544854629175838], [0.1571499557211673, 1.5890791853857529], [-1.2849000096915821, 1.8591454820259035], [1.5536027188843953, 1.8490334027623756], [-1.1229598761991113, 2.6335726099769543], [1.3894246985228222, 1.6320719535057708], [-0.1935787947326022, -0.5315022613516045], [-1.0110603612885587, 1.1741897333910343], [3.2462543568271225, -3.154528249758414], [0.30251741253022235, 3.6142069890221764], [1.632310808041088, 3.7643842339902873], [1.802665217334814, -1.2829868779991855], [-0.5891524390543936, 2.0660561804343676], [3.4388439272000273, 0.45981438090297955], [0.28542317142872253, -0.5179527210790413]], "y": [-13.770007015683806, -17.05488450413411, -7.592122987406309, -3.7108255432383963, -14.930468682409046, -17.770464405750896, -5.975061735518119, -8.967568308196759, -16.06649319651078, -10.85309522175727, -11.877890789856147, -6.790002997323214, -10.978426132407884, -14.864444052159472, -18.959173185658877, -11.076991275611954, -19.40948834435597, -18.684292050436163, -12.656408482104599, -18.80194673004575, -5.830474835432985, -6.121193503929134, -12.760161235591214, -18.123058867293572, -15.877498248268035, -1.862744741600864, -2.920216987478617, 2.550450984664394, -2.0772177031225763, 7.4444986350783315, -0.17529778914224692, 9.10908076901417, 6.276545501022656, -3.2839593101830165, 6.913446855513523, 0.710328474963708, -0.1837809121519749, 1.2221020386084005, 1.207449581316344, 3.238250556406128, 3.1714690549608573, 5.9890701959095445, -3.7495109956268617, 5.174324142663533, -7.572617915408594, 4.65764869647194, 0.5721472349487633, 8.520610712870107, 6.5687800910703436, -4.520601165014907, 11.265774270142174, 8.991762233038887, 8.205394728840194, 12.311837552645592, 14.163117502423615, 13.796870015715253, 7.026169863663132, 9.188430439140554, 11.308176969793879, 13.641225472160981, 8.123034931402552, 9.524816495787332, 6.185252138212334, 6.153540427882328, 12.994901651757477, 15.04898976520074, 9.67545646886041, 13.528678079832332, 11.27489869837359, 8.133753299037306, 11.804554123482587, 15.435095816564456, 10.022299237253167, 15.866118626159324, 0.8076391807208623], "z": [0, 0, 0, 0, 0, 0, 0, 0, 0, 0, 0, 0, 0, 0, 0, 0, 0, 0, 0, 0, 0, 0, 0, 0, 0, 1, 1, 1, 1, 1, 1, 1, 1, 1, 1, 1, 1, 1, 1, 1, 1, 1, 1, 1, 1, 1, 1, 1, 1, 1, 2, 2, 2, 2, 2, 2, 2, 2, 2, 2, 2, 2, 2, 2, 2, 2, 2, 2, 2, 2, 2, 2, 2, 2, 2], "regression_weights": [[[-10], -1.8618020349556201, -1.0704239210450157], [[1], 1.185298186979812, 1.6156190177277885], [[10], 0.1, 0.1]], "ground_truth_mse": 11.2570486209453, "ground_truth_r2": 0.8984796095613107, "train": [0, 1, 2, 3, 4, 5, 6, 7, 8, 9, 10, 11, 12, 13, 14, 15, 16, 17, 18, 19, 20, 21, 22, 23, 24, 25, 26, 27, 28, 29, 30, 31, 32, 33, 34, 35, 36, 37, 38, 39, 40, 41, 42, 43, 44, 45, 46, 47, 48, 49, 50, 51, 52, 53, 54, 55, 56, 57, 58, 59, 60, 61, 62, 63, 64, 65, 66, 67, 68, 69, 70, 71, 72, 73, 74], "val": null, "input_args": {"N": 75, "K": 3, "D": 2, "noise_std": 3.5, "outlier_ratio": 0.0}}