{"X": [[2.6883012710037484, 1.7302312743610784], [-0.26414981982995855, -0.7467071241359764], [-2.253156118525143, 7.841152731059105], [-0.02862309522519446, 0.20607951542713598], [0.4632651464275782, -1.5052483717335714], [4.352488040432883, 1.6204847662350828], [0.3875008508090797, 0.58931685079027], [-0.9636734645182272, 1.225700580077636], [4.824114677184214, -1.356539538534519], [3.124019521276319, -1.2306994628850476], [3.1605094888542866, 1.988749275816562], [-1.2046964057324954, -1.543089568005236], [2.7194933225518225, 1.608417478799108], [0.6492791339821641, -0.1626575910578265], [0.28460644587256456, -0.250429089345233], [-0.47037649476552823, 2.489790291126366], [-1.4562178111539685, -0.7930601367816328], [0.12640202676587986, 1.367585268753341], [1.2992701933161097, 2.1116143090688153], [-3.598241285287239, -0.8183228163531551], [-0.3983987846105417, 1.8904861648236628], [1.9689196963489424, 1.4273673627502557], [-0.714903002860745, 4.24902226373419], [-0.9231409395275585, 2.0961442731812916], [2.856998815753037, 0.46107890641460414], [-0.47400031314891056, 4.680149633861808], [-0.12477015176500639, -0.9725242284536593], [-0.23838840331418032, 2.1606019301949164], [2.59925172262065, -1.1679792789938652], [-0.0215647803838539, 3.26149034580497], [2.0023816348333683, -0.4345109426899818], [0.429505637709248, -0.15788627048261294], [6.446656703300523, 0.9200604686372321], [1.8273872915621734, 1.9997789916095143], [-1.091654405539375, -0.6075729244789934], [-3.363693990080347, 4.1977565897522044], [4.172057659818604, -0.8739308118347837], [4.252442819290333, 3.247353044714367], [1.5778241207747423, 2.282143043846875], [1.3591308284486834, 2.2827020187897333], [1.448400856543402, 0.9927647303261599], [1.6049100753827414, 0.6193750553580877], [-0.8213855495581508, 0.8398863506299149], [2.084554259158104, 2.285982778308928], [3.515868801221253, 2.45163852663079], [2.09511257241751, 1.513479916533789], [1.4098719294933595, 0.31346515098778716], [1.6340037721332463, -0.7458066894783548], [0.476262142516911, 3.839551253312536], [3.7467850775818916, -0.989545611842882], [0.6163846566322997, 2.2524819069301696], [3.925588834484366, 0.3266277799655637], [1.7318782647948152, 0.5348878715724152], [2.907876011334753, 0.2468564981667346], [1.6217854819469095, 2.3906844667059204], [1.5489103682367489, 2.7274506752893126], [3.1815198651919077, 1.4728407680056395], [2.4267791131992924, -2.329559493460393], [2.5045325869411936, 2.2835310133262925], [-0.9955412475963332, 1.468894895162768], [1.796610050535797, 1.4823704786043868], [-0.49046314833328375, -3.740996757901639], [3.03748284976776, 1.4651240080338364], [-2.182844678370012, 3.854662303029495], [-0.20986417007202562, 1.9559411581246215], [2.2976140030653385, 2.2511751720845457], [3.521190903975533, -2.4076027823166317], [-3.2075475952026764, 0.8597293387418646], [0.37534021423056363, 2.137290253449623], [-0.45367435868020567, -0.8207773125349263], [0.11050263745272637, 1.0437471002852041], [-2.178112619947137, -1.4167629308442526], [0.6233999745121965, 2.8217560172866927], [3.7031168248950483, 0.058568450396997984], [0.7439806922798106, 0.04120109114705006]], "y": [-16.25493409268227, -6.241430894060489, -16.182444853335117, -13.364218558904826, -17.405583671179958, -13.731226611431993, -7.211990966883169, -15.687880655765518, -8.115840512046407, -13.572663472654295, -6.806142873802472, -4.648194181429263, -16.227043356113892, -6.210709717156306, -9.631651574240614, -12.032507198804375, -7.111379649595795, -12.346260080162796, -11.823209294676325, -2.0681153162534205, -10.59765128723815, -7.632127242391171, -19.08784375767639, -13.113535582937033, -10.929909336119996, 3.1678009695037614, 4.823184470970482, 6.3657359735080705, 2.647773684751452, 7.728904289918508, 1.4022509359845534, -3.756846154406033, 15.384259158991686, 10.13645182423635, -1.204883434566422, 2.000691061492592, -1.2819762222992486, 9.54981622103532, 5.242647180322045, 7.3513918439326105, 9.584476417670711, 2.6008892615752286, -1.7451864390047498, 11.008644714430874, 9.689999555161304, 1.731393207482487, 7.922707917582651, -0.5844786798071433, 5.5337352332702, 1.7123504653823356, 11.542585001470332, 14.183106358452601, 8.912410078119064, 11.70275975666119, 8.751185025880178, 18.605763446965984, 15.725185422301609, 7.925612945545676, 12.328000057786173, 13.336722156293877, 11.81989690645955, 6.9233044038581655, 9.881976268028902, 12.7110166255863, 11.728898089988938, 7.455999680383454, 11.675608297879393, 6.213950220489995, 2.788131157947123, 10.481075570809397, 13.444629366744328, 11.18715329987992, 15.486076475801394, 16.499475755785646, 11.315875354148401], "z": [0, 0, 0, 0, 0, 0, 0, 0, 0, 0, 0, 0, 0, 0, 0, 0, 0, 0, 0, 0, 0, 0, 0, 0, 0, 1, 1, 1, 1, 1, 1, 1, 1, 1, 1, 1, 1, 1, 1, 1, 1, 1, 1, 1, 1, 1, 1, 1, 1, 1, 2, 2, 2, 2, 2, 2, 2, 2, 2, 2, 2, 2, 2, 2, 2, 2, 2, 2, 2, 2, 2, 2, 2, 2, 2], "regression_weights": [[[-10], -1.1399354743331296, -1.2132489350240876], [[1], 1.551762388557354, 1.500133021020378], [[10], 0.1, 0.1]], "ground_truth_mse": 13.09818814155953, "ground_truth_r2": 0.8764532497675215, "train": [0, 1, 2, 3, 4, 5, 6, 7, 8, 9, 10, 11, 12, 13, 14, 15, 16, 17, 18, 19, 20, 21, 22, 23, 24, 25, 26, 27, 28, 29, 30, 31, 32, 33, 34, 35, 36, 37, 38, 39, 40, 41, 42, 43, 44, 45, 46, 47, 48, 49, 50, 51, 52, 53, 54, 55, 56, 57, 58, 59, 60, 61, 62, 63, 64, 65, 66, 67, 68, 69, 70, 71, 72, 73, 74], "val": null, "input_args": {"N": 75, "K": 3, "D": 2, "noise_std": 3.5, "outlier_ratio": 0.0}}