{"X": [[1.4671836762118726, 2.664265379869759], [-1.6050099417627726, 4.2144754057270175], [3.30058736200568, 0.40519685206168465], [-1.4304781845835284, -0.5800167350902674], [2.9753556075815206, 0.9351279845485536], [-0.6818436889494315, 3.358876712416989], [-5.1123891005960225, 2.0827888843597524], [-0.9216336330527612, 2.453065737733418], [-1.3548662524297468, 1.8199326914876461], [-0.40122254088034004, 2.4142052749389915], [1.7050059407467644, 4.539646255686235], [1.462325238120335, 1.6514389086923975], [-2.563585368459788, 2.389159062790429], [3.2650277003265833, -0.9546537875591816], [-0.9136687019474445, 2.1650017697398614], [2.3271873121370685, 2.178452116055226], [-1.437675847996133, 0.1739965326118883], [0.52183349683912, -4.147161500489698], [0.39393102097363386, 0.81756634411254], [1.6088224201798385, 1.9014570828204918], [5.192228371685235, 4.932293763783656], [1.6403442306238003, 2.4410259611572513], [1.3208216211220338, 2.9515925413495294], [2.90312432504101, 2.8961266766010936], [1.2344768032710864, -1.76609307987178], [2.2986383656413594, -2.2752076940857484], [-1.3817455821719364, -1.1682486923600197], [4.083586843783566, 0.3022676432907455], [1.1236646453846952, 2.459136926028811], [2.4514728453516517, 1.8502341875016506], [3.377200616014552, 1.2822410753273066], [-0.06792827438701887, -0.11886775081424683], [1.4081085084148524, 4.698612900549893], [1.880668772229615, 1.0434730335090387], [-1.8562096054721242, 3.572759467741945], [1.3893672888395707, 1.6129872093868793], [1.4720942076325965, 2.3776981793854777], [0.017684505237861914, 0.09679861058447103], [-1.148346651004378, 3.755293947657089], [1.8343854100057198, 3.913138957717615], [1.5727064081085755, -1.0176048396388904], [0.7135724709136908, -0.046710971879757146], [1.1734579162945338, -0.22976314668453268], [0.6633562079720212, 2.634405584277547], [0.2895603714060889, -1.2433871510752987], [0.2681144619874083, -0.0005576765592649746], [3.0838121177932045, 1.4251867036139938], [4.3794331445490755, 1.8809680720338702], [-0.43011553214786735, 2.9890012314537664], [0.21233801893103565, -1.0611664994556493]], "y": [-8.321640604640352, -4.815722259609361, -15.9921998683531, -15.3703256937821, -17.068598194371845, -0.35839799112769555, -4.141935676345586, -1.4871534355707139, -6.761103436171487, -5.69708856079718, -11.985135325241705, -2.3396867520247966, -13.48869725050477, -12.052980118502724, -10.6409880287835, -11.433835141387672, -7.209518174423166, -12.362259385027603, -9.82400085652703, -9.647879504398382, -2.2745968247503168, -10.819855560162273, -9.165067406991994, -6.776744490740331, -16.22050723817766, 8.75796207962751, 12.617787468433564, 13.143867276234998, 9.357503181119316, 6.414693011171588, 13.860497907558084, 9.285950616941717, 7.948358235998585, 9.843230590255825, 8.721887579467362, 7.18144204852309, 10.415316349316619, 5.881674552286469, 6.9743688841380465, 6.637903978035573, 6.822281404140729, 10.17175543362673, 10.360132238442722, 9.077989569369382, 9.894684948691076, 11.874575375298365, 14.77026773984337, 11.893054101182635, -2.0817965728241514, 14.370366247024663], "z": [0, 0, 0, 0, 0, 0, 0, 0, 0, 0, 0, 0, 0, 0, 0, 0, 0, 0, 0, 0, 0, 0, 0, 0, 0, 1, 1, 1, 1, 1, 1, 1, 1, 1, 1, 1, 1, 1, 1, 1, 1, 1, 1, 1, 1, 1, 1, 1, 1, 1], "regression_weights": [[[-10], 0.2, 0.4], [[10], -0.2, -0.4]], "ground_truth_mse": 15.680109381916523, "ground_truth_r2": 0.8459854801774069, "train": [0, 1, 2, 3, 4, 5, 6, 7, 8, 9, 10, 11, 12, 13, 14, 15, 16, 17, 18, 19, 20, 21, 22, 23, 24, 25, 26, 27, 28, 29, 30, 31, 32, 33, 34, 35, 36, 37, 38, 39, 40, 41, 42, 43, 44, 45, 46, 47, 48, 49], "val": null, "input_args": {"N": 50, "K": 2, "D": 2, "noise_std": 3.5, "outlier_ratio": 0.0}}