{"X": [[-2.5868711703897262, -0.683494731312408], [2.0057628343160854, -1.4905761732144631], [-1.1159044377246778, -0.8180152298536987], [2.102908089092849, 5.584416025629915], [1.083078785996807, -1.2358508902270335], [2.0781166411615777, -0.19231939961293398], [0.9617390069576971, 3.350002439000582], [-0.4957418985877249, 1.0180505019466501], [-0.756215786480684, 0.6871316592307527], [1.5131409040025914, -0.9775580975392435], [0.3223560679416073, 0.5276319382947974], [-0.27531002496860246, -1.3752245727705685], [-1.8424344546082536, 0.6930096086461017], [0.461886079567973, 5.462733577773209], [-3.8695351530420883, 1.2254530096332978], [1.7408890733264686, 3.7192677253451922], [2.0037144135626264, -0.6884274076597237], [1.0000195229431923, 2.0847051442980584], [0.37298360601318226, 2.542023476138823], [-2.736181309127527, 4.462369331960936], [3.9353560211468257, 0.3286453229523051], [2.2226815591474347, 1.0959411837363768], [-0.6582705780295575, 1.1754204368166628], [3.00073177310139, 0.2378149649693001], [0.2486611538420127, 0.8510584742120381], [1.8669926601531417, 3.5567584605437363], [-0.26935861035872466, 2.0167924853668637], [1.432232012527364, -2.717224772246995], [0.1613670356946223, 0.7353422031265133], [0.9208595206127886, 1.6520068667739611], [-3.0806460974574303, 1.0925110462833938], [-0.355351154656083, -1.8788780534772362], [2.0485928600206975, 2.470559152130405], [-0.3065005355840713, 2.6849125631426802], [0.23696703646982764, 1.1329780182922897], [-1.197477893992113, 4.168974112791353], [-4.318898912766977, 0.8170947542186837], [2.390239210093983, -3.066933092245227], [0.6210614705752384, 0.8455626692940856], [2.649406010873963, 3.496425841194068], [0.19221546132412104, -1.7690373330717297], [3.734470847854249, 3.4357712661125808], [0.07598930369323909, 1.7017769881754927], [1.763732468253394, 2.132550882884912], [1.408415957828224, 3.813392483322741], [-2.475919008769136, 3.0816479067814577], [1.760943940430001, 0.5657294625102413], [3.347062996989907, -3.687206381999924], [3.323042981481546, 1.772156095207189], [-1.2662665473539652, 1.8661851093133819], [0.39182712239736883, 6.170589736129099], [4.67066544572965, 1.8813797448302192], [-0.4385076828533545, -0.16682918915801515], [0.34990074323642784, -0.12046901247559405], [-0.8044921361410036, -0.18194455093889084], [0.4476410154985244, -0.033767787465173615], [-0.39717989987277735, -0.8577838490476384], [6.10087647175932, -1.9463464955997711], [-1.0428294610441329, 1.8647914019592124], [0.3528398598469521, 1.8476494157317613], [2.5983599900700307, 3.5252273266496403], [2.5039296984297614, -0.9875219662371817], [3.218286562723296, -2.529835456551511], [0.7711574059397587, 0.0036516121564829085], [-1.121598072660864, 2.183333041455358], [0.6334868524408372, 3.0397094587384745], [-1.9649309556453418, 2.6926237836841596], [1.9958802967336415, 1.2530083506130125], [-1.8376211022970685, 0.4964517632603519], [-2.0933492225288326, -3.1653038714898987], [7.559490802222799, 2.9417226400805463], [4.585185704796568, 0.14197336298031027], [2.392395959222861, 2.394832544553859], [2.2030316273343997, 1.0073189814289387], [0.5435048836119314, -3.139224525330901]], "y": [-5.40708503765239, -9.601214342013042, -11.04402489268212, -16.32136940672471, -11.751459088491986, -18.332879708704624, -17.084881374966955, -8.237548767236628, -8.456149265483809, -15.186128344278165, -8.838869204891434, -8.501731492967831, -6.577496864366007, -15.104741721751356, -9.74944854824452, -15.08711212132515, -14.29515343783791, -8.160348978595785, -10.611835492293109, -10.487444857214088, -19.42878782922986, -14.125599610928365, -9.7009961925221, -18.784334696703592, -3.448438603602339, 10.652983078123789, 9.688221144413093, -5.0692034656942555, 8.109726542001546, 0.1570356956016825, -4.037839474236531, -0.5566379509919799, 8.004801540655619, -3.4967643775210817, -0.7531166339921618, 8.718780557191637, 3.32217675659117, 2.8698354327731566, 2.257069988673837, 13.101103814028619, -5.492490807251179, 13.576836800478794, -0.9431685482382517, 6.862001638538964, 8.551942102146985, 5.0381703811272285, 3.3787734080339678, 4.292090858070072, 7.903778407946033, 5.0113146225945835, 13.4093496754922, 4.212138985261047, 10.070882515585875, 10.148691353031586, 7.175766595342738, 10.669324823053477, 4.780133479923482, 12.362101277942433, 11.866422184975793, 11.271608327876667, 19.28040329674645, 11.384842661137558, 10.304993612544518, 7.514554452617302, 11.146167732859494, 7.001100827260071, 14.524134443444552, 8.058132999323977, 10.420526445496925, 16.439425247761974, 15.124777806535596, 11.322026461762748, 15.308443190051939, 10.130079591791175, 12.523746858353714], "z": [0, 0, 0, 0, 0, 0, 0, 0, 0, 0, 0, 0, 0, 0, 0, 0, 0, 0, 0, 0, 0, 0, 0, 0, 0, 1, 1, 1, 1, 1, 1, 1, 1, 1, 1, 1, 1, 1, 1, 1, 1, 1, 1, 1, 1, 1, 1, 1, 1, 1, 2, 2, 2, 2, 2, 2, 2, 2, 2, 2, 2, 2, 2, 2, 2, 2, 2, 2, 2, 2, 2, 2, 2, 2, 2], "regression_weights": [[[-10], -1.4359949021420038, -1.0259262318278912], [[1], 1.4503375221212909, 1.5646776073817232], [[10], 0.1, 0.1]], "ground_truth_mse": 12.0667804762759, "ground_truth_r2": 0.8912722639309486, "train": [0, 1, 2, 3, 4, 5, 6, 7, 8, 9, 10, 11, 12, 13, 14, 15, 16, 17, 18, 19, 20, 21, 22, 23, 24, 25, 26, 27, 28, 29, 30, 31, 32, 33, 34, 35, 36, 37, 38, 39, 40, 41, 42, 43, 44, 45, 46, 47, 48, 49, 50, 51, 52, 53, 54, 55, 56, 57, 58, 59, 60, 61, 62, 63, 64, 65, 66, 67, 68, 69, 70, 71, 72, 73, 74], "val": null, "input_args": {"N": 75, "K": 3, "D": 2, "noise_std": 3.5, "outlier_ratio": 0.0}}