{"X": [[0.3864669607149819, 0.11403319150574676], [1.2302781829212068, 0.5395872744507998], [-0.670054241050591, 0.9090499691661604], [5.460545838369828, 2.552481935406556], [-0.4631444159443414, 4.1397312411194385], [2.9475090583195556, 2.843690946013517], [1.4392053872460837, -0.60799232311686], [4.006429598830601, 0.3308315347228834], [1.0102240131621947, 3.320469166701107], [-1.5870757923604621, 2.0222875628580077], [0.46297564128446334, 1.5942732785562104], [0.5479863811625226, 3.4366868058592615], [2.9686561820263684, 1.6454467372204502], [-1.5432668542572743, 1.5573073473368324], [2.37762576218421, 3.3123815349780044], [2.4246300964609913, 0.4173818782132577], [3.8623488926814944, 3.214312886532417], [-0.8391328117414873, 3.12911723936882], [0.7937667868018773, 0.2351443711065423], [0.19974154711260517, 3.49993162021349], [0.9954934891298175, -0.28645387686303536], [3.1510851260581396, -2.739021102917959], [-1.2107792007068219, 1.698082960707748], [-0.4199582623917708, 0.5127070254023971], [2.338894532964675, 1.969647683325568], [0.6975218096165169, 2.66216244590197], [-0.29751107146842903, -0.8412426927013394], [-0.01709015308166828, 0.9586485629218386], [1.276760814085953, 1.8935497079961845], [1.356252570382557, -1.811163898639827], [0.742735739311041, -0.6944035465818148], [-0.3623867739280642, -0.6047508346667652], [2.296579079308053, -1.47078832970224], [-0.8890711517909085, 3.231796872450562], [1.7717434645000396, 1.0306325906483962], [2.3690791753244502, -2.052002800623052], [0.5793974611660296, 2.9732106867085726], [3.357926313301834, 0.4797180725605963], [-0.2098423690615301, 2.144977629823673], [1.3605357489638934, 1.2777351469550782], [-0.2068349999089405, -1.580108405611484], [0.9538184604068187, -3.101907499142138], [-2.7559101429453805, 1.7840477797316714], [-1.012136487815479, -1.0123012096809991], [0.7111821042764377, 0.6102515080437222], [2.750281914349716, 0.453803346575951], [1.3674454959821136, 3.401292756243377], [-1.0857214386644332, -0.4579909968131124], [-0.8931089013493689, 0.3954413071764128], [2.559949064131109, -1.4371169095596081]], "y": [-3.6168936742485904, -8.010324976843476, -9.432649722291623, -14.40912251993913, -9.407595095541488, -9.514678237372136, -10.244951036986137, -11.260883835228192, -8.623131122102867, -11.178763239587148, -13.86822219709001, -5.419549669675244, -5.663476920980191, -3.7022247091314027, -8.024404485952946, -10.764492180525618, -9.850564883519091, -14.328850271141157, -6.308902874293447, -12.413815747882248, -14.063145697489855, -11.18516606393445, -4.3614034130972, -9.050401907023202, -12.327610009819477, 6.3001544593237355, 12.584356672944125, 9.058161834293365, 6.296300727867031, 9.648107517406633, 12.736911203189315, 17.230765429594378, 5.774567864673505, 6.692636292218664, 6.420216939822615, 1.8801941790589876, 5.461564157148105, 5.552962345365462, 13.117900278233975, 8.755098976622037, 4.9919113018030155, 13.313363390521094, 8.5906152586328, 4.506354152098389, 7.525389230032526, 7.208341949590826, 5.307405756138178, 10.504339040221689, 2.1515430708811882, 9.125690424036426], "z": [0, 0, 0, 0, 0, 0, 0, 0, 0, 0, 0, 0, 0, 0, 0, 0, 0, 0, 0, 0, 0, 0, 0, 0, 0, 1, 1, 1, 1, 1, 1, 1, 1, 1, 1, 1, 1, 1, 1, 1, 1, 1, 1, 1, 1, 1, 1, 1, 1, 1], "regression_weights": [[[-10], 0.2, 0.4], [[10], -0.2, -0.4]], "ground_truth_mse": 13.270742138657067, "ground_truth_r2": 0.8496380365815743, "train": [0, 1, 2, 3, 4, 5, 6, 7, 8, 9, 10, 11, 12, 13, 14, 15, 16, 17, 18, 19, 20, 21, 22, 23, 24, 25, 26, 27, 28, 29, 30, 31, 32, 33, 34, 35, 36, 37, 38, 39, 40, 41, 42, 43, 44, 45, 46, 47, 48, 49], "val": null, "input_args": {"N": 50, "K": 2, "D": 2, "noise_std": 3.5, "outlier_ratio": 0.0}}