{"X": [[-0.9599307341625991, -1.8126039209895377], [2.5482336815219053, 1.482217751948883], [0.01470687121064973, 3.409500456412427], [3.132308760958407, 5.794999255912377], [-2.124903183024188, 7.80661042595292], [0.6418228210651079, -0.3668852735954089], [-1.4595237397779521, -1.0350045484305896], [1.399882814235521, -0.5867413747266204], [3.565470604766849, -1.4992843759050225], [2.394877901225665, 0.615362896722699], [0.6378270722610273, 0.3068819999812553], [0.2734796850216671, 1.7648007891347646], [3.512430197701974, 4.516235837728177], [-1.3595957101091063, 0.07237199954963203], [2.328249423763939, 4.5198515394055], [3.047624677687784, 1.489036852279231], [3.7816117194310817, 2.375711559366593], [0.1086297604545352, 2.3395484402911615], [-2.2245113497723854, -1.2546736461361747], [-2.581872222326304, 2.869389443275362], [1.2904715217976408, -0.7176437780508946], [-3.040125717830599, 0.8003489816152265], [1.9829925215866577, 4.37045615749275], [-3.5740481947894844, 4.874991993038925], [-0.44004550085250105, 0.8358986827672517], [1.4774717893820846, 2.240016460283298], [1.7986493849705436, 0.589843045263314], [0.36150426167402216, -0.308230032753686], [6.25778735291786, 4.455733115531991], [-5.551533758299165, -0.501116203244137]], "y": [-6.519543668321283, -11.00852061107269, -20.482531061569507, -25.03948010516973, -23.69069240046019, -1.9893096978648153, -0.9881437715096233, -3.4367480043806546, -10.148782415115852, -10.287604188090443, -1.7663555383388556, 10.173620228883786, 7.8911253847889515, -3.4216924932520434, 8.603303552200426, 4.828435778090603, 12.803546200068482, 3.054542184832853, -4.239395538711511, -0.5745792000416124, 14.77132276977385, 7.651687535628531, 10.025476120151728, 11.614274353435974, 4.2786199513083085, 8.679355500088022, 12.112988118078555, 14.086819125200043, 11.637242927452766, 7.039816259088248], "z": [0, 0, 0, 0, 0, 0, 0, 0, 0, 0, 1, 1, 1, 1, 1, 1, 1, 1, 1, 1, 2, 2, 2, 2, 2, 2, 2, 2, 2, 2], "regression_weights": [[[-10], -1.2720531724698234, -1.0703700159201661], [[1], 1.6039484906755543, 1.1489683574896898], [[10], 0.1, 0.1]], "ground_truth_mse": 17.66872959307282, "ground_truth_r2": 0.8519588626908828, "train": [0, 1, 2, 3, 4, 5, 6, 7, 8, 9, 10, 11, 12, 13, 14, 15, 16, 17, 18, 19, 20, 21, 22, 23, 24, 25, 26, 27, 28, 29], "val": null, "input_args": {"N": 30, "K": 3, "D": 2, "noise_std": 3.5, "outlier_ratio": 0.0}}