{"X": [[1.1531691595829372, -0.840522380204896], [0.34386009826156116, -1.6596240763576584], [-1.2263925014456993, -0.2317332851508236], [1.9950255393060465, -3.978305493803548], [-0.2717258710470485, 2.7316381653797404], [3.1616641051263388, 1.2863576784876711], [2.4218476316393747, -1.8493430340636237], [1.1514323697986766, 2.098994520493332], [1.429310748409149, -1.8172343219273674], [1.7724400804200156, 0.5321373538035925], [-0.33168049893161733, -1.950118251676336], [2.9165046940894293, -1.5865810506666094], [-5.0113430845665725, 1.534559647686773], [-1.2208176609601464, 0.5404016212597678], [3.7459491998201058, 2.2715867075249925], [1.4942937701414278, -1.623293599150144], [4.660552491265689, 1.4176063494838442], [3.0286655023817413, 2.4103752897742394], [-0.5546883166266272, 1.2585345678358308], [1.9633636052146888, -0.7471482168913335], [-2.2383780601914682, 1.2886779207147567], [1.78303288465108, 5.154622873776565], [-1.8980039374158322, 2.1084880244732203], [2.2672181622236542, 3.5998239425408802], [2.8957861302127883, 3.5852320216601563], [-0.6136837239841555, 3.3916286269298865], [-0.6791332218567208, 2.127325542823434], [2.6077723854855064, -3.65822392017847], [4.083225934057662, 0.7712020384297057], [-1.727636172461184, 1.4052572950101523], [-1.345714715726102, 3.801772494349221], [4.7135876118573705, -0.21428356216768596], [-0.7977257515922662, -1.3395489592091416], [-0.9703851726452661, -0.15480239079533997], [-1.199952099996163, 0.6650619887676403], [-0.6108142724555379, -2.924910845469669], [-2.2493359253907608, -0.46783078685779245], [0.016378086517650714, 2.9269947694649185], [2.405646902665705, -2.038556324269664], [1.252164112669036, -0.05953781877738917], [1.8776963616082323, 2.073634986852822], [0.938306626403943, 3.8382645959743473], [1.002653547202227, -0.43945458970659423], [0.9309580522642229, -1.7677396917521366], [1.2286986974623946, 1.6762388897197282], [-1.6463899257345984, 0.6582973608622456], [-0.5876660508458815, 4.317580148801062], [3.918354954867236, -1.0069710120634974], [0.41808760923307586, 0.5427601389219316], [3.1404315423077573, 1.8039585015377415], [1.4909847820154598, 3.3326613076947935], [-0.4408751097419288, 3.1916169759818738], [-2.005902935568429, 3.2204539177198], [1.7678037279081527, 0.20590397579715036], [4.434289778260689, 0.3456352382785638], [2.798589873154536, 4.45054271989736], [1.4975903873691927, 0.2574584691418642], [-1.5153448305855561, 4.312387560094603], [0.9998358111910627, 1.2103547655565992], [1.3814874713226826, -2.733253432321703]], "y": [-10.911883713453253, -9.212173931444696, -11.275186174516836, -7.913342668985355, -14.838388452180801, -19.481117790746485, -17.110096082487253, -16.95809260527189, -10.835847649193457, -16.360680213466544, -4.284135613799618, -7.0194732428774795, -1.8637105107905636, -6.039827831309266, -13.958693966981933, -8.892625880591496, -15.38950189522484, -22.35610090561195, -11.297035444817416, -8.024477276624179, 2.386540057024452, 10.16312151700022, 4.7446989209606425, 9.886460854634231, 11.101115845689169, 3.555430913142276, 3.7582990897362554, 0.4007158201728602, 5.216878439517345, -6.525627341420892, 4.175101928665304, 14.995639941761477, -11.108144749106861, -3.574927037080476, -0.35379939176358544, -2.7094627716062076, 1.61550049363917, 8.58576165803654, 5.738473219919613, 7.294578474287188, 8.097549113507558, 10.280756586666817, 8.306660727126419, 11.443789669413988, 8.97514809459992, 6.670475203533289, 17.083367257340456, 9.765078447967726, 7.860530629174308, 13.381135161142042, 6.244429005130584, 8.513155367379902, 7.664750171689879, 3.2874221824381555, 1.1829299240499438, 10.523025388581496, 7.878851834259516, 7.963730778314092, 12.913738592860117, 6.718306281078414], "z": [0, 0, 0, 0, 0, 0, 0, 0, 0, 0, 0, 0, 0, 0, 0, 0, 0, 0, 0, 0, 1, 1, 1, 1, 1, 1, 1, 1, 1, 1, 1, 1, 1, 1, 1, 1, 1, 1, 1, 1, 2, 2, 2, 2, 2, 2, 2, 2, 2, 2, 2, 2, 2, 2, 2, 2, 2, 2, 2, 2], "regression_weights": [[[-10], -1.867176330497902, -1.4721874563123234], [[1], 1.2070012222440416, 1.3384384086836025], [[10], 0.1, 0.1]], "ground_truth_mse": 13.470576434193935, "ground_truth_r2": 0.8657356368841534, "train": [0, 1, 2, 3, 4, 5, 6, 7, 8, 9, 10, 11, 12, 13, 14, 15, 16, 17, 18, 19, 20, 21, 22, 23, 24, 25, 26, 27, 28, 29, 30, 31, 32, 33, 34, 35, 36, 37, 38, 39, 40, 41, 42, 43, 44, 45, 46, 47, 48, 49, 50, 51, 52, 53, 54, 55, 56, 57, 58, 59], "val": null, "input_args": {"N": 60, "K": 3, "D": 2, "noise_std": 3.5, "outlier_ratio": 0.0}}