{"X": [[2.687496086223164, 0.8175085076319325], [0.2772248556506638, 1.3196703601108566], [1.1157439606418593, -1.4230275266724726], [1.726500755559241, -3.089578253427912], [-0.30986867899222403, 3.376599176172441], [1.6047029678857097, 1.0836596634272107], [2.369463928665925, 2.3976466981609037], [-0.6731194771033924, 0.5357508189244584], [0.4397747840746632, 1.1905843532709917], [-0.3666376665872122, -1.9171578699677037], [2.0562939634947246, -2.5264111464238037], [0.16368272938015638, 2.3166259886675933], [-0.23894261392566785, -0.29368930947956184], [0.17586034851716303, 4.561239858290689], [3.811810983212219, -0.2784660360151039], [3.3227238396877468, -3.70987744340016], [3.8671048351783983, 1.7755566951416109], [1.8691564295936227, 2.3637948328091998], [-0.12727459576976363, -0.9100200339267921], [1.751075337965898, 0.953504135287741], [0.11595599939496859, 3.057458426032527], [2.318022123996449, 0.004326885218608245], [1.3754257769569689, 2.466254974579047], [-4.50690149947767, 1.4719961037455156], [0.6389247026222785, 1.4339149102456064], [1.1331398703973425, 3.1193085467011685], [-3.0525777577041726, 0.5103084995735626], [1.4131339059791657, 0.6723411225118092], [0.03382078823579382, 3.3914157161232925], [-0.5447105811710913, 2.1463777737500784], [1.4732562629234636, 1.512147492083251], [5.907681148250093, 0.4560831587610069], [3.0514612869094426, 1.2945887557011482], [0.9181468493009952, 2.6685214677307396], [2.4976865457199575, 2.321538077677789], [3.1696004806181457, 1.409771282818145], [1.930475780715558, 1.55877896706122], [2.258691127308375, -0.38366315883492175], [2.8425056954472963, 1.0987255455591147], [1.9272640027107943, -3.131805700700479], [0.06656922475633209, 0.5102640971539616], [-3.973435188364796, 1.8495311724415169], [-1.8638221498037546, -1.122583438967617], [-0.3094718723838499, -2.943853361672302], [-0.5719111811116586, 0.0010228410988391001], [-1.1421412358847953, -0.9415876638685028], [1.50534010221908, -0.1342674649855895], [1.3931759970556623, 2.5999496345873734], [1.0645650107445728, 1.1096045378625015], [2.1248080608996354, 1.2634253230307837]], "y": [-9.131617438209854, -10.430091127201221, -14.252294279266067, -10.935620798869596, -10.035599190057182, -10.929569311121138, -13.877707660787305, -11.638375502127008, -10.278193326636025, -13.108006792080136, -8.373686885006666, -2.950202490158812, -9.126876484587047, -5.664069170498681, -2.9691690468497693, -9.31171460617639, -3.116802665699373, -11.833174880916006, -10.869400469047688, -4.726856736011548, -6.390376343695346, -9.422811411729823, -5.524902217735802, -8.980798725856484, -7.491362890044626, 7.282310503028702, 11.137111656006683, 10.597875535688999, 6.892882873225296, 1.9291722993425502, 8.811432658406648, 17.229169789895607, -0.4805127742641382, 5.552484560993893, 7.776247209428869, 9.744775210112678, 12.947007655750792, 13.350118104196158, 13.555345193468792, 15.730172043004469, 7.484996494848602, 9.85797403312534, 9.072138636924652, 12.76690355250847, 8.798627435664507, 7.374347772744884, 16.463014813095356, 8.15532500044127, 7.1076910370648925, 11.956364415365252], "z": [0, 0, 0, 0, 0, 0, 0, 0, 0, 0, 0, 0, 0, 0, 0, 0, 0, 0, 0, 0, 0, 0, 0, 0, 0, 1, 1, 1, 1, 1, 1, 1, 1, 1, 1, 1, 1, 1, 1, 1, 1, 1, 1, 1, 1, 1, 1, 1, 1, 1], "regression_weights": [[[-10], 0.2, 0.4], [[10], -0.2, -0.4]], "ground_truth_mse": 12.383174747204489, "ground_truth_r2": 0.8749073962312559, "train": [0, 1, 2, 3, 4, 5, 6, 7, 8, 9, 10, 11, 12, 13, 14, 15, 16, 17, 18, 19, 20, 21, 22, 23, 24, 25, 26, 27, 28, 29, 30, 31, 32, 33, 34, 35, 36, 37, 38, 39, 40, 41, 42, 43, 44, 45, 46, 47, 48, 49], "val": null, "input_args": {"N": 50, "K": 2, "D": 2, "noise_std": 3.5, "outlier_ratio": 0.0}}