{"X": [[0.16648430518905877, 0.887466345547341], [-3.272392191336908, 4.280541616809977], [-2.5868711703897262, -0.683494731312408], [2.0057628343160854, -1.4905761732144631], [-1.1159044377246778, -0.8180152298536987], [2.102908089092849, 5.584416025629915], [1.083078785996807, -1.2358508902270335], [2.0781166411615777, -0.19231939961293398], [0.9617390069576971, 3.350002439000582], [-0.4957418985877249, 1.0180505019466501], [-0.756215786480684, 0.6871316592307527], [1.5131409040025914, -0.9775580975392435], [0.3223560679416073, 0.5276319382947974], [-0.27531002496860246, -1.3752245727705685], [-1.8424344546082536, 0.6930096086461017], [0.461886079567973, 5.462733577773209], [-3.8695351530420883, 1.2254530096332978], [1.7408890733264686, 3.7192677253451922], [2.0037144135626264, -0.6884274076597237], [1.0000195229431923, 2.0847051442980584], [0.37298360601318226, 2.542023476138823], [-2.736181309127527, 4.462369331960936], [3.9353560211468257, 0.3286453229523051], [2.2226815591474347, 1.0959411837363768], [-0.6582705780295575, 1.1754204368166628], [3.00073177310139, 0.2378149649693001], [0.2486611538420127, 0.8510584742120381], [1.8669926601531417, 3.5567584605437363], [-0.26935861035872466, 2.0167924853668637], [1.432232012527364, -2.717224772246995], [0.1613670356946223, 0.7353422031265133], [0.9208595206127886, 1.6520068667739611], [-3.0806460974574303, 1.0925110462833938], [-0.355351154656083, -1.8788780534772362], [2.0485928600206975, 2.470559152130405], [-0.3065005355840713, 2.6849125631426802], [0.23696703646982764, 1.1329780182922897], [-1.197477893992113, 4.168974112791353], [-4.318898912766977, 0.8170947542186837], [2.390239210093983, -3.066933092245227], [0.6210614705752384, 0.8455626692940856], [2.649406010873963, 3.496425841194068], [0.19221546132412104, -1.7690373330717297], [3.734470847854249, 3.4357712661125808], [0.07598930369323909, 1.7017769881754927], [1.763732468253394, 2.132550882884912], [1.408415957828224, 3.813392483322741], [-2.475919008769136, 3.0816479067814577], [1.760943940430001, 0.5657294625102413], [3.347062996989907, -3.687206381999924], [3.323042981481546, 1.772156095207189], [-1.2662665473539652, 1.8661851093133819], [0.39182712239736883, 6.170589736129099], [4.67066544572965, 1.8813797448302192], [-0.4385076828533545, -0.16682918915801515], [0.34990074323642784, -0.12046901247559405], [-0.8044921361410036, -0.18194455093889084], [0.4476410154985244, -0.033767787465173615], [-0.39717989987277735, -0.8577838490476384], [6.10087647175932, -1.9463464955997711], [-1.0428294610441329, 1.8647914019592124], [0.3528398598469521, 1.8476494157317613], [2.5983599900700307, 3.5252273266496403], [2.5039296984297614, -0.9875219662371817], [3.218286562723296, -2.529835456551511], [0.7711574059397587, 0.0036516121564829085], [-1.121598072660864, 2.183333041455358], [0.6334868524408372, 3.0397094587384745], [-1.9649309556453418, 2.6926237836841596], [1.9958802967336415, 1.2530083506130125], [-1.8376211022970685, 0.4964517632603519], [-2.0933492225288326, -3.1653038714898987], [7.559490802222799, 2.9417226400805463], [4.585185704796568, 0.14197336298031027], [2.392395959222861, 2.394832544553859], [2.2030316273343997, 1.0073189814289387], [0.5435048836119314, -3.139224525330901], [2.220288172813315, 1.8469938008857456], [3.2357734669016835, 0.4515158222729482], [4.483624376944468, 0.10499824761470844], [-1.5108544366917167, 2.8763273425482883], [0.06330748088353622, -1.5094406142257095], [1.249647292771689, 2.5130042861051045], [1.4828792576833847, 1.9948512978494746], [9.217385247610402, 2.6422417546238233], [4.063520632633912, -2.9716915475852903], [1.7301070328816812, 2.548164066809398], [0.271041816774683, -0.7519589553307895], [1.7930403173734173, 0.37076512868813793], [-0.18751116576521398, 3.2990011354359647]], "y": [-4.889345960293479, -8.164596949755264, -5.246309874400648, -17.87326847012116, -8.529202342608489, -19.990620613185754, -10.57699895358641, -14.981361754695655, -14.971271281456227, -12.002824982380709, -14.217551016388072, -8.073781797220441, -7.919599968759163, -2.210271520991548, -7.8901325044515715, -17.68399868165765, -7.609351451695877, -21.7282727616544, -8.732761927093442, -17.428513335540995, -17.291193967481217, -11.36869399049856, -10.786797799503933, -13.487607261662223, -13.843869455018936, -17.04849234014454, -9.041841981221527, -16.89176051841829, -14.373209949685355, -10.074113225025904, 4.992307078114992, 11.836803007971469, -6.11298070892801, -4.647676719562927, 5.02359834447019, -3.710297768105976, -0.11684455655951842, 2.202788155521241, -0.05144842604860678, -0.793807734332386, -2.457717331821896, 12.576676251436965, -2.736143463852999, 5.691123930745929, 1.6846687386871824, 4.834681661834791, 5.950820295037496, 2.334865587188034, -3.4297548935344997, -0.8520847332332551, 12.138528929222945, 5.068256608476953, 15.101921412030887, 14.635661400550578, 5.30938291926001, -2.5950733846713097, 2.508947228764124, -4.916718490976992, -3.0282979564216745, 0.1022731350282946, 13.750712486953402, 14.888131295606573, 9.921407354618093, 16.362898383140028, 7.707298824526182, 10.604639930587203, 10.641483456548135, 6.642636172340096, 11.60558242228417, 17.111313476136395, 6.278625004968026, 12.621819251040977, 10.509347362582828, 16.66641146830579, 12.171982066979528, 12.687792460397052, 11.991499517913118, 11.278531670910326, 5.4835566696751, 15.329682439562745, 5.339205746653599, 10.690357860086436, 12.525534965027008, 7.415080101095257, 11.69368394958577, 14.196770910560609, 10.343461464719804, 6.841607323659067, 0.01129841333166226, 6.909707237962943], "z": [0, 0, 0, 0, 0, 0, 0, 0, 0, 0, 0, 0, 0, 0, 0, 0, 0, 0, 0, 0, 0, 0, 0, 0, 0, 0, 0, 0, 0, 0, 1, 1, 1, 1, 1, 1, 1, 1, 1, 1, 1, 1, 1, 1, 1, 1, 1, 1, 1, 1, 1, 1, 1, 1, 1, 1, 1, 1, 1, 1, 2, 2, 2, 2, 2, 2, 2, 2, 2, 2, 2, 2, 2, 2, 2, 2, 2, 2, 2, 2, 2, 2, 2, 2, 2, 2, 2, 2, 2, 2], "regression_weights": [[[-10], -1.4359949021420038, -1.0259262318278912], [[1], 1.4503375221212909, 1.5646776073817232], [[10], 0.1, 0.1]], "ground_truth_mse": 14.485689191697102, "ground_truth_r2": 0.8723027435239087, "train": [0, 1, 2, 3, 4, 5, 6, 7, 8, 9, 10, 11, 12, 13, 14, 15, 16, 17, 18, 19, 20, 21, 22, 23, 24, 25, 26, 27, 28, 29, 30, 31, 32, 33, 34, 35, 36, 37, 38, 39, 40, 41, 42, 43, 44, 45, 46, 47, 48, 49, 50, 51, 52, 53, 54, 55, 56, 57, 58, 59, 60, 61, 62, 63, 64, 65, 66, 67, 68, 69, 70, 71, 72, 73, 74, 75, 76, 77, 78, 79, 80, 81, 82, 83, 84, 85, 86, 87, 88, 89], "val": null, "input_args": {"N": 90, "K": 3, "D": 2, "noise_std": 3.5, "outlier_ratio": 0.0}}