{"X": [[2.6883012710037484, 1.7302312743610784], [-0.26414981982995855, -0.7467071241359764], [-2.253156118525143, 7.841152731059105], [-0.02862309522519446, 0.20607951542713598], [0.4632651464275782, -1.5052483717335714], [4.352488040432883, 1.6204847662350828], [0.3875008508090797, 0.58931685079027], [-0.9636734645182272, 1.225700580077636], [4.824114677184214, -1.356539538534519], [3.124019521276319, -1.2306994628850476], [3.1605094888542866, 1.988749275816562], [-1.2046964057324954, -1.543089568005236], [2.7194933225518225, 1.608417478799108], [0.6492791339821641, -0.1626575910578265], [0.28460644587256456, -0.250429089345233], [-0.47037649476552823, 2.489790291126366], [-1.4562178111539685, -0.7930601367816328], [0.12640202676587986, 1.367585268753341], [1.2992701933161097, 2.1116143090688153], [-3.598241285287239, -0.8183228163531551], [-0.3983987846105417, 1.8904861648236628], [1.9689196963489424, 1.4273673627502557], [-0.714903002860745, 4.24902226373419], [-0.9231409395275585, 2.0961442731812916], [2.856998815753037, 0.46107890641460414], [-0.47400031314891056, 4.680149633861808], [-0.12477015176500639, -0.9725242284536593], [-0.23838840331418032, 2.1606019301949164], [2.59925172262065, -1.1679792789938652], [-0.0215647803838539, 3.26149034580497], [2.0023816348333683, -0.4345109426899818], [0.429505637709248, -0.15788627048261294], [6.446656703300523, 0.9200604686372321], [1.8273872915621734, 1.9997789916095143], [-1.091654405539375, -0.6075729244789934], [-3.363693990080347, 4.1977565897522044], [4.172057659818604, -0.8739308118347837], [4.252442819290333, 3.247353044714367], [1.5778241207747423, 2.282143043846875], [1.3591308284486834, 2.2827020187897333], [1.448400856543402, 0.9927647303261599], [1.6049100753827414, 0.6193750553580877], [-0.8213855495581508, 0.8398863506299149], [2.084554259158104, 2.285982778308928], [3.515868801221253, 2.45163852663079]], "y": [-11.946578598434463, -9.754822647470903, -21.070215794734434, -8.919474511038505, -10.666105975687021, -20.464892310525578, -11.78688531704084, -16.854291817646143, -12.013628367144083, -10.834954015937257, -21.34679166516482, -5.607840228575589, -15.914653285058439, -11.703255527037992, -10.852556762282008, -1.8644018382937175, -0.8382643239153991, 3.389914985057491, 7.09286033376106, -12.25041226736708, 8.385680837986488, 7.0952621262401685, 3.6049072297765976, 8.964258794509501, 6.883214129785547, 0.8837658665706636, -1.8762067628868964, -4.756198537019029, 8.179607035353866, 3.5901398297609717, 7.557849730998352, 13.780807397236897, 4.9579071542733395, 12.256719375458488, 2.604625456074049, 7.765848571133355, 6.115043225199318, 15.866894281647802, 16.56755978921483, 9.211235153028113, 13.186682906189331, 9.592476108690857, 11.990066685755114, 7.802123516271576, 4.617563521700509], "z": [0, 0, 0, 0, 0, 0, 0, 0, 0, 0, 0, 0, 0, 0, 0, 1, 1, 1, 1, 1, 1, 1, 1, 1, 1, 1, 1, 1, 1, 1, 2, 2, 2, 2, 2, 2, 2, 2, 2, 2, 2, 2, 2, 2, 2], "regression_weights": [[[-10], -1.6937190073076103, -1.9131497914287823], [[1], 1.9124945877898352, 1.2537343474315312], [[10], 0.1, 0.1]], "ground_truth_mse": 13.76297651889966, "ground_truth_r2": 0.8804128718866582, "train": [0, 1, 2, 3, 4, 5, 6, 7, 8, 9, 10, 11, 12, 13, 14, 15, 16, 17, 18, 19, 20, 21, 22, 23, 24, 25, 26, 27, 28, 29, 30, 31, 32, 33, 34, 35, 36, 37, 38, 39, 40, 41, 42, 43, 44], "val": null, "input_args": {"N": 45, "K": 3, "D": 2, "noise_std": 3.5, "outlier_ratio": 0.0}}