{"X": [[0.7083370083376817, 0.5416853161933974], [4.233710539691842, 1.4963548161382116], [4.578920373976608, 0.42627178109562425], [2.0616760486031724, 3.0827961638337555], [0.6969908603125581, -2.981273194488359], [0.7084295841382727, 1.5600242903028383], [-0.9698988080237572, 1.7805281899038372], [0.37225254973657207, 3.174873608699409], [0.7528281785200497, -0.3171903756940162], [-0.5551652484516658, 1.9811228941626744], [0.6778134911692588, 1.4638367790988989], [-0.7294776430347034, 1.1519138314714048], [-0.8192926116346162, 0.37528366928408396], [-1.7765251761832026, 1.7445663615804936], [0.7249425304466772, -1.7596833560716165], [2.869963221629612, 4.1235870878181915], [-1.564577696790201, 5.037449036381959], [1.2073594583352532, -2.105755451738767], [2.7268963575425995, 1.8654904432260446], [-0.1809038304095243, 2.9648891988420907], [-2.938355997719875, -1.3262001371517735], [-1.7489931150132474, -0.8548244638190765], [1.5964668447449475, 1.63630557871915], [-0.13475209217442852, 1.726635964243831], [0.5884480946069088, 0.1702429594478445], [-2.363463510842652, -1.222483224476096], [-0.7114749520448349, 1.3479239691244242], [1.497393793581339, 3.4389506437984636], [1.6221864317209023, 3.504650823131083], [0.34718424730473574, 3.1186618681406584], [1.554993567759817, -0.3960847078858043], [3.4930447422548476, -0.576017311447798], [1.5362712733048083, 1.2459669670564373], [0.8448396233840816, 0.4832752414653092], [1.6705016887163693, 1.7285553249532888], [-0.6663550807027379, 2.4847302695682933], [4.447305790791072, 0.4757642867735894], [-4.3485725916829345, 0.643571661529861], [-0.41679358489397433, 2.145158534550937], [-1.7948955709945968, 0.6042717586024178], [3.6136239666878613, 0.8329055615130587], [1.9600302782696726, 3.3615074839467263]], "y": [-11.711504993480096, -17.154516345789713, -16.46865199647396, -17.28264262596822, -5.91145124753434, -14.269741381639351, -12.25678621744869, -15.553423790301647, -10.153592075959557, -13.324332149868274, -12.968662351177231, -11.17773128780984, -9.490949885180617, -10.781885851020315, -2.0031151603948816, 12.132045196800789, 8.227383250331814, -0.7357335185390713, 7.967581158229795, 6.309752638009684, -5.341937403315686, -2.576414403179851, 5.955993421868056, 3.4403425873509237, 3.106584650962127, -3.797347693677775, 3.523222255737912, 8.546534118659745, 11.330557496385962, 9.666101815626293, 9.790277969322501, 10.56292839728237, 10.30222694763147, 8.953774669979161, 9.787113679457265, 10.60075569584662, 11.536242441898025, 10.086920385885033, 10.034734817833177, 10.279193568123247, 9.87275366689698, 10.78711366770675], "z": [0, 0, 0, 0, 0, 0, 0, 0, 0, 0, 0, 0, 0, 0, 1, 1, 1, 1, 1, 1, 1, 1, 1, 1, 1, 1, 1, 1, 2, 2, 2, 2, 2, 2, 2, 2, 2, 2, 2, 2, 2, 2], "regression_weights": [[[-10], -1.1448347414637259, -1.709215671099249], [[1], 1.15448199836082, 1.8535380924801996], [[10], 0.1, 0.1]], "ground_truth_mse": 0.2613814089015699, "ground_truth_r2": 0.9975068669177852, "train": [0, 1, 2, 3, 4, 5, 6, 7, 8, 9, 10, 11, 12, 13, 14, 15, 16, 17, 18, 19, 20, 21, 22, 23, 24, 25, 26, 27, 28, 29, 30, 31, 32, 33, 34, 35, 36, 37, 38, 39, 40, 41], "val": null, "input_args": {"N": 42, "K": 3, "D": 2, "noise_std": 0.5, "outlier_ratio": 0.0}}