{"X": [[0.9297992273432983, -0.4098452262053063], [6.290329988851214, 0.15565893528528196], [-0.8918295169046979, 0.68387730054894], [1.360030529706741, 2.164173387391234], [0.36574234044268095, 2.641027446255486], [0.7340739198995152, 2.508194984737581], [3.0812749024011072, 1.0513453665690853], [4.703015097296422, 1.0926844483940112], [0.9083375192704062, 0.9069709004567055], [-1.6453251263616981, -0.17697745278503274], [-1.0668749272506903, -1.083650892018861], [0.780836495002006, -0.384711335652105], [-2.8710823311939087, 6.039777889260455], [3.2240802402280857, 1.228804296777573], [1.4568933652166836, -1.3322740992541058], [1.4593299966925715, 3.3653874831376336], [1.3980838868373373, 1.3619344064829733], [0.5607761032072074, -0.034127159145912245], [1.876629887856644, 3.487242302648448], [1.9223198533864116, 2.233175554091585], [1.9329509832757212, 2.229175503248909], [1.3520856346860353, 0.6493881776187576], [2.0510610343233457, -0.5769910178696998], [-0.6240843361399573, -3.6310237253012403], [-0.3134241658737704, -2.2403073212986655], [3.7717126130994365, 2.507221655968717], [-0.38158408203680705, 0.3790910200611104], [-0.19583256182845354, 4.477404256358401], [2.2460880615041994, 2.221088559235892], [1.8936624873033043, 0.5466757870913601], [2.305261301945343, -1.009679064475959], [0.19112541562975838, 2.2388184890912872], [3.4069034335898936, -1.4318490656393288], [3.424176397839847, 3.250523132304557], [-1.7239758062985224, 2.996604747385402], [3.0868576818944176, 0.09353361061580001], [-1.0038219652143794, -0.22703382489074375], [0.9453958782765082, -0.47866794670459756], [4.483192843778032, 1.2142600458031665], [2.893693065744136, 1.152134103579995], [0.8852270729788115, 3.627145542781892], [-1.3363188574224196, -0.6996076742266018], [4.927015436385213, 0.2841654727732529], [-0.07006713517244711, 1.6428701335190383], [3.6596387536822292, 2.2553177190119476], [2.1345400416004354, 2.0748077437860784], [-0.5768501516847586, -2.5848283472579947], [1.3671852125727146, -2.3918928544366906], [4.787635349891378, -0.8215822428967168], [-3.431916041918341, 2.5610584658307403]], "y": [-3.717778588007347, -7.151885951323681, -9.567073844909334, -15.384549000877875, -9.841299262209665, -10.091563649566519, -9.252802058080754, -10.816825570066577, -9.608907727378986, -12.070119112644612, -15.24536197902707, -6.901538903511894, -5.0736921628082445, -2.8801565104580336, -10.066413219039296, -9.778349958509551, -11.0843692767077, -15.314166247557313, -4.791491081465732, -12.576002513076249, -12.869402446615897, -10.189602249994184, -4.619064957522145, -10.748719422054295, -14.542055751436859, 5.747292614600454, 12.11303778995282, 7.6864080386680955, 5.971419737887498, 8.597489659730009, 12.550516297820113, 15.982635262179592, 5.536927288191973, 5.822496278350915, 6.332971931287527, 0.8784239132494527, 7.058305847063915, 6.418822840076605, 12.551580269274265, 8.498707930616023, 2.6905973078681145, 12.810470924120729, 7.65398306555005, 3.2558717442897684, 6.277671415764078, 6.683088565256632, 8.090713327072102, 10.78731845302369, 1.50220364066229, 8.724793295090176], "z": [0, 0, 0, 0, 0, 0, 0, 0, 0, 0, 0, 0, 0, 0, 0, 0, 0, 0, 0, 0, 0, 0, 0, 0, 0, 1, 1, 1, 1, 1, 1, 1, 1, 1, 1, 1, 1, 1, 1, 1, 1, 1, 1, 1, 1, 1, 1, 1, 1, 1], "regression_weights": [[[-10], 0.2, 0.4], [[10], -0.2, -0.4]], "ground_truth_mse": 13.270742138657067, "ground_truth_r2": 0.8496751537691951, "train": [0, 1, 2, 3, 4, 5, 6, 7, 8, 9, 10, 11, 12, 13, 14, 15, 16, 17, 18, 19, 20, 21, 22, 23, 24, 25, 26, 27, 28, 29, 30, 31, 32, 33, 34, 35, 36, 37, 38, 39, 40, 41, 42, 43, 44, 45, 46, 47, 48, 49], "val": null, "input_args": {"N": 50, "K": 2, "D": 2, "noise_std": 3.5, "outlier_ratio": 0.0}}