{"X": [[0.16648430518905877, 0.887466345547341], [-3.272392191336908, 4.280541616809977], [-2.5868711703897262, -0.683494731312408], [2.0057628343160854, -1.4905761732144631], [-1.1159044377246778, -0.8180152298536987], [2.102908089092849, 5.584416025629915], [1.083078785996807, -1.2358508902270335], [2.0781166411615777, -0.19231939961293398], [0.9617390069576971, 3.350002439000582], [-0.4957418985877249, 1.0180505019466501], [-0.756215786480684, 0.6871316592307527], [1.5131409040025914, -0.9775580975392435], [0.3223560679416073, 0.5276319382947974], [-0.27531002496860246, -1.3752245727705685], [-1.8424344546082536, 0.6930096086461017], [0.461886079567973, 5.462733577773209], [-3.8695351530420883, 1.2254530096332978], [1.7408890733264686, 3.7192677253451922], [2.0037144135626264, -0.6884274076597237], [1.0000195229431923, 2.0847051442980584], [0.37298360601318226, 2.542023476138823], [-2.736181309127527, 4.462369331960936], [3.9353560211468257, 0.3286453229523051], [2.2226815591474347, 1.0959411837363768], [-0.6582705780295575, 1.1754204368166628], [3.00073177310139, 0.2378149649693001], [0.2486611538420127, 0.8510584742120381], [1.8669926601531417, 3.5567584605437363], [-0.26935861035872466, 2.0167924853668637], [1.432232012527364, -2.717224772246995], [0.1613670356946223, 0.7353422031265133], [0.9208595206127886, 1.6520068667739611], [-3.0806460974574303, 1.0925110462833938], [-0.355351154656083, -1.8788780534772362], [2.0485928600206975, 2.470559152130405], [-0.3065005355840713, 2.6849125631426802], [0.23696703646982764, 1.1329780182922897], [-1.197477893992113, 4.168974112791353], [-4.318898912766977, 0.8170947542186837], [2.390239210093983, -3.066933092245227], [0.6210614705752384, 0.8455626692940856], [2.649406010873963, 3.496425841194068], [0.19221546132412104, -1.7690373330717297], [3.734470847854249, 3.4357712661125808], [0.07598930369323909, 1.7017769881754927], [1.763732468253394, 2.132550882884912], [1.408415957828224, 3.813392483322741], [-2.475919008769136, 3.0816479067814577], [1.760943940430001, 0.5657294625102413], [3.347062996989907, -3.687206381999924], [3.323042981481546, 1.772156095207189], [-1.2662665473539652, 1.8661851093133819], [0.39182712239736883, 6.170589736129099], [4.67066544572965, 1.8813797448302192], [-0.4385076828533545, -0.16682918915801515], [0.34990074323642784, -0.12046901247559405], [-0.8044921361410036, -0.18194455093889084], [0.4476410154985244, -0.033767787465173615], [-0.39717989987277735, -0.8577838490476384], [6.10087647175932, -1.9463464955997711], [-1.0428294610441329, 1.8647914019592124], [0.3528398598469521, 1.8476494157317613], [2.5983599900700307, 3.5252273266496403], [2.5039296984297614, -0.9875219662371817], [3.218286562723296, -2.529835456551511], [0.7711574059397587, 0.0036516121564829085], [-1.121598072660864, 2.183333041455358], [0.6334868524408372, 3.0397094587384745], [-1.9649309556453418, 2.6926237836841596], [1.9958802967336415, 1.2530083506130125]], "y": [-0.12373770141005291, 5.300853482223721, -11.6123441898277, -3.904719311409631, -10.972176544310823, 21.075206366807, -4.618820357899738, -0.07817485782276301, 9.384538998047818, -0.8341617022169199, -4.690740321663282, -6.815410089292305, -1.7608355678055276, -14.878078830335074, -9.362666139658167, 16.650131411746838, -9.862920508219833, 13.987343713224252, -5.5623289545560635, 2.514252220408036, 8.845358654424764, 6.925562108615617, 4.320349743478719, 0.9796314808134623, -2.7036248578428292, 2.174568585499713, -3.400430950312428, 13.712415199172572, 1.3271753409123952, -13.587822563519806, -2.9393103405634964, 7.154302877339298, -6.818242459257154, -15.341636381132911, 10.624512152769393, -7.568336481344623, 0.41188104390069685, -13.200280910940736, 7.713046710862358, 12.88097642053119, 1.8525595416640015, -13.941778824144258, 11.460421844862196, -16.8142341513374, -4.916130540823304, -8.497356884835854, -13.991679390866988, -0.2605091571497278, -0.09756915176404402, 9.528619223294413, -8.086542405002259, -0.7023719033782303, -21.819857189923052, -10.643497293098443, 8.606331167330671, 6.644634801661917, 5.658327429592293, 3.621364367161217, 9.888022058743237, 2.534723293125163, -1.3318551614391638, -3.467595335948583, -16.51029923475068, 1.5498152199278623, 10.30782034554785, 6.155558796636196, -1.6341562636603715, -6.418745744051525, -1.1173611733506863, -5.2940335051295815], "z": [0, 0, 0, 0, 0, 0, 0, 0, 0, 0, 0, 0, 0, 0, 0, 0, 0, 0, 0, 0, 0, 0, 0, 0, 0, 0, 0, 0, 0, 0, 0, 0, 0, 0, 0, 1, 1, 1, 1, 1, 1, 1, 1, 1, 1, 1, 1, 1, 1, 1, 1, 1, 1, 1, 1, 1, 1, 1, 1, 1, 1, 1, 1, 1, 1, 1, 1, 1, 1, 1], "regression_weights": [[[-5], 2, 4], [[5], -2, -4]], "ground_truth_mse": 3.2635477082226, "ground_truth_r2": 0.959670394899954, "train": [0, 1, 2, 3, 4, 5, 6, 7, 8, 9, 10, 11, 12, 13, 14, 15, 16, 17, 18, 19, 20, 21, 22, 23, 24, 25, 26, 27, 28, 29, 30, 31, 32, 33, 34, 35, 36, 37, 38, 39, 40, 41, 42, 43, 44, 45, 46, 47, 48, 49, 50, 51, 52, 53, 54, 55, 56, 57, 58, 59, 60, 61, 62, 63, 64, 65, 66, 67, 68, 69], "val": null, "input_args": {"N": 70, "K": 2, "D": 2, "noise_std": 2, "outlier_ratio": 0.0}}