{"X": [[-3.863386344708874, 2.198016479236647, 0.7813074754479729, 0.34626863982269085], [-0.718197360354708, -0.46233598428136835, 0.12056096726682863, 2.520029742082177], [-0.3965399912406231, -0.1426875008074031, 2.215549294067146, 1.6252114743927022], [3.653623002770114, 2.7856580130332897, -0.7401303417084242, 0.7999638061802002], [2.7116049883353477, -1.111324108625094, 0.5033829020393923, 0.021529989031932595], [-2.866465978881555, 0.6238356894968057, 0.729889283871618, 1.529861735895942], [0.482359236552135, 2.0911180732665415, 1.3041699532287485, 1.4424681747332715], [-0.7606877524760107, -1.4541373714589838, 2.2726163968941524, -1.6002953252407233], [0.6122022300139336, -0.30337243339416586, -1.7739098791897514, 0.6979553117964243], [2.645578040834428, 2.6798569814617257, 4.152927989899597, -2.4707450330951914], [-1.60610337560983, 2.184808735050497, 0.9218900571472959, 2.6188545243943775], [0.2316641434692891, -0.5301758265289649, -1.2829043463608683, 2.8194542209393], [3.7384189843411177, -0.2772064388534017, 2.2669786583615026, -2.848350469913686], [2.4674224916768774, 2.572584266886916, 0.4456979423009225, 2.6787353590313563], [-0.9404364467113737, 1.648862644528342, 0.3164751667030756, -0.487912934727031], [3.7409873854951314, -0.027793900235361546, -3.072252504350076, -0.4352552651346475], [3.4024091281016218, 0.7398512230963503, -1.9367734245474417, -0.6821762484362697], [2.596541629812872, 1.9184147411050292, -1.211883164813234, 1.6221806147580757], [1.250262468171004, 1.4475869983389587, 0.19038364155652976, 2.5627667457370658], [-0.29704052232011935, 0.62027059617658, 1.2919019570338865, 0.022901815570021355], [1.204696337884232, 2.1908058070757117, 3.464684227032907, 2.2815330720775817], [2.1434115522181783, -0.43370613519261814, 1.5327101762211728, 4.013481560656686], [2.5124644409556476, 2.861431547129923, -0.8367851889226141, 0.47109713834627176], [1.1488513159355913, 1.557886230262461, 1.0184139886428296, 0.4691356101712192], [2.595996126085435, -0.32782085375820413, 2.546302267786495, -4.544854629175838], [0.1571499557211673, 1.5890791853857529, -1.2849000096915821, 1.8591454820259035], [1.5536027188843953, 1.8490334027623756, -1.1229598761991113, 2.6335726099769543], [1.3894246985228222, 1.6320719535057708, -0.1935787947326022, -0.5315022613516045], [-1.0110603612885587, 1.1741897333910343, 3.2462543568271225, -3.154528249758414], [0.30251741253022235, 3.6142069890221764, 1.632310808041088, 3.7643842339902873], [1.802665217334814, -1.2829868779991855, -0.5891524390543936, 2.0660561804343676], [3.4388439272000273, 0.45981438090297955, 0.28542317142872253, -0.5179527210790413], [0.12793135359502306, 3.3736716458519664, 4.143293817280103, 2.378785814052989], [3.331925728592566, 0.8915258379970584, 3.320704095034003, 0.5375698791831435], [2.724604480949667, 0.2956951465904647, 0.18817847868138404, 0.971462007828239], [-1.7033923408712486, -2.054895961615727, -1.320961058877562, 0.766525579291084], [1.7357709909945545, 1.7221725589587344, 1.7854975197077356, 1.2529158300582057], [0.8252480822328383, 1.3532316003350848, -0.12925308939261737, 0.09836064895676266], [0.9428604419415919, 3.185075687859608, -2.8226947958379305, 1.4127802634130515], [2.512578958276827, 0.558648023513227, -0.10032571551278968, 4.893763998988554], [0.15278774421424068, 2.7291381338105167, 1.1224241873802063, -2.1613845771132367], [-0.47951179792593046, -0.08932098069210159, 0.9430391796316246, 1.2368892086832273]], "y": [-6.286623797747064, -12.426554176824244, -14.825361761596676, -19.43163782597982, -15.068659965462267, -8.773628956436124, -16.70376225282793, -7.574099297467315, -9.46841299067987, -20.210117263684424, -15.040962793729399, -12.667037762134463, -15.842650026561861, -23.484081016831517, 0.27523713409931916, 1.3593983794778055, 3.3316065483535846, 7.687181165771698, 7.739048114082502, 3.007571895601515, 15.874049499378657, 11.922376772991473, 7.965956979610846, 6.794585479243768, 5.539475269817428, 2.602325151625269, 6.12479505226922, 4.75757121343469, 9.725166202957714, 10.785495069461739, 9.898804901956861, 11.292751968099736, 10.995619650709042, 10.279317089602728, 10.82926646745657, 8.958305796807142, 10.7540674874743, 9.234923662273319, 9.607709135288417, 10.884897144461142, 10.553529838826877, 10.246793701564666], "z": [0, 0, 0, 0, 0, 0, 0, 0, 0, 0, 0, 0, 0, 0, 1, 1, 1, 1, 1, 1, 1, 1, 1, 1, 1, 1, 1, 1, 2, 2, 2, 2, 2, 2, 2, 2, 2, 2, 2, 2, 2, 2], "regression_weights": [[[-10], -1.953582849739034, -1.049060717194914, -1.560283932483811, -1.6100560971741233], [[1], 1.9361503284499997, 1.125808272455765, 1.9860858097839145, 1.07873274120786], [[10], 0.1, 0.1, 0.1, 0.1]], "ground_truth_mse": 0.22555199939620932, "ground_truth_r2": 0.998221608005823, "train": [0, 1, 2, 3, 4, 5, 6, 7, 8, 9, 10, 11, 12, 13, 14, 15, 16, 17, 18, 19, 20, 21, 22, 23, 24, 25, 26, 27, 28, 29, 30, 31, 32, 33, 34, 35, 36, 37, 38, 39, 40, 41], "val": null, "input_args": {"N": 42, "K": 3, "D": 4, "noise_std": 0.5, "outlier_ratio": 0.0}}