{"X": [[1.01238709628155, -3.5855788731477354], [4.234091252032368, 0.49736875543505454], [5.543349831162175, 5.537155892670065], [2.041800824850305, 3.0453266207810983], [-0.09303658754721456, -0.4683569994433059], [-1.5986138843245388, -0.11936470833433854], [2.2584241551595547, 2.2829527768763844], [5.362131918289137, -1.0242740972835174], [0.24571898268659986, 4.981500564527736], [2.726975625168782, 1.9044691492690708], [0.008225370893055084, 0.3904146249792759], [2.7393573093324237, 0.06446586765332007], [1.2895646636821068, 4.3945127550703615], [1.9837732429295296, 2.955945761481688], [1.4140299392353999, -0.0033293552823543404], [1.652659360892645, 1.682755127618282], [2.39999416173905, -1.4403727510804316], [0.06573652837970734, 0.05306319037124008], [6.557823411152467, -3.113769415140408], [-0.7323719261187978, 0.7153511720127832], [0.3822955181848323, 1.0971381611675917], [-0.20760356377664158, 2.3800990746757664], [-2.833711487139163, 2.7764313756773564], [1.5672668671093324, 2.385060395960554], [0.7244892070613629, 0.3216134893223356], [1.8288282625935337, 1.2426807897715118], [-2.96654916634132, 2.223665020339963], [1.1628983974424225, 2.1585027877148617], [-0.7756599132882276, -1.7300745793957546], [2.1133482824447736, 1.2160377277354708], [0.32093556752454133, 1.482002600684949], [-0.7975625023609398, 1.9738649569493778], [0.5846891690047624, 1.5066410170114386], [1.692106393289459, 2.322552982286413], [0.7324323840086159, 1.4905828256177485], [3.8065538614456025, 2.8856940735446104], [2.139307090427951, 0.9697772072776673], [2.2883400229559, 2.1872949488293414], [4.269044511779503, 1.0189096111310028], [3.2703936927175747, 0.5073114050689427], [0.43654548034728513, 1.6449219023191215], [-1.1373161354351895, 5.22157669096874], [-0.6614965055553457, 2.093153601722172], [0.8583120473447515, 1.3074090744963793], [1.2313807777093457, 4.093022105340943], [-0.5600588812395622, 2.7485136969406945], [-1.5314816720639386, 1.2198062939480188], [-1.4843699506020718, -2.5585505830090685], [-0.07290367606466175, -1.0920686423459363], [-0.21161052101867828, 3.1834005003654715]], "y": [-4.971554472996669, -7.426449770627542, -6.338726538447508, -14.895733648493216, -11.17680882608716, -11.609125087640097, -8.924729243406144, -11.531785624139046, -8.111619569067335, -10.363080321516874, -14.440715712599065, -6.330163859323641, -4.899668817509079, -2.4373613240360994, -9.543408006646851, -10.412737027877277, -12.00491008475272, -15.378298022715953, -6.495657063922109, -13.714070621808812, -13.632348476466603, -9.809255730863917, -4.2546505043958245, -7.904015532899718, -13.309704752601432, 6.641685831180517, 11.89220120670218, 8.342222434271337, 8.156234588298643, 8.28580772444407, 11.95070877863991, 16.286354258634496, 4.925974108048693, 6.540098339268251, 6.4440990619331595, -0.382379507832308, 5.950955623068083, 5.083848852927152, 12.672550109542836, 8.681296884625755, 3.5732230825795286, 10.402196633645143, 8.048090202358592, 3.2043803313953916, 6.028241256427056, 6.952525968562785, 6.759785774665532, 11.4242925770876, 2.582506005633186, 7.831795377096351], "z": [0, 0, 0, 0, 0, 0, 0, 0, 0, 0, 0, 0, 0, 0, 0, 0, 0, 0, 0, 0, 0, 0, 0, 0, 0, 1, 1, 1, 1, 1, 1, 1, 1, 1, 1, 1, 1, 1, 1, 1, 1, 1, 1, 1, 1, 1, 1, 1, 1, 1], "regression_weights": [[[-10], 0.2, 0.4], [[10], -0.2, -0.4]], "ground_truth_mse": 13.27074213865707, "ground_truth_r2": 0.8454030865241764, "train": [0, 1, 2, 3, 4, 5, 6, 7, 8, 9, 10, 11, 12, 13, 14, 15, 16, 17, 18, 19, 20, 21, 22, 23, 24, 25, 26, 27, 28, 29, 30, 31, 32, 33, 34, 35, 36, 37, 38, 39, 40, 41, 42, 43, 44, 45, 46, 47, 48, 49], "val": null, "input_args": {"N": 50, "K": 2, "D": 2, "noise_std": 3.5, "outlier_ratio": 0.0}}