{"X": [[1.3605357489638934, 1.2777351469550782, -0.2068349999089405, -1.580108405611484], [0.9538184604068187, -3.101907499142138, -2.7559101429453805, 1.7840477797316714], [-1.012136487815479, -1.0123012096809991, 0.7111821042764377, 0.6102515080437222], [2.750281914349716, 0.453803346575951, 1.3674454959821136, 3.401292756243377], [-1.0857214386644332, -0.4579909968131124, -0.8931089013493689, 0.3954413071764128], [2.559949064131109, -1.4371169095596081, 4.691057137859606, 3.04832731274492], [3.8395799396107617, -1.3851811828656673, -1.4498878234455645, 3.8182907926026313], [4.4929287534328655, -2.0994529321762814, -2.4327518461703956, 1.9637671946622195], [-2.485253579221349, 2.8149998843180315, -0.7935428559797615, 3.5642405333115734], [1.1824084742028103, -3.2079291161843253, 3.431593338236594, -2.309184985974519], [1.2621868641413985, 3.115519236153971, 1.0826219024762427, 2.8913181300009425], [5.201333465359154, 1.6237800712167063, 0.268321770175011, -1.6633687260981098], [2.9158076038359875, 2.6823098105831873, 3.6554604238834347, 2.4534671740403855], [-1.551058319207328, 0.13260553282095522, 0.11643341882644442, -1.7665140498987748], [0.3607175035229381, 2.878760054965469, 3.7369954190932684, 3.4031429365717467], [-1.5099595377009876, 0.15960322800058457, 1.4410753123884046, -2.552273162768879], [1.8518728176759376, 1.301326835541094, 5.072257339590937, 0.8539914398542853], [3.754737140470765, 1.242888476862488, 1.7170088362330758, 2.816646099607163], [1.2575581476757278, -3.3094142488312306, 0.23615747637053908, 1.0794508966448124], [0.7968841855869048, 2.4692104059477993, -1.0810280633535654, 2.4933722895936072], [-1.5894947175100453, -3.149604973961427, 2.915813903698405, 3.7102439973499997], [3.0417259424699536, -1.6017584722126137, -0.8621493527449011, -0.7669442107212943], [1.608574401673847, 4.569800861313269, 1.8698787865966353, 0.9367324507034098], [-2.1073116292358187, -1.3417437609416445, -1.6104413734625607, -0.7744097400195582], [1.4335212342557924, 0.14044420013126757, -0.2201143473829148, -0.9526105871628623], [2.1566550457041624, 1.9446213996224513, 0.9580336401140919, 1.0626198951663004], [2.8840146358564223, -1.5441859083753728, 0.7201772822130045, 1.4220018602059037], [2.6561925289384583, 2.834072617130356, 1.8138510462134771, -1.0247996486067166], [2.4331204423202926, -0.9354710610244066, -4.5402283432390895, -0.8732559038417311], [2.5375939541521815, 0.43192017930352233, 0.6338889153080531, -0.19422936574223204], [-2.1951871215552314, -1.012103835724591, 4.0011031036726195, -2.0851256138056447], [-1.8279364868042118, -0.1641544431863371, -2.8575023274150295, 2.7308081336225825], [1.055128448557497, -0.3227014394265284, 0.7522307817204271, -3.141777271141235], [2.4312410647470406, -0.4072152601715029, 4.997377397258564, 3.731938363507143], [1.1083653539210512, 2.756795503875395, 0.42928152044365964, 0.20299279731050512], [-1.3025026137448372, 1.2778726040265662, -1.527517430658372, 2.14754028835637], [2.0204488498373614, -1.2619919384875642, -0.16743019462555941, 2.6466578404453265], [0.18625732522113547, 3.7448386329350796, 0.40918651743161494, 4.192078553053305], [3.3344980586266213, 1.2394142945290918, 4.646370450294739, 1.9380505843819673], [-1.8217083208281086, -5.374475267495225, -1.4187410769468967, 0.5149757590313309], [2.4692165808826987, 0.5383110306474035, -0.04001946037519244, 2.6133075399540493], [-2.829466984151354, 1.3645663727582418, 0.8577508023445946, 0.18250752559499583]], "y": [-10.300859545633076, -6.359149116077383, -9.071459662709522, -22.92544267042619, -6.964798324029774, -24.444010775992933, -18.20620648170258, -14.774268235486272, -12.44979948985557, -10.93401000374384, -21.7843704269684, -18.326637235950702, -26.405412773097122, -4.364433332430563, 15.815153246553956, -4.853496113092784, 12.268679071217344, 15.171806967266543, 1.227912364064458, 8.840283021295605, 3.366578921990727, 1.337964385879581, 14.390197146188466, -7.284458833644934, 1.007977123353303, 9.860531273757713, 7.307853993177071, 9.09280696093882, 9.223998338261891, 10.225902007163183, 10.2433967864614, 10.77617687918485, 9.212226387493049, 10.76212570093994, 10.047860470266773, 8.849997698208638, 9.861872444869062, 10.341298222442694, 11.677822318261976, 9.124047992975658, 9.746438846193273, 10.280873497789734], "z": [0, 0, 0, 0, 0, 0, 0, 0, 0, 0, 0, 0, 0, 0, 1, 1, 1, 1, 1, 1, 1, 1, 1, 1, 1, 1, 1, 1, 2, 2, 2, 2, 2, 2, 2, 2, 2, 2, 2, 2, 2, 2], "regression_weights": [[[-10], -1.7164128638552185, -1.0626478006853317, -1.5333122552573073, -1.3800996657935105], [[1], 1.6397242355913781, 1.392426830086019, 1.0002804444760447, 1.8959394701497105], [[10], 0.1, 0.1, 0.1, 0.1]], "ground_truth_mse": 0.26433022731623707, "ground_truth_r2": 0.9982648299712675, "train": [0, 1, 2, 3, 4, 5, 6, 7, 8, 9, 10, 11, 12, 13, 14, 15, 16, 17, 18, 19, 20, 21, 22, 23, 24, 25, 26, 27, 28, 29, 30, 31, 32, 33, 34, 35, 36, 37, 38, 39, 40, 41], "val": null, "input_args": {"N": 42, "K": 3, "D": 4, "noise_std": 0.5, "outlier_ratio": 0.0}}