{"X": [[3.24329160615207, -0.5576843156542091, 3.8460051423883277, 1.2474618201303196], [2.702589283368103, 3.2548954932556655, 3.3952336565787133, 3.8690638177001357], [4.493952604556691, 1.5209501993964112, -0.09288349274954588, 0.25582285832958074], [1.5959731203102192, 1.6465505870153794, -0.08646103572856512, 1.88509128141455], [0.7667030069822043, 1.0451040225653272, 3.460328781404065, 3.7129339081260717], [3.3255126024780277, 1.7428720278775565, 2.316323492474658, 0.2968096270233431], [-4.280595241781148, -0.4140684640905903, 2.122855692841041, 0.6835818409700617], [-2.163053887408002, 0.9778676581611867, -2.6778530283052726, -1.8125689161071934], [0.3020726627676299, 0.2681670868741345, 3.125703730620866, 1.8415212569546184], [1.1616872054803646, 0.7941770153722704, 0.9186391536277554, 1.607345930536707], [-1.7066387564252836, 0.20353185647783456, 2.1777040506991696, 3.3634278596804448], [0.6947308510855994, 3.880994863455898, -0.6742388883849018, 3.0186142410562016], [0.8690139294135257, 2.106810795154118, -1.8917400064383298, -3.085320997487612], [0.20963999688262425, 1.946295307679674, 1.7990345143530238, 3.6316902491395915], [0.21709182561103746, -1.7255480449720761, 7.251873747080193, 4.8836929469274635], [1.669035943319309, 2.5049076759498092, -0.5601592673973599, -1.2443156375795246], [5.284400056572592, 2.128210021658142, -0.1132879213211273, 0.3244945567217702], [-0.06974267834138814, -0.8266404949777251, 1.5650752372910897, 0.42774641532419944], [1.2312413895167846, -1.7515461392822544, 1.6100406066189972, 1.0882089490034137], [0.5313417005703374, -0.7683157145025721, 0.5292283848119701, -1.181270323176233], [-1.1677324789017263, 1.642399476880746, -1.0338655815586315, 0.27200239755803757], [3.5170104952568413, 3.8940082703070944, -0.5074387164220955, 0.1352194193771663], [3.9272777575327704, 3.2797332055278914, -4.238247953172615, 0.07356932898404367], [5.048515967081267, 1.6507951565540253, 1.446583968767845, 2.823540165913193], [2.311979362779661, 1.3207087944497198, -1.2766594578796693, -2.525980033457585], [2.482878377182408, 0.08821213869251765, -0.1288350030580352, -0.5059297137492877], [-1.245958167531823, -1.0415734990917977, 2.7890389470974566, 2.2393952464830122], [-1.1157515098150044, 0.1308996817851782, 0.2012646950386845, 2.093167533932779], [-0.5564893604551975, 2.5595469636072536, 1.885442109345655, -1.4797392071178699], [1.8362529859913832, 1.1547761898225661, 0.7698874542752919, 3.655175944278844], [2.506638298775581, 3.723989129716071, 2.6920665161599677, -1.5011336703470959], [5.311489757696953, 2.9356605662049104, 3.6881654553909415, -1.3288273277345897], [-0.29324279922986096, -0.5637111801060444, 1.2307976446426416, 1.6370132610474393], [-1.132661524037458, 0.47176596421590355, 4.499000449427621, 2.081981882101461], [0.156399861832055, 0.43292119840546095, 2.8647026588233437, -0.9317995253493216], [-1.2673121947604495, 3.409340050576231, 1.1664064701814512, 1.9793392801034737], [2.2498866341513226, 0.01280757161068824, -2.1095349079428205, 2.3309554370351444], [0.8114562003549805, 2.3123086849870624, 5.594623879456217, 0.34045764840895076], [2.14444444344163, 0.6990230647079156, 0.30797779393786406, 1.1055076136916837], [1.1571627557984467, 2.7117074294733117, -1.0748747533435812, 0.8317034443926921], [2.2267235538675045, -0.747397924858179, -3.331422036006961, -3.2583327184193402], [2.13753339321624, 2.019397269092417, 2.537826262216903, 3.0204147574304945]], "y": [-22.37435731360232, -29.951473568218272, -21.73708221394731, -17.919295463629187, -23.341922718303415, -23.172800235412673, -5.096635339862539, -0.6180451458001894, -17.63125148719569, -17.632853548218456, -14.614177304145374, -20.699335369650548, -7.26605323131597, -20.906364159087314, 12.56370281197408, 5.20097314986314, 10.441898897106393, 2.696643897229591, 2.9190225221690373, -0.5530388610632367, 1.2055900923175373, 11.267070262801289, 5.978168845454079, 14.031942901618256, 2.2789834943441227, 3.2615843671244544, 4.8498995879168865, 2.279665934645882, 11.058749821438749, 10.061126461518562, 10.416543110765552, 11.331874499357486, 10.225088816230762, 9.412971860664975, 9.699430397461454, 10.947695537570137, 11.292346907626992, 11.363305120221062, 10.28759361444539, 10.760825836994552, 8.91705780153519, 11.226477059680715], "z": [0, 0, 0, 0, 0, 0, 0, 0, 0, 0, 0, 0, 0, 0, 1, 1, 1, 1, 1, 1, 1, 1, 1, 1, 1, 1, 1, 1, 2, 2, 2, 2, 2, 2, 2, 2, 2, 2, 2, 2, 2, 2], "regression_weights": [[[-10], -1.9625398470201598, -1.4072230479252035, -1.2695330080954466, -1.5525163722286914], [[1], 1.0822847424703284, 1.7710797794926707, 1.2389418443543057, 1.224194324375415], [[10], 0.1, 0.1, 0.1, 0.1]], "ground_truth_mse": 0.26138140890156986, "ground_truth_r2": 0.9984987954383298, "train": [0, 1, 2, 3, 4, 5, 6, 7, 8, 9, 10, 11, 12, 13, 14, 15, 16, 17, 18, 19, 20, 21, 22, 23, 24, 25, 26, 27, 28, 29, 30, 31, 32, 33, 34, 35, 36, 37, 38, 39, 40, 41], "val": null, "input_args": {"N": 42, "K": 3, "D": 4, "noise_std": 0.5, "outlier_ratio": 0.0}}