{"X": [[1.563803902761629, 2.110670330281579, 4.096351611146243, 0.3295953888686669], [3.1260624932098344, 1.454828486398812, 2.9360511226489185, 0.9943369058016132], [1.1433247601112253, 0.8986583753409272, 3.3780999476666334, 4.490620951142375], [-2.08973717571332, -1.203107356317895, -1.5040441978859245, 1.645991761212809], [0.6751581774417661, 0.8975682334256312, 3.0426990888871854, 1.668390078928959], [2.0965683688986267, -0.05691977934423442, 3.2553754805680075, 5.685263386234356], [-3.275642487503135, 2.8029387299961073, 3.2841186998058, 3.7072570334095896], [-1.773865085478262, 4.026477974496464, 0.930915974594073, 3.0826920536257947], [1.7140976885857448, -0.9440208586991041, -1.8832686932092204, 3.958165438903494], [-0.2276813949217691, 1.1582743580583255, -0.8308226680462454, -0.10174788422923653], [1.4654097630386973, 0.1780049055047933, 0.6975001636774733, 2.948902866689126], [1.4797237885784669, 4.516512649280948, 2.2259725798439494, 1.518452732958246], [-0.07920966307648492, 0.1250605949784317, 3.3454894598681655, 3.1452093003024015], [0.7807837651820322, 4.3746634976470276, 0.5878833088011364, 4.402953898407299], [0.4461427604146678, 1.1239625543252576, -0.1299376510611927, -2.7519411292460223], [0.3297522427822651, 0.9633447776357507, 1.5322949776865538, 4.253201473598193], [4.6456989977354155, 1.5266850797183504, 0.40583425633964365, 0.7412239921789192], [-0.4632039663177254, -0.21548804318224768, 1.8951322660245447, 1.2663589882837984], [0.019393358336966537, 3.5332881201087534, -0.6949984196146561, 0.8824114406541974], [-0.19767641628958188, 3.141664893568367, 0.1946694182389579, 3.290226009608092], [2.0263149576150834, 0.48144563318985767, 1.0092818936291774, 2.6432536313733452], [-0.3159960104818904, -0.4422990343890365, -1.4314124356443623, 0.8955378725510634], [3.0951219567960613, 2.4138993602365852, -1.170568232003323, -0.20752439743641093], [0.970780329404881, -0.37295795289050826, 2.802366058909331, 3.3175918052697333], [1.007754511201697, -0.32401442719954154, 1.8779411653417513, -1.0725940136339323], [-1.2037817844496725, 0.4905344398194973, -0.5731208644021508, 3.983381562170079], [-0.1582395144969242, 0.9505360764592989, -2.429151746449226, 3.728727538576983], [4.731568776727563, 0.4665186038628648, 1.7087001329830218, 1.953369816469983], [0.33290045030975324, 1.71204408447368, 2.1851449055514163, 1.3083930748154269], [-1.2776482793893238, 1.6644357216166235, 1.9844979184490341, 2.986187398019486], [-0.0548811079661784, -1.3768808065986176, 3.4646132714217246, 3.1547198701751924], [-1.451338514612479, -0.48551142000718106, -0.8269526170997887, -0.21090652211568472], [0.2714631479974553, -0.9672374744393388, 2.8769880378688346, -0.8804583291719994], [1.4534068337372128, 1.8969432803644606, -1.9039090645387566, 2.0764131401742], [1.048635305979606, 1.681388609012616, -0.07158194061030754, 1.1399457006261102], [-2.976396794130296, -0.7617990708084617, -0.2841695724714779, -0.6074804951185286], [1.2620674886410916, 0.82841666391442, 3.15044969205277, 3.7707504956806037], [-1.7055256566193582, 3.09792111096843, -0.3443332186665542, 1.7804037302845153], [-3.774521636917841, 2.753849174217688, 9.012085107627614, 2.5591285338756], [2.4443403065106453, 1.9205687680312489, 1.6980483075812223, 0.437324860562323], [-0.484505567525517, -0.2632371156474367, -0.327007153778057, -1.009607889227059], [-0.2668896843382793, -0.37218511020132095, 0.5580965573258612, 3.0858269944448478]], "y": [-23.15735818355127, -24.266547335321224, -27.66410806324554, -4.105008169807816, -21.19701611396555, -29.403443552174405, -19.11335154235564, -19.42858999321483, -16.22596536490443, -10.001470536161767, -18.915599141647466, -23.764675212781224, -20.91971203915027, -26.279510588402104, -1.8615432408426897, 11.717349676452233, 12.677547781561756, 5.133736965088766, 4.908397946872509, 9.88789116478564, 10.629337361424918, -0.2623614977550719, 7.285145129432229, 11.23825250044289, 2.726036402814746, 5.591367250996187, 4.982730535891946, 14.952064626404823, 9.843239637862965, 10.458999678031107, 10.384228642595206, 10.818212487059789, 8.912691749964974, 10.408648671382036, 10.56506103583242, 10.216832338083421, 11.152097037419546, 9.860739744681773, 11.055058998616104, 10.921204510343058, 9.634810128885487, 10.685990744757817], "z": [0, 0, 0, 0, 0, 0, 0, 0, 0, 0, 0, 0, 0, 0, 1, 1, 1, 1, 1, 1, 1, 1, 1, 1, 1, 1, 1, 1, 2, 2, 2, 2, 2, 2, 2, 2, 2, 2, 2, 2, 2, 2], "regression_weights": [[[-10], -1.8569203020351037, -1.3032221509695892, -1.6417538201605137, -1.7271079314106865], [[1], 1.795082101480633, 1.0007062080050813, 1.2348842735486676, 1.7791927221354844], [[10], 0.1, 0.1, 0.1, 0.1]], "ground_truth_mse": 0.2696461520947228, "ground_truth_r2": 0.9987238378945016, "train": [0, 1, 2, 3, 4, 5, 6, 7, 8, 9, 10, 11, 12, 13, 14, 15, 16, 17, 18, 19, 20, 21, 22, 23, 24, 25, 26, 27, 28, 29, 30, 31, 32, 33, 34, 35, 36, 37, 38, 39, 40, 41], "val": null, "input_args": {"N": 42, "K": 3, "D": 4, "noise_std": 0.5, "outlier_ratio": 0.0}}