{"X": [[-2.5868711703897262, -0.683494731312408], [2.0057628343160854, -1.4905761732144631], [-1.1159044377246778, -0.8180152298536987], [2.102908089092849, 5.584416025629915], [1.083078785996807, -1.2358508902270335], [2.0781166411615777, -0.19231939961293398], [0.9617390069576971, 3.350002439000582], [-0.4957418985877249, 1.0180505019466501], [-0.756215786480684, 0.6871316592307527], [1.5131409040025914, -0.9775580975392435], [0.3223560679416073, 0.5276319382947974], [-0.27531002496860246, -1.3752245727705685], [-1.8424344546082536, 0.6930096086461017], [0.461886079567973, 5.462733577773209], [-3.8695351530420883, 1.2254530096332978], [1.7408890733264686, 3.7192677253451922], [2.0037144135626264, -0.6884274076597237], [1.0000195229431923, 2.0847051442980584], [0.37298360601318226, 2.542023476138823], [-2.736181309127527, 4.462369331960936], [3.9353560211468257, 0.3286453229523051], [2.2226815591474347, 1.0959411837363768], [-0.6582705780295575, 1.1754204368166628], [3.00073177310139, 0.2378149649693001], [0.2486611538420127, 0.8510584742120381], [1.8669926601531417, 3.5567584605437363], [-0.26935861035872466, 2.0167924853668637], [1.432232012527364, -2.717224772246995], [0.1613670356946223, 0.7353422031265133], [0.9208595206127886, 1.6520068667739611], [-3.0806460974574303, 1.0925110462833938], [-0.355351154656083, -1.8788780534772362], [2.0485928600206975, 2.470559152130405], [-0.3065005355840713, 2.6849125631426802], [0.23696703646982764, 1.1329780182922897], [-1.197477893992113, 4.168974112791353], [-4.318898912766977, 0.8170947542186837], [2.390239210093983, -3.066933092245227], [0.6210614705752384, 0.8455626692940856], [2.649406010873963, 3.496425841194068], [0.19221546132412104, -1.7690373330717297], [3.734470847854249, 3.4357712661125808], [0.07598930369323909, 1.7017769881754927], [1.763732468253394, 2.132550882884912], [1.408415957828224, 3.813392483322741], [-2.475919008769136, 3.0816479067814577], [1.760943940430001, 0.5657294625102413], [3.347062996989907, -3.687206381999924], [3.323042981481546, 1.772156095207189], [-1.2662665473539652, 1.8661851093133819], [0.39182712239736883, 6.170589736129099], [4.67066544572965, 1.8813797448302192], [-0.4385076828533545, -0.16682918915801515], [0.34990074323642784, -0.12046901247559405], [-0.8044921361410036, -0.18194455093889084], [0.4476410154985244, -0.033767787465173615], [-0.39717989987277735, -0.8577838490476384], [6.10087647175932, -1.9463464955997711], [-1.0428294610441329, 1.8647914019592124], [0.3528398598469521, 1.8476494157317613], [2.5983599900700307, 3.5252273266496403], [2.5039296984297614, -0.9875219662371817], [3.218286562723296, -2.529835456551511], [0.7711574059397587, 0.0036516121564829085], [-1.121598072660864, 2.183333041455358], [0.6334868524408372, 3.0397094587384745], [-1.9649309556453418, 2.6926237836841596], [1.9958802967336415, 1.2530083506130125], [-1.8376211022970685, 0.4964517632603519], [-2.0933492225288326, -3.1653038714898987], [7.559490802222799, 2.9417226400805463], [4.585185704796568, 0.14197336298031027], [2.392395959222861, 2.394832544553859], [2.2030316273343997, 1.0073189814289387], [0.5435048836119314, -3.139224525330901]], "y": [-6.6752938698589865, -8.79953027570168, -6.795970875542085, -21.895785473659284, -18.991136049095328, -9.59047906148658, -10.873184649139064, -15.631888176328204, -3.881505589336766, -12.674587739491205, -1.7947311660621512, -6.087399368931351, -9.240835904368438, -11.935545279264765, -5.3116430513412825, -15.863572789451705, -11.904601304243323, -14.117725185105972, -10.923742421822876, -7.8116268305284216, -14.74648691086183, -7.972048098621325, -15.008286780251783, -16.175728020372038, -8.343910906537209, 5.155439645163538, 9.240682949619268, 1.3201069036674475, 1.7510870531782794, 6.7901136065838745, -3.811694416946149, -7.641703971163498, 10.837146340018803, 8.05733979382558, 3.5169725393171167, 5.709504925893687, -11.43037719517761, -3.2525340582465345, 1.5945026437800405, 11.131299236172149, 3.358427485076348, 9.973422756723586, 1.042409999401746, 10.239395557680801, 8.56583101412488, -2.559277648207678, 8.703829553759775, -2.916173240252043, 6.627238815044616, -1.5338554827484399, 11.911940030966733, 14.413089216063595, 8.625199777281205, 11.410229678787124, 8.251294362306906, 18.21951466541671, 15.134252984089812, 8.33134398118774, 11.931389891850934, 13.509435719095105, 12.104357585217498, 7.498091167700916, 9.500560692865921, 12.621315764929976, 11.660463888063129, 7.368440393986396, 11.637018768517386, 6.773620910870742, 2.402751177275433, 10.082655428529037, 14.379325737200869, 12.019356761736748, 15.620283726999176, 16.444342289132777, 10.977785211633819], "z": [0, 0, 0, 0, 0, 0, 0, 0, 0, 0, 0, 0, 0, 0, 0, 0, 0, 0, 0, 0, 0, 0, 0, 0, 0, 1, 1, 1, 1, 1, 1, 1, 1, 1, 1, 1, 1, 1, 1, 1, 1, 1, 1, 1, 1, 1, 1, 1, 1, 1, 2, 2, 2, 2, 2, 2, 2, 2, 2, 2, 2, 2, 2, 2, 2, 2, 2, 2, 2, 2, 2, 2, 2, 2, 2], "regression_weights": [[[-10], -1.4359949021420038, -1.0259262318278912], [[1], 1.4503375221212909, 1.5646776073817232], [[10], 0.1, 0.1]], "ground_truth_mse": 13.09818814155953, "ground_truth_r2": 0.8785678380449855, "train": [0, 1, 2, 3, 4, 5, 6, 7, 8, 9, 10, 11, 12, 13, 14, 15, 16, 17, 18, 19, 20, 21, 22, 23, 24, 25, 26, 27, 28, 29, 30, 31, 32, 33, 34, 35, 36, 37, 38, 39, 40, 41, 42, 43, 44, 45, 46, 47, 48, 49, 50, 51, 52, 53, 54, 55, 56, 57, 58, 59, 60, 61, 62, 63, 64, 65, 66, 67, 68, 69, 70, 71, 72, 73, 74], "val": null, "input_args": {"N": 75, "K": 3, "D": 2, "noise_std": 3.5, "outlier_ratio": 0.0}}