{"X": [[2.239357130658213, -2.6815261517163798, 0.9000671874693678, 0.13288686806194494], [1.5648832613187516, 0.39466926563893434, -1.095378396922158, 0.22076639972364154], [-1.233420306035812, 3.965994502503295, -1.2745256082096477, 1.6295343766432802], [1.917937778821564, -0.5626532052322806, 0.07436645035772393, 0.7770784315905235], [3.050528761288705, -1.7123614130622666, 4.377171798708105, -2.3722862578081942], [-0.03333693564412554, 3.1820670799932658, 0.6265875182301168, 3.6022327248464676], [2.1739883039000136, 2.7596790779885616, 1.5275946490240644, 4.4213079296181075], [-1.059629141654928, 1.52792644954951, 1.7459837414711283, 2.2393951918848805], [0.8479356618224739, 1.535919698865121, 3.7317357151766255, 0.4796464993678582], [2.0729607435449857, 2.5907647445644737, 4.4245381092661376, 5.091596577572266], [1.360846608578638, -1.021168276966256, 0.4195412399766151, -0.4217434426824562], [-1.0285218626007482, 0.7788519396123824, 2.3569084292536027, 2.3508944096606275], [1.559149655405918, 1.3367542697601502, 1.9850081452772383, 1.7561205311289676], [1.042950789416485, 2.05127552807176, -1.6628211918174274, 3.1255255020954875], [1.3932049950220706, 1.456225800516315, 2.064867266977888, 2.625123486441314], [-0.36781063644682765, -0.05284158922969051, 1.4053720036897792, -0.09672005277781737], [1.311027494950231, 2.121078710975036, 2.6610939208406235, 2.069919855799977], [-1.2513242319198228, 3.396514350760423, 4.97807228427965, 2.165307652381295], [2.0682900950903846, 6.537846906333425, 1.0334895987430077, -2.0006431383179004], [-0.43739613560411783, -1.2080215551787785, 0.6702117371341312, -0.6755078968351738], [1.8271005640797697, -1.090754553336863, 0.21238478586948895, -0.030935991436106036], [-1.76365695899521, 0.9678593559076286, 4.140008941268125, 2.0764285292708813], [2.807635685531247, 2.021878923963714, 3.258246358886983, -3.286241844855155], [3.091174167418208, 2.7978402332739627, 0.949717743243802, 5.233502926835488], [-5.854600147632582, 2.4263990996137164, 1.7542733504213044, 0.21690598458532417], [0.47860976630737295, -1.6962153828363018, -1.3136192201455232, 0.9894875428138565], [-0.30155227482335456, 2.002770463797364, -0.17105763328613777, 1.0879107329003106], [4.313248586673197, 1.7204520825798881, -2.1697875816918057, 2.0490448807072257], [2.075231111850589, 0.6810637617583073, 1.2351864680725155, 4.119184489378872], [1.4312565509307715, 0.25089690018782806, 5.282400836770401, -2.7446669165903845], [3.6116149327469875, 0.28724585395522517, -0.6145767705037888, 1.2489945173825143], [-1.3425816770211902, -1.2301191269630198, 1.2060122339261894, -0.4866903210400553], [-1.143432596961067, -0.4688646288101428, -1.4653645416882037, 0.5459057918724426], [-0.09643219271920622, 0.24188196834092768, 3.774925687902456, 1.903197733303208], [1.18320125672319, -0.15219541334589004, 2.298770961938674, 2.4088976548426784], [1.0767671343734933, 6.91002043443157, 1.3934748282604448, -1.009230451955497], [2.0338573004784113, 0.7905333209457337, 5.503337618764372, -1.3686280022610737], [3.1366740550234935, 1.4452994833046346, 1.643832223607778, 1.6173451885573344], [-0.22302506334986938, 0.5337146359858516, -1.0197296323854688, 3.9881569105851993], [-0.657119502488827, 0.7796180720998895, 2.036112818456947, 1.6693092587736955], [1.4398552498413117, 3.294164408099168, 2.8631166033413704, -1.6140329669877311], [3.888101465722727, 1.9473454148464953, 0.5724140379088645, 0.422849777349529]], "y": [-11.298031821049864, -11.951751702179905, -14.40439992309438, -14.740074104262582, -16.968879020844867, -23.138710813472873, -28.711179746466442, -17.859841573229136, -22.633865301134538, -33.66992679137896, -11.1569606095072, -17.776089619035986, -21.247398133601298, -17.688158632945925, 13.631830183872548, 2.0222658715928348, 14.209721721372702, 13.690310975309233, 11.962247276344753, -1.0916974133558501, 3.4070614088705016, 8.430109201564813, 8.834686802114922, 21.015434773555775, -4.332938028582838, -1.891592031688531, 3.9795096334147058, 10.969025445406038, 9.701799110590327, 10.098273347047062, 10.189125692950912, 9.79505752347582, 9.85431237664918, 10.390177918405987, 10.446915406969923, 10.873729231812973, 10.197308105080406, 10.427386951245968, 10.345619858153812, 10.04381938212282, 10.312369798636157, 10.630139911916594], "z": [0, 0, 0, 0, 0, 0, 0, 0, 0, 0, 0, 0, 0, 0, 1, 1, 1, 1, 1, 1, 1, 1, 1, 1, 1, 1, 1, 1, 2, 2, 2, 2, 2, 2, 2, 2, 2, 2, 2, 2, 2, 2], "regression_weights": [[[-10], -1.7690800968789244, -1.652520626256944, -1.9837198957854243, -1.6459014992637753], [[1], 1.894244698937034, 1.4289633849880095, 1.4326158442305643, 1.631361698526287], [[10], 0.1, 0.1, 0.1, 0.1]], "ground_truth_mse": 0.2758307701288738, "ground_truth_r2": 0.9986306126120101, "train": [0, 1, 2, 3, 4, 5, 6, 7, 8, 9, 10, 11, 12, 13, 14, 15, 16, 17, 18, 19, 20, 21, 22, 23, 24, 25, 26, 27, 28, 29, 30, 31, 32, 33, 34, 35, 36, 37, 38, 39, 40, 41], "val": null, "input_args": {"N": 42, "K": 3, "D": 4, "noise_std": 0.5, "outlier_ratio": 0.0}}