{"X": [[0.07598930369323909, 1.7017769881754927, 1.763732468253394, 2.132550882884912], [1.408415957828224, 3.813392483322741, -2.475919008769136, 3.0816479067814577], [1.760943940430001, 0.5657294625102413, 3.347062996989907, -3.687206381999924], [3.323042981481546, 1.772156095207189, -1.2662665473539652, 1.8661851093133819], [0.39182712239736883, 6.170589736129099, 4.67066544572965, 1.8813797448302192], [-0.4385076828533545, -0.16682918915801515, 0.34990074323642784, -0.12046901247559405], [-0.8044921361410036, -0.18194455093889084, 0.4476410154985244, -0.033767787465173615], [-0.39717989987277735, -0.8577838490476384, 6.10087647175932, -1.9463464955997711], [-1.0428294610441329, 1.8647914019592124, 0.3528398598469521, 1.8476494157317613], [2.5983599900700307, 3.5252273266496403, 2.5039296984297614, -0.9875219662371817], [3.218286562723296, -2.529835456551511, 0.7711574059397587, 0.0036516121564829085], [-1.121598072660864, 2.183333041455358, 0.6334868524408372, 3.0397094587384745], [-1.9649309556453418, 2.6926237836841596, 1.9958802967336415, 1.2530083506130125], [-1.8376211022970685, 0.4964517632603519, -2.0933492225288326, -3.1653038714898987], [7.559490802222799, 2.9417226400805463, 4.585185704796568, 0.14197336298031027], [2.392395959222861, 2.394832544553859, 2.2030316273343997, 1.0073189814289387], [0.5435048836119314, -3.139224525330901, 2.220288172813315, 1.8469938008857456], [3.2357734669016835, 0.4515158222729482, 4.483624376944468, 0.10499824761470844], [-1.5108544366917167, 2.8763273425482883, 0.06330748088353622, -1.5094406142257095], [1.249647292771689, 2.5130042861051045, 1.4828792576833847, 1.9948512978494746], [9.217385247610402, 2.6422417546238233, 4.063520632633912, -2.9716915475852903], [1.7301070328816812, 2.548164066809398, 0.271041816774683, -0.7519589553307895], [1.7930403173734173, 0.37076512868813793, -0.18751116576521398, 3.2990011354359647], [3.6711323366814437, 1.605258672356198, 0.09154429056777946, 2.028741434930897], [2.6589168612267877, 2.2612439345542406, -1.9067286993135775, 0.3239644452875443], [1.7182666635876092, 2.2444408289358657, 2.921563889686456, 2.5167406943335395], [-1.2686369660612367, -0.4148417751275735, -1.442858330191537, 4.608953283159451], [1.3608196138230926, 2.1063285483156244, 3.0660581318552427, 0.34199513059858744], [-1.302005888282297, 0.14695505828946076, 0.7037056176453964, 4.002873830513156], [2.73919639508989, -1.174181149684883, 2.3284428267912602, 2.469769335481904], [-1.1227314878616763, 0.782966352162031, -2.7008079475829527, 1.6609761279978403], [0.3686135793944527, -1.7000042053310889, -0.3963419951657856, 1.4799023965457727], [-0.10589887912644436, 1.5990536263603166, 2.105327391208398, -0.6808860249829936], [0.3754586606827125, 5.289356178222074, 1.2422111631566572, -0.6936575038837869], [1.1209248980058242, -1.677177759737046, 3.2654921518666966, 1.7406096854944804], [3.1716128080441934, 2.80435879088118, 1.7805928996215241, 2.95101882445713], [1.3831472932155562, -0.3244180235884977, -1.0470299695960605, 0.10365035331126271], [-4.01091626414879, 4.651988914269339, -2.428134822192066, 0.8467208720052621], [-1.635134539508075, -3.0511871836691737, 0.8355092499337393, 0.39066683030068594], [0.6805517397572272, 2.0978931196452377, -0.23675097017535784, 1.7575889314139492], [2.026502888618666, 0.33031174908456284, 0.4329609672733784, 2.076848525581238], [1.1145018930422212, 1.3181769733004391, -3.7488053681325075, 1.1170398705613427]], "y": [-18.78733613533359, -19.64410275047869, -13.42223724700429, -19.553852112826423, -33.50299215950051, -9.672967902950038, -9.316513208140835, -15.452848323044668, -15.699312586867526, -23.3198844980352, -11.334129761402892, -18.055516743696113, -17.48946893400237, 0.7439206785875347, 26.021103629049893, 13.457161299325229, 1.301297531463377, 12.238796636456257, 1.464370101887281, 11.744325732557044, 23.077661308468745, 7.948938177005856, 10.463675715962111, 14.138604788926198, 8.105459896821436, 14.658181195779731, 3.2300412322876535, 11.007281327915326, 9.970734686656957, 10.521307379628848, 10.23456843767421, 10.963272369107486, 9.66969794686796, 10.308128394223582, 10.043101850274708, 9.861216745711069, 9.549638954486332, 9.394027989571956, 10.215974415184451, 10.363971165663655, 9.67501969013816, 10.303429063012237], "z": [0, 0, 0, 0, 0, 0, 0, 0, 0, 0, 0, 0, 0, 0, 1, 1, 1, 1, 1, 1, 1, 1, 1, 1, 1, 1, 1, 1, 2, 2, 2, 2, 2, 2, 2, 2, 2, 2, 2, 2, 2, 2], "regression_weights": [[[-10], -1.3373682942964584, -1.9520107050830011, -1.693333828589223, -1.5341017000733372], [[1], 1.9565103020637227, 1.7524491243774594, 1.0568292773327919, 1.4431398337567467], [[10], 0.1, 0.1, 0.1, 0.1]], "ground_truth_mse": 0.2643302273162372, "ground_truth_r2": 0.9986377525464639, "train": [0, 1, 2, 3, 4, 5, 6, 7, 8, 9, 10, 11, 12, 13, 14, 15, 16, 17, 18, 19, 20, 21, 22, 23, 24, 25, 26, 27, 28, 29, 30, 31, 32, 33, 34, 35, 36, 37, 38, 39, 40, 41], "val": null, "input_args": {"N": 42, "K": 3, "D": 4, "noise_std": 0.5, "outlier_ratio": 0.0}}