{"X": [[-1.3653817834882251, 3.6749233080642276], [0.3713899123930101, 2.1132862067797475], [0.5814013406906607, 0.9763992659489612], [3.4698668908054118, 0.9131621164416904], [-0.3635744728658197, 3.4013839405703257], [3.68788876865941, -0.6682179972386293], [3.0719953935090407, 4.331598192348544], [2.898957115714487, 3.1340190443808926], [1.7889615552475602, 2.200709231608297], [-1.706608943100743, -0.9289923593435612], [0.2986611850679576, 1.6422950126821299], [-1.012482880862514, 2.4975916369394087], [1.0606474131796828, 1.363698601487471], [0.005129901090374367, 0.3255616256130164], [1.974701407115427, 1.0525298950833002], [0.6403271528249719, -0.11789992113621062], [2.082304837142629, 0.4460066533771948], [0.778664724522021, 1.619535656383734], [4.529266859956266, 0.47146564123776014], [2.7479923930558363, 3.164193405810623], [0.11049725984908043, 0.7042034364437735], [4.258536994624846, 3.2002645787630195], [0.19177584784822965, 2.05285067025918], [4.257658497053644, 0.05945067451042285], [0.15913334492388032, -1.5844161749781636], [4.972475707733663, 1.4709895149936725], [-0.9197920112776978, 1.0067646421099594], [0.10096375628870957, -0.6639592590441712], [-1.1279826481288562, 2.8113925709973113], [2.8026819449872464, 5.407571960873746], [-0.46051545049176146, 2.3373685263777677], [0.91807753792792, 1.276156532097304], [1.556048458213695, 0.6285285399218935], [-1.7332497118928871, 1.388277303475032], [-2.3099959856875674, 1.3469531439650313], [-0.1298084404958053, 5.940822924658945], [-0.18577459453720135, -1.5058227258057597], [-0.12061906349429208, 0.9854454401207793], [-1.2670800556648247, 1.1064141663811349], [-3.8924429617151484, 4.9751031010159945], [2.500177792924218, -2.456555156076159], [4.871547572658384, -0.4649990121009264], [2.52847865614713, 2.195712697720711], [1.7651872777360762, 5.267782621807459], [6.0548885007587385, 0.7479494580151986], [-0.017691158340536806, -1.4116044793434743], [1.2735024635877243, 1.277848461753208], [0.16653382292549046, 2.6787989186034915], [0.4076969064591506, -1.7012826663527507], [-0.34716119123748057, -0.26320003290284677]], "y": [-10.2617594993911, -9.277341430101652, -16.96984636032187, -3.199813945844782, -14.989185866527055, -12.475825224960285, -5.892876684305624, -12.525109262230055, -12.464756762325356, -13.894445384601546, -7.353260602001072, -1.180731876544387, -9.097003201274662, -13.781488427434027, -7.297343638510833, -12.005653487212125, -9.472093109044627, -5.083948524291084, -11.523108694042161, -8.153135780657944, -12.76959679979387, -8.415706365916005, -8.242507980322149, -12.585414701478777, -11.787816682108677, 7.590464944471694, 7.549460001716502, 6.088747950011432, 4.126779205662403, 6.73920164178373, 8.215456318791198, 17.115705640678613, 0.9156923745648484, 10.185881787846835, 11.21977381787282, 12.40835103758967, 12.39598423296434, 6.67519767324603, 9.810884509731096, 10.686681354458234, 9.385307814368689, 11.910231173551633, 2.077701898709117, 13.598995826661438, 13.626715553649117, 9.393309338572031, 11.373852851089183, 9.063070739512165, 7.697000173697544, 10.481698015837795], "z": [0, 0, 0, 0, 0, 0, 0, 0, 0, 0, 0, 0, 0, 0, 0, 0, 0, 0, 0, 0, 0, 0, 0, 0, 0, 1, 1, 1, 1, 1, 1, 1, 1, 1, 1, 1, 1, 1, 1, 1, 1, 1, 1, 1, 1, 1, 1, 1, 1, 1], "regression_weights": [[[-10], 0.2, 0.4], [[10], -0.2, -0.4]], "ground_truth_mse": 13.505691578256041, "ground_truth_r2": 0.8721677544427899, "train": [0, 1, 2, 3, 4, 5, 6, 7, 8, 9, 10, 11, 12, 13, 14, 15, 16, 17, 18, 19, 20, 21, 22, 23, 24, 25, 26, 27, 28, 29, 30, 31, 32, 33, 34, 35, 36, 37, 38, 39, 40, 41, 42, 43, 44, 45, 46, 47, 48, 49], "val": null, "input_args": {"N": 50, "K": 2, "D": 2, "noise_std": 3.5, "outlier_ratio": 0.0}}