{"X": [[-0.26907996031217696, 2.600501559691825], [0.8843096301526933, 0.02301800313091318], [-2.7991050882653177, 3.6074920412363025], [3.091786172452439, -0.460142170653262], [4.4768853179603685, 0.3563758555884594], [1.2165113417017324, 3.1081170042105906], [4.513776456546903, 4.703102222860929], [0.6706997135995967, 1.4502948374809375], [1.1750120404898605, -0.7148347053818749], [0.8532415860234004, -0.09651590130702892], [-0.21853587133137586, -1.014875363450849], [0.5732066097806421, 2.4222577085275847], [-0.7010900217809821, 0.2212728542749819], [4.854189715804073, -0.6170774326964665], [2.65824832082302, 0.37047948360831884], [0.011797932186451643, 0.5964876011144296], [4.752852576767566, 1.378782233638308], [1.447148385622462, 0.06841951468257423], [6.2017778819725935, 4.0592864534420485], [0.138892848374088, 2.1126729282626844], [-0.6706217475584972, -1.5955327553884922], [-0.7875304275135271, 2.66202192334113], [1.949365911502953, 3.961279423195051], [-1.9528448529878828, -1.3689453910387894], [0.9805519960826299, 2.9278799446901935], [1.7346216737646982, 3.157789205539722], [-1.3945820658772305, -0.1724686932813635], [-0.10585044929769016, 0.8685830656737087], [0.15172304281548332, 1.526970786205839], [-2.3606864532129554, 1.4553685312672813], [0.9940192706982107, -1.1295090784553068], [-0.815674481618734, -0.3264749325224283], [1.786637351519643, 0.299403824273072], [-0.09795225693163356, -0.3952662819125625], [2.1538243516703703, -2.1900710747488117], [2.346404862794132, 1.6487241064786762], [0.9708927407289094, -0.9488824880303794], [3.613023564088097, 0.5108917874959062], [0.49481251164923146, 1.8029348588667258], [-1.0524063964398191, 1.3632987366870748], [-1.4488229756307094, 0.6734213710488661], [0.8569188091805666, 1.1229653382149616], [-1.2653625543884202, 0.04437050133841369], [-0.7435337924352323, -0.38824807041601006], [3.3729983101511625, 3.160881207257564], [-0.6786016918495326, -0.26420348084370726], [0.0129587185311264, -0.10490654276900835], [1.0140865670434678, -0.16756894923724697], [1.8029627557106624, 2.7575375325087905], [-1.5288501675877657, 2.920938325127212]], "y": [-10.472267834104853, -10.010864768009249, -16.59351053599813, -3.8247518043533573, -15.239097142354563, -11.45956670977213, -5.455918859493098, -13.644250425413016, -13.753764240072964, -13.049484695562104, -8.51956816373413, -0.8937275497804862, -9.90632098715179, -13.18873208781508, -7.433454420359308, -11.845604322439574, -8.564873329015194, -5.57069824875146, -9.75347816475718, -9.09556388061347, -13.845715078008293, -9.640216912512436, -7.127618466416855, -14.398873797706768, -9.818614504009583, 7.563315875047068, 8.116111346792938, 5.51709386124156, 4.384606781390123, 9.352756693266356, 9.311300416486434, 18.103508630435833, 1.0012244821631882, 10.572239731009622, 11.74181943788677, 13.62994790420379, 11.941874670800965, 6.1182906087795015, 9.179897719274049, 11.563395787134734, 8.923117357229664, 12.077971186120843, 3.6970070193691473, 16.36315231758509, 13.197920892073686, 9.066531045873923, 12.179063601909387, 10.032107337824865, 5.634418924302626, 9.444380467895828], "z": [0, 0, 0, 0, 0, 0, 0, 0, 0, 0, 0, 0, 0, 0, 0, 0, 0, 0, 0, 0, 0, 0, 0, 0, 0, 1, 1, 1, 1, 1, 1, 1, 1, 1, 1, 1, 1, 1, 1, 1, 1, 1, 1, 1, 1, 1, 1, 1, 1, 1], "regression_weights": [[[-10], 0.2, 0.4], [[10], -0.2, -0.4]], "ground_truth_mse": 13.505691578256041, "ground_truth_r2": 0.8780949215301767, "train": [0, 1, 2, 3, 4, 5, 6, 7, 8, 9, 10, 11, 12, 13, 14, 15, 16, 17, 18, 19, 20, 21, 22, 23, 24, 25, 26, 27, 28, 29, 30, 31, 32, 33, 34, 35, 36, 37, 38, 39, 40, 41, 42, 43, 44, 45, 46, 47, 48, 49], "val": null, "input_args": {"N": 50, "K": 2, "D": 2, "noise_std": 3.5, "outlier_ratio": 0.0}}