{"X": [[1.2362701882869005, 1.661375694552761], [-1.580867596342455, -0.01458673801153254], [2.8165869307832176, 2.1551051044664256], [2.4806360367508917, 2.873304132166907], [2.163605594751994, 1.8643442554351113], [2.2053140475284723, -0.3695181925290967], [-2.8681029667606333, -0.6640847084424559], [1.1080931115676502, 0.29807381578227043], [0.6756698390069582, -1.2678525574543462], [-2.202853507445411, 2.1292932994917164], [2.837662784129302, 0.49106845794367737], [2.6886788155984225, 0.0263117099302258], [-0.021753777080190773, 0.8340158644111436], [1.8755683405270216, 1.5179340343488832], [0.6275784637330415, -0.17267769912844644], [-2.42643171665035, -1.571174064338901], [-0.8784887914416148, -4.18979224816581], [-2.362412572080615, 2.7577305783406825], [0.642613693192591, 4.035994667074354], [-2.2660894946185373, 0.7342853300326657], [0.9647309309009341, -1.2835256373536952], [0.6241540543756187, 1.3307496920246598], [-0.3516709273168499, -0.8838890294132584], [4.422318083375929, 4.5144483794881225], [-0.5803359709375948, 0.5024464761764207], [1.9561733648982462, -0.5290910208820292], [3.9827335611293404, -0.34214582959501705], [1.6236919840370254, 1.979839043936537], [2.9495307099183465, 4.311271763575322], [2.725747194885277, -2.336851971522248], [1.080636628399723, 4.175686529027017], [0.6219505865235457, 2.7589101825148994], [-0.9599307341625991, -1.8126039209895377], [2.5482336815219053, 1.482217751948883], [0.01470687121064973, 3.409500456412427], [3.132308760958407, 5.794999255912377], [-2.124903183024188, 7.80661042595292], [0.6418228210651079, -0.3668852735954089], [-1.4595237397779521, -1.0350045484305896], [1.399882814235521, -0.5867413747266204], [3.565470604766849, -1.4992843759050225], [2.394877901225665, 0.615362896722699], [0.6378270722610273, 0.3068819999812553], [0.2734796850216671, 1.7648007891347646], [3.512430197701974, 4.516235837728177], [-1.3595957101091063, 0.07237199954963203], [2.328249423763939, 4.5198515394055], [3.047624677687784, 1.489036852279231], [3.7816117194310817, 2.375711559366593], [0.1086297604545352, 2.3395484402911615], [-2.2245113497723854, -1.2546736461361747], [-2.581872222326304, 2.869389443275362], [1.2904715217976408, -0.7176437780508946], [-3.040125717830599, 0.8003489816152265], [1.9829925215866577, 4.37045615749275], [-3.5740481947894844, 4.874991993038925], [-0.44004550085250105, 0.8358986827672517], [1.4774717893820846, 2.240016460283298], [1.7986493849705436, 0.589843045263314], [0.36150426167402216, -0.308230032753686], [6.25778735291786, 4.455733115531991], [-5.551533758299165, -0.501116203244137], [0.41225147514541016, 0.6881609371071045], [3.1413073768791024, 0.3659099552756837], [5.3441618044565855, -0.3650848429733309], [1.18989105161925, 0.49049090790177896], [-1.5913247120752358, -0.4563093225595054], [1.9167196780899405, -0.9287330640262073], [-1.082598702171786, 3.878574250668591], [1.5361562816641439, -0.38670523302586046], [-2.512469070912448, 3.990673408004059], [3.735410178421135, 3.1144255812058144], [-0.37528485352183516, 1.4923871405015396], [-0.11502287694469926, 0.8014442441182023], [0.7627972167400796, -4.267141827323755]], "y": [-7.967704415443954, -9.743160132610011, -16.3560277995986, -15.696300731086122, -18.03682614481992, -12.05693434949958, -5.647776971699487, -17.88480483105525, -5.385245249291514, -8.405663127803685, -16.255859668888412, -13.813005629424788, -9.423146844027729, -15.344654209490031, -11.338473638867406, -9.92839180570983, -0.906192135037275, -10.802756174313066, -15.68920773291636, -13.739356851816012, -3.487979656831321, -12.139122091370107, -9.649642473983452, -14.708658310113583, -10.207121531190746, -1.2624489394800729, 6.318000613386907, -1.3648098645458262, 15.903480936612219, 1.2773298328348786, 6.065708913366147, 9.651262812261605, -8.993733243302167, 9.510190560380812, -1.5366120089688398, 12.272539484508943, 3.6165619901812898, 6.776185974486738, 3.1262160016101115, 1.5769011416548238, 8.341798899791018, 5.543478920296346, 4.561586627742314, 1.2729861289169464, 7.549878109221501, -7.671183074316806, 12.732933767548495, 16.415417180722482, 12.031907168230816, 2.559536303592034, 16.344147518570935, 10.859308185325084, 10.412301722615329, 10.660044400822075, 10.172024676423977, 9.046927187763863, 5.0172131870670365, 12.127433256100181, 9.907135166483757, 14.181128151096072, 9.780487407277523, 2.7224404289890307, 9.761404029593226, 16.299102271828865, 9.155926765888033, 7.053539182379481, 5.617664868632885, 6.423739822642567, 9.228919476049109, 5.98500777776011, 15.389557338300703, 9.695760249698864, 10.491979528929527, 15.102480459285498, 14.91118036040082], "z": [0, 0, 0, 0, 0, 0, 0, 0, 0, 0, 0, 0, 0, 0, 0, 0, 0, 0, 0, 0, 0, 0, 0, 0, 0, 1, 1, 1, 1, 1, 1, 1, 1, 1, 1, 1, 1, 1, 1, 1, 1, 1, 1, 1, 1, 1, 1, 1, 1, 1, 2, 2, 2, 2, 2, 2, 2, 2, 2, 2, 2, 2, 2, 2, 2, 2, 2, 2, 2, 2, 2, 2, 2, 2, 2], "regression_weights": [[[-10], -1.180572644772893, -1.4596563684280133], [[1], 1.8088473340748927, 1.36742533892459], [[10], 0.1, 0.1]], "ground_truth_mse": 13.92878133511375, "ground_truth_r2": 0.8724475648053924, "train": [0, 1, 2, 3, 4, 5, 6, 7, 8, 9, 10, 11, 12, 13, 14, 15, 16, 17, 18, 19, 20, 21, 22, 23, 24, 25, 26, 27, 28, 29, 30, 31, 32, 33, 34, 35, 36, 37, 38, 39, 40, 41, 42, 43, 44, 45, 46, 47, 48, 49, 50, 51, 52, 53, 54, 55, 56, 57, 58, 59, 60, 61, 62, 63, 64, 65, 66, 67, 68, 69, 70, 71, 72, 73, 74], "val": null, "input_args": {"N": 75, "K": 3, "D": 2, "noise_std": 3.5, "outlier_ratio": 0.0}}