{"X": [[1.0355490945474037, 4.619068512756636], [-2.246707387993812, -0.09766932123100869], [0.8916696896729414, -0.7355021196942761], [-0.9298590616109508, 0.7032589280729914], [4.313156417284251, 2.7942669974718912], [2.7464005310599533, 2.427168749136743], [2.3922168981309335, 1.0778500056861275], [4.492203286615864, 2.2068304385931676], [2.958900123012392, -0.8992124759559934], [-3.7388641178693893, 0.20748906697572234], [0.5714746068788734, 1.2950304757490148], [0.1017388374331869, 1.8480021155751483], [2.587963061888476, 0.6315921936436715], [-0.38870086248646163, -1.5635084925413656], [3.15783594670728, 1.845808695326994], [2.6948668028536424, -2.3104407044043684], [0.9804316695111798, -1.3054178680008892], [-1.0116856700955066, 0.8709975672749545], [1.8753712790413721, 0.9265319834671616], [2.8754807681680203, -0.5629698524609297], [0.8277762407549113, 0.5026578973762375], [5.1509225940937915, -1.618497762749243], [3.180822452974306, 0.11012081318637312], [-2.126549160399258, 0.4396948784410174], [2.1276245751922813, 2.0668692130952735], [1.7674004738430127, 4.384564366959209], [-1.0633796239660889, 2.3444022036925887], [-0.3604250759547407, 0.1661307904545204], [5.984609292319084, 1.5366410935240933], [0.2575658607617286, 3.285047920276097], [1.4441583060455947, -0.49653937866440834], [-0.411804824432932, 1.639067244327082], [2.45262394989485, 1.401781103533946], [4.152585096473983, 3.031282747023948], [0.3029700844912957, -0.07720993986955849], [3.627482523595043, 0.459450852540088], [2.5334051483542557, 1.9863496813632173], [-3.0327762566623635, 2.183941448564312], [0.3878442453225531, 0.2762074050743827], [4.1939654447550545, 1.6942900907401328], [3.9627265574731254, -3.695932153753043], [0.054006225584700696, -1.0817726441589768], [3.4649890793554774, 1.9229408873651064], [3.4597051729668236, 2.620585317724993], [1.809365131796286, 3.021768947491892], [0.8430999082515388, -4.42445277901505], [0.7848904830822176, 2.5448504416268474], [-0.6928800742713288, 2.310316228223689], [-1.5364213289230406, -0.6398400447312642], [3.4163253311122372, 2.9903789843959334]], "y": [-9.036505633194173, -7.936895473447402, -9.353494151677115, -13.05148952900798, -16.72339419825192, -5.283472069807703, -5.145693577197948, -13.518153467445316, -4.030386175498001, -12.169404807305808, -0.15821093790125218, -7.134073511437787, -10.405356162462695, -6.371061118224074, -8.241160748841509, -9.933173553528713, -10.05963417054444, -10.396886662064261, -7.034524249717125, -6.812799275359524, -8.391551461495354, -3.273148487945848, -14.067452499106075, -11.872143761323112, -5.861438943469214, 3.775183976987833, 14.750628851855893, 12.500100529882637, 7.554898611608631, 10.50416599929168, 7.856638730892726, 4.24024762639589, 11.949129433138047, 11.257816337701836, 10.37083497899094, 9.013874761687472, 1.2537731850059988, 6.8125525331894465, 8.182669104084308, 9.301477942433724, 15.533450840872334, 8.603213009187202, 5.807293344002729, 11.604458405253796, 7.985842071563322, 6.8110162483235595, 13.08976398750897, 6.213194489584805, 8.598072216101514, 4.503263692133309], "z": [0, 0, 0, 0, 0, 0, 0, 0, 0, 0, 0, 0, 0, 0, 0, 0, 0, 0, 0, 0, 0, 0, 0, 0, 0, 1, 1, 1, 1, 1, 1, 1, 1, 1, 1, 1, 1, 1, 1, 1, 1, 1, 1, 1, 1, 1, 1, 1, 1, 1], "regression_weights": [[[-10], 0.2, 0.4], [[10], -0.2, -0.4]], "ground_truth_mse": 13.392528288329864, "ground_truth_r2": 0.8478965281609185, "train": [0, 1, 2, 3, 4, 5, 6, 7, 8, 9, 10, 11, 12, 13, 14, 15, 16, 17, 18, 19, 20, 21, 22, 23, 24, 25, 26, 27, 28, 29, 30, 31, 32, 33, 34, 35, 36, 37, 38, 39, 40, 41, 42, 43, 44, 45, 46, 47, 48, 49], "val": null, "input_args": {"N": 50, "K": 2, "D": 2, "noise_std": 3.5, "outlier_ratio": 0.0}}