{"X": [[0.3848401689301585, -2.920930864116211], [-1.9101502590115493, -0.4552172723891048], [3.5997238964656155, 4.599585177360281], [3.6617112962683733, -1.088452933298151], [3.9183246691289186, 1.6230579911744052], [3.7605316913999562, 1.1289805901642656], [0.062462551973074376, -2.905582879591397], [-1.6657332714726367, 3.153460926695174], [5.008048509097492, 0.7747383654013453], [2.5222742990621496, -1.8667730378636822], [1.4058093122957445, -1.0424444105008526], [4.345978887351858, 2.0096696823638736], [-2.4945169837578507, 1.5208764811948128], [0.24575302954790024, 1.0480261573637657], [-1.9799283132945469, 0.34325274700328523], [1.972470170494787, 1.1686540359782156], [-0.3620491742175709, 1.2708537368666646], [2.7084915127619533, 2.4886637754621423], [-0.030293076671129127, 1.214206860810614], [-3.1704900238197222, 0.9808734723384336], [0.8703760668484658, -1.074350459510522], [0.5030766660876054, 0.6324648725438445], [2.545760116772364, 1.6055233058642706], [0.6383947951197644, 0.5734542343195418], [2.0472133064479254, 1.4430738746447505], [-2.2010638858257634, 2.019155985530505], [0.7048426060379231, 0.7675205468058366], [-0.5871721287583791, 2.1434961626040874], [-0.9630054311938956, -0.5869529816450472], [2.1100624542547255, 2.532350357614499], [-2.217348250214709, 2.790815582997867], [4.0490511763441805, 1.644786087424946], [3.045195889602421, 1.0908608317921895], [4.492656812343936, 2.2394122345327574], [-2.2019019346491775, 1.3525114437379422], [4.657259945591793, 2.036108165215162], [0.14413258866104883, 6.548711333749974], [2.3690296731386526, 2.356924167034707], [-4.261720984734558, 1.0209125561950227], [1.0134644710578917, 0.4017178306452672], [1.8363482523896462, 0.6406571942094862], [0.20476353323024266, 3.0599241514017], [3.0952425999204642, -0.13293212084684214], [0.6993225302415573, 3.7034395235262143], [3.24896318794158, 1.414675468682467], [4.539684033760928, -1.0420251364155635], [2.2522895351020846, 1.1174976335738391], [-0.3283334080295932, 1.4557573561546888], [1.09909979045754, 4.005423525775576], [-1.9284244383913491, 2.1453587069516002]], "y": [-15.51558863857786, -5.216448230023413, -10.83770943279377, -8.056080258463096, -8.919550377354783, -7.733025279112869, -17.19060914082573, -3.5239284920620664, -8.218456876073326, -14.116248488579604, -4.612026479688424, -7.950693549808469, -12.564720197651127, -12.244798713926455, -5.415219484750226, -6.476696554162755, -10.563827638646353, -6.578550019288909, -16.814014083379448, -6.959512630493226, -10.275887957092488, -11.282575102668018, -10.329192200944378, -5.9172520211811825, -19.175114376989452, 15.291666695292268, 14.541307860404908, 6.933393045004717, 13.874944787612232, 2.61341893831473, 5.476640092029817, 3.927521011910599, 11.791369675104495, 4.548979434722584, 7.48707300283735, 5.269455718753997, 11.248841325268554, 1.8593303863989483, 7.989070710596174, 12.608427447203608, 13.053916730651565, 6.856017038067272, 9.331949816086683, 13.257955631780085, 7.391801128728263, 13.075819094805741, 15.748627589709868, 8.241389986224391, 6.823452984456126, 2.7819725557480073], "z": [0, 0, 0, 0, 0, 0, 0, 0, 0, 0, 0, 0, 0, 0, 0, 0, 0, 0, 0, 0, 0, 0, 0, 0, 0, 1, 1, 1, 1, 1, 1, 1, 1, 1, 1, 1, 1, 1, 1, 1, 1, 1, 1, 1, 1, 1, 1, 1, 1, 1], "regression_weights": [[[-10], 0.2, 0.4], [[10], -0.2, -0.4]], "ground_truth_mse": 16.361607845876698, "ground_truth_r2": 0.8443200631763274, "train": [0, 1, 2, 3, 4, 5, 6, 7, 8, 9, 10, 11, 12, 13, 14, 15, 16, 17, 18, 19, 20, 21, 22, 23, 24, 25, 26, 27, 28, 29, 30, 31, 32, 33, 34, 35, 36, 37, 38, 39, 40, 41, 42, 43, 44, 45, 46, 47, 48, 49], "val": null, "input_args": {"N": 50, "K": 2, "D": 2, "noise_std": 3.5, "outlier_ratio": 0.0}}