{"X": [[1.0197521379629193, 2.6268673477511153], [-1.029325366143543, 3.4925634646163157], [0.5876594961959141, 1.1187351892686035], [0.5113017800553095, -1.9635430941274183], [1.6780749600798806, 0.9863450116748389], [0.17972651655466731, 0.5601156669865046], [1.8346184465731823, 0.7051658316517735], [-0.06048550524788565, 1.1608607976947805], [2.508321945484052, 1.0718505649102266], [-0.5923627896677859, 2.6617570687137686], [0.40718285759382755, 2.170720197411973], [0.7080711781198279, -0.8885965514034235], [-1.5502251077655216, -0.8010006277820678], [0.5317180017405387, -3.5053705635044707], [1.7660171597341527, 3.1992172522956075], [0.5156759688735795, -1.2190160017615996], [-2.3339542557613893, 1.450635604419968], [1.8239513784702166, 1.1151713011703015], [2.392722301351716, -0.3448408418733535], [0.494908235520937, 1.5515021803550493], [0.5479368731962343, 1.9744004799366313], [1.991176790692348, 0.4563577473471149], [-0.9279304266595716, -0.44875481892684665], [3.1910845185116727, -1.408335937817228], [1.1194619066028768, -0.9926503096486052], [5.614230561384354, -0.2690823002430056], [2.267421618020082, -0.936999517165102], [7.383802493290811, -1.6724537318384627], [1.7128716373323343, -1.5061293937861668], [2.638413667419522, -1.5116244303533692], [0.11297707501407128, -2.190268797717447], [0.20458848782852823, 1.0012573682215953], [4.482449113947949, -3.6060656390107653], [2.089823602081479, 1.0838619020963587], [-0.21782839159378375, 0.5756117235474651], [1.7813970349547756, 0.9249594034933902], [0.911897144507364, -0.5612327814497085], [0.19794621111445898, 1.967964927232825], [-0.8448872573382988, -0.03794937041642821], [1.1468565632303016, 1.6519371059067027], [1.7719961510239637, 0.5960225112418216], [-3.068902459565937, 2.5229701570356626]], "y": [-15.894087441465764, -14.160310096603709, -12.5541701745532, -6.823242827894506, -14.636552924160949, -11.362358323569197, -13.52638661472238, -11.45735916777575, -16.316093324331014, -13.174952569037023, -14.563402891401957, -9.954370126412886, -5.888451971297215, -5.993739134802748, 8.172820810539404, -1.1094024309309771, 0.8839708981123441, 5.212016013435663, 2.3604825488680623, 3.815466097633661, 6.129380459839599, 3.8382483094933986, -0.7992400524211882, 0.8687426059306274, -0.03499310057812843, 6.3599794794108755, 0.9608999838507323, 5.607923633342236, 9.720354879395213, 9.966832048809977, 9.491417521614965, 11.04672367785948, 10.080889735124751, 9.788513085939835, 10.447050789246964, 9.660213818859305, 10.139498233808142, 9.23675605189484, 9.247623312775312, 10.378309984848261, 10.606035156224284, 10.031090910341957], "z": [0, 0, 0, 0, 0, 0, 0, 0, 0, 0, 0, 0, 0, 0, 1, 1, 1, 1, 1, 1, 1, 1, 1, 1, 1, 1, 1, 1, 2, 2, 2, 2, 2, 2, 2, 2, 2, 2, 2, 2, 2, 2], "regression_weights": [[[-10], -1.708719263853978, -1.6749891840730817], [[1], 1.0377575017703267, 1.9387811711055254], [[10], 0.1, 0.1]], "ground_truth_mse": 0.2255519993962094, "ground_truth_r2": 0.9974894975556732, "train": [0, 1, 2, 3, 4, 5, 6, 7, 8, 9, 10, 11, 12, 13, 14, 15, 16, 17, 18, 19, 20, 21, 22, 23, 24, 25, 26, 27, 28, 29, 30, 31, 32, 33, 34, 35, 36, 37, 38, 39, 40, 41], "val": null, "input_args": {"N": 42, "K": 3, "D": 2, "noise_std": 0.5, "outlier_ratio": 0.0}}