{"X": [[1.1531691595829372, -0.840522380204896], [0.34386009826156116, -1.6596240763576584], [-1.2263925014456993, -0.2317332851508236], [1.9950255393060465, -3.978305493803548], [-0.2717258710470485, 2.7316381653797404], [3.1616641051263388, 1.2863576784876711], [2.4218476316393747, -1.8493430340636237], [1.1514323697986766, 2.098994520493332], [1.429310748409149, -1.8172343219273674], [1.7724400804200156, 0.5321373538035925], [-0.33168049893161733, -1.950118251676336], [2.9165046940894293, -1.5865810506666094], [-5.0113430845665725, 1.534559647686773], [-1.2208176609601464, 0.5404016212597678], [3.7459491998201058, 2.2715867075249925], [1.4942937701414278, -1.623293599150144], [4.660552491265689, 1.4176063494838442], [3.0286655023817413, 2.4103752897742394], [-0.5546883166266272, 1.2585345678358308], [1.9633636052146888, -0.7471482168913335], [-2.2383780601914682, 1.2886779207147567], [1.78303288465108, 5.154622873776565], [-1.8980039374158322, 2.1084880244732203], [2.2672181622236542, 3.5998239425408802], [2.8957861302127883, 3.5852320216601563], [-0.6136837239841555, 3.3916286269298865], [-0.6791332218567208, 2.127325542823434], [2.6077723854855064, -3.65822392017847], [4.083225934057662, 0.7712020384297057], [-1.727636172461184, 1.4052572950101523], [-1.345714715726102, 3.801772494349221], [4.7135876118573705, -0.21428356216768596], [-0.7977257515922662, -1.3395489592091416], [-0.9703851726452661, -0.15480239079533997], [-1.199952099996163, 0.6650619887676403], [-0.6108142724555379, -2.924910845469669], [-2.2493359253907608, -0.46783078685779245], [0.016378086517650714, 2.9269947694649185], [2.405646902665705, -2.038556324269664], [1.252164112669036, -0.05953781877738917], [1.8776963616082323, 2.073634986852822], [0.938306626403943, 3.8382645959743473], [1.002653547202227, -0.43945458970659423], [0.9309580522642229, -1.7677396917521366], [1.2286986974623946, 1.6762388897197282], [-1.6463899257345984, 0.6582973608622456], [-0.5876660508458815, 4.317580148801062], [3.918354954867236, -1.0069710120634974], [0.41808760923307586, 0.5427601389219316], [3.1404315423077573, 1.8039585015377415]], "y": [-10.101695178672632, -11.608481853266447, -14.24420387507492, -11.23740673827049, -10.285955032785226, -10.537097877648828, -15.566026813082427, -10.648167652119046, -11.283413603848471, -11.700473153170172, -8.620764619592947, -3.9609209129506393, -9.350056995848695, -7.551740067206513, -1.9623203061121544, -8.842767082385647, -3.1012932727450213, -11.582640883572367, -10.087461372514012, -5.364660023433419, -7.568755357739743, -7.469690864175714, -6.322694940652692, -6.774843657998073, -6.179463759960703, 7.522747189813513, 10.015615931537244, 12.091173856863843, 7.131087315138358, 2.4622056090965394, 8.459376853230173, 17.736135185545628, 1.3429797194003203, 7.059520508793577, 9.178365374136153, 12.234731012042541, 14.59361389853966, 12.474317541034367, 14.897629699956621, 14.636284868243585, 6.497422711598677, 8.080132300758459, 8.225591957819047, 12.04837209961079, 7.768419040501338, 6.835243500822545, 15.100876998193689, 9.093057467539303, 7.46372427694342, 11.537026447680844], "z": [0, 0, 0, 0, 0, 0, 0, 0, 0, 0, 0, 0, 0, 0, 0, 0, 0, 0, 0, 0, 0, 0, 0, 0, 0, 1, 1, 1, 1, 1, 1, 1, 1, 1, 1, 1, 1, 1, 1, 1, 1, 1, 1, 1, 1, 1, 1, 1, 1, 1], "regression_weights": [[[-10], 0.2, 0.4], [[10], -0.2, -0.4]], "ground_truth_mse": 12.383174747204487, "ground_truth_r2": 0.8757683234257214, "train": [0, 1, 2, 3, 4, 5, 6, 7, 8, 9, 10, 11, 12, 13, 14, 15, 16, 17, 18, 19, 20, 21, 22, 23, 24, 25, 26, 27, 28, 29, 30, 31, 32, 33, 34, 35, 36, 37, 38, 39, 40, 41, 42, 43, 44, 45, 46, 47, 48, 49], "val": null, "input_args": {"N": 50, "K": 2, "D": 2, "noise_std": 3.5, "outlier_ratio": 0.0}}