{"X": [[-1.3595957101091063, 0.07237199954963203], [2.328249423763939, 4.5198515394055], [3.047624677687784, 1.489036852279231], [3.7816117194310817, 2.375711559366593], [0.1086297604545352, 2.3395484402911615], [-2.2245113497723854, -1.2546736461361747], [-2.581872222326304, 2.869389443275362], [1.2904715217976408, -0.7176437780508946], [-3.040125717830599, 0.8003489816152265], [1.9829925215866577, 4.37045615749275], [-3.5740481947894844, 4.874991993038925], [-0.44004550085250105, 0.8358986827672517], [1.4774717893820846, 2.240016460283298], [1.7986493849705436, 0.589843045263314], [0.36150426167402216, -0.308230032753686], [6.25778735291786, 4.455733115531991], [-5.551533758299165, -0.501116203244137], [0.41225147514541016, 0.6881609371071045], [3.1413073768791024, 0.3659099552756837], [5.3441618044565855, -0.3650848429733309], [1.18989105161925, 0.49049090790177896], [-1.5913247120752358, -0.4563093225595054], [1.9167196780899405, -0.9287330640262073], [-1.082598702171786, 3.878574250668591], [1.5361562816641439, -0.38670523302586046], [-2.512469070912448, 3.990673408004059], [3.735410178421135, 3.1144255812058144], [-0.37528485352183516, 1.4923871405015396], [-0.11502287694469926, 0.8014442441182023], [0.7627972167400796, -4.267141827323755], [0.667467365128471, -1.6328819678561044], [1.994393825884747, -1.3165503849211881], [2.5545767168203497, -2.257030832705049], [1.8653617820910742, -0.2893126635385359], [0.882097787166642, 1.948696747639862], [5.06288910427562, 3.844094585672628], [0.910619643662502, -1.281597380987538], [2.8249615741920397, 0.732717443283424], [3.005674690064332, 0.34313614656798874], [3.574685003545884, 4.609692112420015], [-2.679756461700683, -2.0509705731512433], [1.220726220346842, 2.0946441332379484]], "y": [-7.203568232681069, -22.67819319154815, -17.594492904920987, -20.27537834988601, -15.148272148218142, -4.1146774125118455, -11.651049649761596, -11.457090631371114, -6.380049726959915, -21.320581208209358, -14.367791116342017, -11.047080721228022, -16.413318340177884, -14.055997818678662, 0.9147865868882343, 16.89343656214116, -7.828616693501652, 2.801458601103789, 6.42428949610844, 7.618142826456633, 4.402835750722394, -2.043743191093889, 2.150628510307482, 6.734070596985664, 2.638800817441183, 3.0427968554468334, 11.461014532862333, 1.7334265719918562, 10.593340411388978, 9.441328379681622, 9.532181777124952, 10.604019409884105, 9.20421679370861, 10.425319590018299, 9.250872051920064, 10.55961869916142, 9.36079230346763, 11.086755715354307, 11.217961522627899, 10.653730835640058, 9.947293917586576, 10.241543834732305], "z": [0, 0, 0, 0, 0, 0, 0, 0, 0, 0, 0, 0, 0, 0, 1, 1, 1, 1, 1, 1, 1, 1, 1, 1, 1, 1, 1, 1, 2, 2, 2, 2, 2, 2, 2, 2, 2, 2, 2, 2, 2, 2], "regression_weights": [[[-10], -1.539465688147995, -1.9604547467300875], [[1], 1.4928009916196419, 1.633496871083787], [[10], 0.1, 0.1]], "ground_truth_mse": 0.27827376155560923, "ground_truth_r2": 0.997760137082965, "train": [0, 1, 2, 3, 4, 5, 6, 7, 8, 9, 10, 11, 12, 13, 14, 15, 16, 17, 18, 19, 20, 21, 22, 23, 24, 25, 26, 27, 28, 29, 30, 31, 32, 33, 34, 35, 36, 37, 38, 39, 40, 41], "val": null, "input_args": {"N": 42, "K": 3, "D": 2, "noise_std": 0.5, "outlier_ratio": 0.0}}