{"X": [[2.2813093361722814, -1.6626004364680922], [-1.8400702856350142, -0.16194643789627294], [-0.09474653056349136, -0.09512362127259011], [-1.0239160938947656, -1.849478294062349], [0.013350336290213982, 3.5118363147921836], [-0.28176837050366266, -0.020010247752431987], [4.217003691167865, -2.3494512279882076], [0.7345236386057916, 4.823729576665965], [0.6152287925167379, 3.325070831694385], [4.375064784211265, -1.4513355254098146], [-0.1765846589229958, 0.3260613497887602], [-0.2552747839075691, -6.388358662458631], [0.10665512591230131, 2.312092646355369], [-1.5256481045851387, 3.8506805718075627], [-4.481235461583597, -0.06258276795961049], [-1.9712167515234928, 1.2906413334020446], [-3.415521207997, -0.22595835916287066], [-1.2693959785160902, -2.1305377880970964], [-2.1046498635697155, 0.627050470482747], [3.6627399301912176, -0.32951888875422664], [2.0178140936976536, 2.808224857791323], [-0.3782140331330266, -0.7023837959088863], [-1.410071333760793, 2.268646399332735], [2.313131446431359, -0.7700142746152547], [3.5557834435065967, 1.5122792904499387], [1.0827443416798026, -2.8232033758386637], [4.544805037017303, -2.266915465221743], [0.6303073239486778, 3.1370343103188914], [-1.7608614979611046, -1.7886362288344158], [5.095088178394665, 0.93268846096327], [2.2404179366448536, 1.5323506127905209], [0.1837117893931166, 1.0337434881874228], [0.4709198590728668, 0.9781364464213075], [2.3599371931274895, -0.09555319901001957], [2.3489342750696336, -0.0490844729429869], [1.068470681564037, -2.066797790716774], [-0.10674982994439342, 4.720045228696714], [-0.6242292924005253, 3.1477006455943735], [2.217015076317722, 2.3088488708914374], [-0.9506590858403319, 2.644889203273305], [-2.2224691060833774, 3.7864931657036824], [0.8232941092134437, 2.7234454277586897]], "y": [-9.927870895234395, -7.559752757926281, -9.727594984206032, -5.909463237213156, -15.201369520953042, -9.596150041435454, -12.416728018276995, -18.434457501805866, -14.845543984606893, -13.551457295102086, -10.522021959942375, -1.0337061424306369, -13.042512368815789, -13.348557908598622, -6.042328510295319, -0.4034219509202357, -4.317918847538089, -4.6934331735950545, -0.934197517759262, 5.209848407935059, 9.93504333027314, -0.7590425165174675, 2.738826649146947, 4.145937735249335, 9.0960219125913, -3.1511151108925155, 3.630843572751135, 6.44801744085312, 10.169748501992075, 10.394540504675783, 10.006000092341255, 10.657980593545803, 9.319367835846498, 10.494153077574792, 9.197777578652078, 9.569087619251322, 9.859219617075365, 10.983334948926146, 11.335666833685583, 10.004716135786765, 10.576769027033798, 10.264680753071039], "z": [0, 0, 0, 0, 0, 0, 0, 0, 0, 0, 0, 0, 0, 0, 1, 1, 1, 1, 1, 1, 1, 1, 1, 1, 1, 1, 1, 1, 2, 2, 2, 2, 2, 2, 2, 2, 2, 2, 2, 2, 2, 2], "regression_weights": [[[-10], -1.3327580363599736, -1.363706850028596], [[1], 1.519346008362159, 1.796129566266476], [[10], 0.1, 0.1]], "ground_truth_mse": 0.27827376155560934, "ground_truth_r2": 0.9969271856294526, "train": [0, 1, 2, 3, 4, 5, 6, 7, 8, 9, 10, 11, 12, 13, 14, 15, 16, 17, 18, 19, 20, 21, 22, 23, 24, 25, 26, 27, 28, 29, 30, 31, 32, 33, 34, 35, 36, 37, 38, 39, 40, 41], "val": null, "input_args": {"N": 42, "K": 3, "D": 2, "noise_std": 0.5, "outlier_ratio": 0.0}}