{"X": [[6.0548885007587385, 0.7479494580151986], [-0.017691158340536806, -1.4116044793434743], [1.2735024635877243, 1.277848461753208], [0.16653382292549046, 2.6787989186034915], [0.4076969064591506, -1.7012826663527507], [-0.34716119123748057, -0.26320003290284677], [1.6080262819155944, -0.32387239731428297], [-0.7466090634233602, 2.7063813427504915], [-0.25867990115872286, 1.4221578932152807], [3.10219040245086, 2.3893948106352147], [-1.280731986273858, 1.9274646093478265], [0.34412744219732916, -0.585000957259747], [-2.267386732341491, -0.6183136466689152], [-4.104489226377708, -3.092978610790638], [1.3002551392172486, 1.0404794758855], [-1.3777456526267282, 2.781970511479334], [-2.5363642946039486, 1.9548630716833482], [1.5496645294865337, -1.445853813620456], [3.658895773965598, 3.083492944714247], [-2.598379747472405, 1.4215412117979855], [0.6108240744445668, -1.5618949497382837], [2.371730069735995, -0.1902312920027296], [2.266616972726168, 5.857723873034444], [1.4936182480217544, 2.4979119017079627], [4.479829704803388, 5.961553413103499], [4.706780090753352, 3.643317052038886], [2.301438370384372, 1.4676217530702642], [-0.06943657832058703, 1.5032919908775928], [0.24783478736140807, 0.8880178197289831], [1.480514054255696, 0.5415874118261308], [-1.8612354637732693, -0.878934474039724], [4.969284584972351, -0.5725173748713206], [2.613822279458035, 1.7482266554095347], [3.1026012793043916, -0.5489392364427894], [4.323967038084856, -1.92804258824588], [-1.2500903157956884, -1.1633404057029586], [3.9741494227520926, 0.9493431220412638], [4.8872561851262475, 0.10053943430013668], [2.328757287590209, 1.1464878888346857], [0.9431265250283072, -1.2662269975802931], [-0.6930031768319109, 1.4804856250961276], [3.1436818835762605, 4.241906379707499]], "y": [-21.537825126123277, -8.314750517797059, -14.786857688875633, -12.660554020142651, -9.571294299931715, -9.508636084139077, -12.1344511116948, -12.562089772820894, -11.778516643990162, -18.650820967956705, -9.814359130629628, -8.749696035513116, -5.333441115475972, 0.20397150023257837, 5.053419541584794, 2.442071824695941, -0.49306288315066765, 2.1216687674172343, 11.504179642677881, -1.3753960419341724, -0.696788027763841, 4.733077913733954, 13.71001667209493, 6.78039115599641, 17.38531573154916, 14.396962480912352, 6.82502292001605, 2.5114527417523425, 9.402976647056976, 10.125462548769708, 9.591454526110695, 11.555360115453405, 9.218821105226235, 10.311729456694485, 10.424814713315515, 10.438473859186432, 10.743277857869993, 10.076672710027708, 10.347529398378287, 10.238866238819316, 9.921994146329716, 11.124064695363082], "z": [0, 0, 0, 0, 0, 0, 0, 0, 0, 0, 0, 0, 0, 0, 1, 1, 1, 1, 1, 1, 1, 1, 1, 1, 1, 1, 1, 1, 2, 2, 2, 2, 2, 2, 2, 2, 2, 2, 2, 2, 2, 2], "regression_weights": [[[-10], -1.7238560561174685, -1.1921794737813072], [[1], 1.7256871936516833, 1.4801413913107142], [[10], 0.1, 0.1]], "ground_truth_mse": 0.2696461520947228, "ground_truth_r2": 0.9974409507538656, "train": [0, 1, 2, 3, 4, 5, 6, 7, 8, 9, 10, 11, 12, 13, 14, 15, 16, 17, 18, 19, 20, 21, 22, 23, 24, 25, 26, 27, 28, 29, 30, 31, 32, 33, 34, 35, 36, 37, 38, 39, 40, 41], "val": null, "input_args": {"N": 42, "K": 3, "D": 2, "noise_std": 0.5, "outlier_ratio": 0.0}}