{"X": [[2.6883012710037484, 1.7302312743610784], [-0.26414981982995855, -0.7467071241359764], [-2.253156118525143, 7.841152731059105], [-0.02862309522519446, 0.20607951542713598], [0.4632651464275782, -1.5052483717335714], [4.352488040432883, 1.6204847662350828], [0.3875008508090797, 0.58931685079027], [-0.9636734645182272, 1.225700580077636], [4.824114677184214, -1.356539538534519], [3.124019521276319, -1.2306994628850476], [3.1605094888542866, 1.988749275816562], [-1.2046964057324954, -1.543089568005236], [2.7194933225518225, 1.608417478799108], [0.6492791339821641, -0.1626575910578265], [0.28460644587256456, -0.250429089345233], [-0.47037649476552823, 2.489790291126366], [-1.4562178111539685, -0.7930601367816328], [0.12640202676587986, 1.367585268753341], [1.2992701933161097, 2.1116143090688153], [-3.598241285287239, -0.8183228163531551], [-0.3983987846105417, 1.8904861648236628], [1.9689196963489424, 1.4273673627502557], [-0.714903002860745, 4.24902226373419], [-0.9231409395275585, 2.0961442731812916], [2.856998815753037, 0.46107890641460414], [-0.47400031314891056, 4.680149633861808], [-0.12477015176500639, -0.9725242284536593], [-0.23838840331418032, 2.1606019301949164], [2.59925172262065, -1.1679792789938652], [-0.0215647803838539, 3.26149034580497]], "y": [-17.218372222261166, -5.845007975475037, -20.236638515386115, -13.471431153320944, -16.627973391813494, -14.673203022031778, -7.528725020576667, -16.308403657437893, -7.510280332182215, -12.9962099916324, 19.606736508739182, -1.8094649315465512, 7.735671041867531, 6.292036344429998, 1.5053727163781359, 4.7868358072322, -2.853935127101595, 3.021446309783473, 9.281712516495233, -4.404765816510439, 11.39103886942448, 16.68369480424501, 5.60574661111186, 8.494588452745704, 13.218096228470985, 6.303104750611409, 15.365984370517843, 12.68668918356157, 9.509604151844764, 12.193690896096577], "z": [0, 0, 0, 0, 0, 0, 0, 0, 0, 0, 1, 1, 1, 1, 1, 1, 1, 1, 1, 1, 2, 2, 2, 2, 2, 2, 2, 2, 2, 2], "regression_weights": [[[-10], -1.1615455246165944, -1.736499102415566], [[1], 1.9041583936734936, 1.6991301658384046], [[10], 0.1, 0.1]], "ground_truth_mse": 14.614433166652711, "ground_truth_r2": 0.888790527450951, "train": [0, 1, 2, 3, 4, 5, 6, 7, 8, 9, 10, 11, 12, 13, 14, 15, 16, 17, 18, 19, 20, 21, 22, 23, 24, 25, 26, 27, 28, 29], "val": null, "input_args": {"N": 30, "K": 3, "D": 2, "noise_std": 3.5, "outlier_ratio": 0.0}}