{"X": [[0.40565043186301675, -1.2286229425895958, 0.6493384424828801, 0.5006148172581956], [2.983320577841515, 2.5859814359865005, -0.04531018004842413, 0.14197547329972382], [0.8942705211991533, 1.1259853508975817, 3.8090594927671373, -0.003024969700105684], [3.5444892515112807, -1.8037062543087554, -0.3864511960180326, 4.295750342722071], [1.7464539614853163, 1.1638635860695297, 2.137451187172207, 0.5310346637508144], [1.0702204752501794, 1.3935705399393954, 1.3954998273582397, 1.6736722724628104], [-0.19531451725287297, 1.6758732199240842, -0.46005623541129403, 2.1200441169945723], [0.6237092205034602, 1.4519221532476028, 1.511083935717739, -0.5170230450780653], [-0.10759305372355765, 0.6717419537358089, 1.8496020856062518, 2.8270109671990156], [0.8515178970260874, -0.3976449047501798, 1.4363915451318388, 0.9161391440368576], [2.4581180948948074, 3.3571909527616213, 4.831357764244661, -2.320809681564102], [0.014029486297607585, 0.807835086980533, 2.507315858750639, 2.2992723563759743], [1.071868360006823, 2.4832280930777317, -0.13739027455314767, 0.23093333092224866], [1.5554436338132076, -1.1613505484205082, 4.077471987854407, -0.6159299732233889], [-1.287601661793603, 1.593390271336129, -2.841495454200689, 0.10543256420369507], [0.6293875780326856, 3.5071345084707937, 7.018862377113147, 1.3032941845273707], [-1.596476708935044, 1.482074413852814, 2.2859084876502145, -0.8634274937331503], [1.652661500523675, 4.104669230226945, 1.9425997865984264, -0.5883001148907172], [-0.1372240059531391, -2.2870856227792298, 0.10619145898992, -0.18044920494382954], [3.727650579483683, -2.1055156656554304, -2.1601390453753226, 1.3485673611129592], [2.1420670377681907, -0.12199720138629133, 1.350281444683556, 2.2927006487229438], [2.433762858777661, 1.6965612168772473, 2.0419125366199884, -2.1029205050531212], [2.5567317554084177, 1.2453666124074672, -0.6738649096303981, 0.18508715326636938], [0.3878617605381204, -0.11826637405601703, 0.6405268082576248, 0.1925031543057263], [-1.9203079489256778, 5.241565641781449, 1.7230130333422307, 5.363462373506038], [0.4145812439331289, 4.169871951262945, 0.7061136247023697, 4.078826775122432], [2.799778188005801, 2.4805033679771995, 0.6135920594291967, 1.4039955766726993], [3.6226121686197006, -3.0001533916208016, -0.3963291662665869, -1.513145636827666], [-0.8532159910845238, 2.200620788208031, 2.6357011837059092, 0.5812563122682108], [3.2268324543587683, -0.4865946668436745, -0.20891668319136936, 1.231634286800611], [1.7854463262117828, 0.7249229409877005, -1.1426684329980832, 2.1174254405998485], [4.379762550452699, 0.2420244235817106, 1.041010237793302, -1.2209851177907702], [0.9825588200287152, -0.8311181258102491, 1.3340973769781335, 4.08257576488168], [2.0356723137487167, -0.4506307061500032, 2.5976206183680226, -2.4430590331957585], [3.400477704430295, 1.5929807688387605, -1.1288061130165095, 0.3435110144788155], [-0.8217395493862532, 4.964326668872592, 2.12232839617485, -1.0221495001683132], [-0.35420134065432785, 1.2964548718112319, -0.15617829751813006, 1.4473805698932947], [1.7331863954129894, -1.9089196337685888, 2.1996969213078135, 4.313738472756514], [1.6126726076005091, 2.2159068739547916, -0.045483705818101905, -0.03582476537994217], [1.583227007993898, -0.7743945357608986, -2.2330708066994873, 2.624307705803802], [-0.31259768657186604, 1.407436946081547, 1.2011948197001825, 1.7883220906908466], [2.1661073527371135, 2.0230546505527816, 0.39430517573071755, 2.599941336962951]], "y": [-10.602238902960803, -18.558951733824937, -18.501810599742225, -17.513897958041387, -18.506671259502767, -17.593308417581017, -12.305475800764814, -14.225582884966471, -16.651266885689715, -14.005912114092979, -23.6266620165903, -17.492419016576587, -14.725704974109533, -18.114440421931157, -4.136312154835485, 22.289625825380245, 4.050220575066953, 12.886141651737361, -3.4158649882411964, -0.6704348370553044, 9.89060460161896, 7.837279582140121, 5.318324381779502, 2.0593230102891837, 17.27614998693757, 15.197855666364514, 11.106640383077968, -1.8595035031358396, 10.156116884350359, 10.230448664215796, 10.047659321365426, 11.370320301658163, 10.550062771238862, 9.645104854799149, 10.832088793524731, 9.913854776563776, 10.327777377855584, 9.653935153630986, 9.71063407658651, 10.218437555068292, 10.777668906987776, 10.804024992193341], "z": [0, 0, 0, 0, 0, 0, 0, 0, 0, 0, 0, 0, 0, 0, 1, 1, 1, 1, 1, 1, 1, 1, 1, 1, 1, 1, 1, 1, 2, 2, 2, 2, 2, 2, 2, 2, 2, 2, 2, 2, 2, 2], "regression_weights": [[[-10], -1.818109421749651, -1.1550208000957072, -1.5495727697039756, -1.050642079697968], [[1], 1.279990798028891, 1.637990395790684, 1.892120413065728, 1.3350584085511943], [[10], 0.1, 0.1, 0.1, 0.1]], "ground_truth_mse": 0.22555199939620932, "ground_truth_r2": 0.9986540150543398, "train": [0, 1, 2, 3, 4, 5, 6, 7, 8, 9, 10, 11, 12, 13, 14, 15, 16, 17, 18, 19, 20, 21, 22, 23, 24, 25, 26, 27, 28, 29, 30, 31, 32, 33, 34, 35, 36, 37, 38, 39, 40, 41], "val": null, "input_args": {"N": 42, "K": 3, "D": 4, "noise_std": 0.5, "outlier_ratio": 0.0}}