{"X": [[2.6994907668739394, 1.013148406025086], [-3.016867019540917, 1.369489732863411], [1.4821294190595307, 5.044471606625795], [-0.8554973720509353, 3.11899757077592], [1.7283359758049426, 3.661012911099331], [1.092170726631184, -1.0808308082655085], [2.084958949737432, 2.382129140734768], [2.2672587374262747, 0.024897088398424527], [-1.947433769364256, 0.5506953181786681], [-3.107102426467896, 0.8605674165756577], [0.5176961280447845, 4.368719786343046], [5.140493748202065, 5.063719020411101], [1.6729915539630202, 0.11138026273511215], [3.7545226450397053, 0.3702626383908869], [0.8762093948724424, 2.1815765977833905], [-0.16189823393649272, -2.8915878882667374], [-2.935883706920978, 1.4246052999698027], [1.1294173732814172, 1.8205115154607217], [2.3919895992628017, -0.43657528786613176], [-0.45133020431855053, -0.6638327552825647], [1.3223459191973799, -0.3818105049996403], [4.47092616857968, 1.7231323780244097], [-2.067167215850864, 0.8900284424007535], [3.6148003825215906, 2.073599089503889], [-0.1086841324234602, 0.3302124917304857], [-1.2809366106619033, 3.723429522046865], [-2.856076001895667, 1.5372398287470492], [4.008538121984152, 0.44418833718501527], [-2.6190626849048058, -2.1848991028347395], [-1.5267933199861514, 0.41664823605908086], [3.244275616545154, -0.038544672479286834], [-3.070573907209135, -1.2372013996051399], [1.0854108326707248, -2.9159153108244142], [1.3908697121894644, 1.744557800354154], [3.5029919973563794, 3.2062583107268634], [3.9592637571692064, -0.8295886693652734], [0.841773373901203, 1.9066699988564002], [-0.3581355361416194, 0.6818970055180555], [-3.0649420412193606, 3.0290036502878745], [0.13316316107355597, 0.896426949717739], [2.081380490895314, 3.8177662012192832], [-1.3837367610495432, 1.5270023506258141]], "y": [-17.295741451703226, -6.4646450620540685, -22.43759257173934, -14.798747404627935, -21.60444312929969, -9.56682045782285, -18.02545548909939, -15.16604443014166, -6.492850833081652, -5.892363839607001, -18.07693518097955, -29.319567206598418, -13.600069045045633, -17.31472862077718, 6.57230663008563, -4.732426625168542, -0.6776196158794378, 6.1298310133036855, 4.105175941853742, -0.5533807885550297, 2.4490357817083517, 11.992443530004198, -1.103286355993953, 10.229311439537149, 1.881537900369266, 5.6185100362819185, 0.40379676847812984, 8.286075623706337, 9.429100522294915, 10.156085254400788, 10.027266614497456, 8.828295834924306, 10.245573361403288, 10.785092244940964, 10.728145747942806, 10.301989166983608, 9.211272064021781, 9.615172412835172, 9.76365200593236, 10.219814306462098, 11.28243228219228, 9.754513015620564], "z": [0, 0, 0, 0, 0, 0, 0, 0, 0, 0, 0, 0, 0, 0, 1, 1, 1, 1, 1, 1, 1, 1, 1, 1, 1, 1, 1, 1, 2, 2, 2, 2, 2, 2, 2, 2, 2, 2, 2, 2, 2, 2], "regression_weights": [[[-10], -1.9235321589095302, -1.922020802300784], [[1], 1.5159953149032128, 1.9199019706467115], [[10], 0.1, 0.1]], "ground_truth_mse": 0.28362484417461725, "ground_truth_r2": 0.9979470795233316, "train": [0, 1, 2, 3, 4, 5, 6, 7, 8, 9, 10, 11, 12, 13, 14, 15, 16, 17, 18, 19, 20, 21, 22, 23, 24, 25, 26, 27, 28, 29, 30, 31, 32, 33, 34, 35, 36, 37, 38, 39, 40, 41], "val": null, "input_args": {"N": 42, "K": 3, "D": 2, "noise_std": 0.5, "outlier_ratio": 0.0}}