{"X": [[2.889809229665933, -1.0254656807145075], [0.3065620681663539, 2.725599169583652], [2.306611091746806, 1.4309883716808665], [-0.7881421406850853, 3.2765611621986244], [1.6597494485171504, -1.6663845129767694], [-1.8956906925705943, 1.0845298317493406], [-0.6938388833008189, 1.4306838568309492], [1.090124105180934, 1.5459502964803313], [1.2446305408323661, 1.0263189076726273], [1.143908550785451, 0.2653591115210726], [0.02847908233951746, 1.183925543373109], [-1.2822384612958642, 2.0265909829585653], [2.086143644645839, 1.5252733870815396], [-0.09470261512313227, 2.700045029515211], [-1.4726591527612038, 3.6229892366229195], [0.6821889439023943, 0.836940836173763], [4.109800631631712, -1.1393588376651858], [1.3544265827267719, 0.20475037709939392], [0.39866338308729454, 0.06651122123436448], [0.08971898979410231, -0.6120729864115639], [3.031368348705003, 4.496731325123072], [2.007622960792994, 1.5893986136661866], [-0.5541326436009018, 0.551859517497393], [2.057886448158701, 0.08534811997368441], [1.381934734383632, 2.4545146064666197], [4.345991888298228, 2.7057634452179324], [3.1592365135070835, 0.7854910069560412], [1.1724268828471056, -1.7017934536250618], [2.0203088028188443, 2.4459908934461607], [-0.7947114744648469, 3.0344732573462014], [-0.030940827514914115, 0.1351228326107624], [1.505264622720337, -1.0571845374545985], [1.640662765976296, 1.1654526923551891], [4.144773886734752, 0.8777925185732762], [-1.8088827917833679, -2.24812343856595], [0.5024537724285811, 1.1586010024378983], [3.7391880875789827, 2.8512398719892547], [0.2461996002806891, 1.7385666397221873], [0.9343491309342223, 4.964518581960781], [2.239357130658213, -2.6815261517163798], [0.9000671874693678, 0.13288686806194494], [1.5648832613187516, 0.39466926563893434], [-1.095378396922158, 0.22076639972364154], [-1.233420306035812, 3.965994502503295], [-1.2745256082096477, 1.6295343766432802], [1.917937778821564, -0.5626532052322806], [0.07436645035772393, 0.7770784315905235], [3.050528761288705, -1.7123614130622666], [4.377171798708105, -2.3722862578081942], [-0.03333693564412554, 3.1820670799932658]], "y": [-8.176774016137689, -11.233438496571328, -8.11774419456162, -14.799578682391727, -7.698603996665078, -15.316850896542537, -9.54854946046483, -9.58439190591835, -12.164982903769804, 0.3862932372267256, -11.613114184105058, -7.792211821700595, -5.1368155032082505, -13.192013315041294, -4.147088835870138, -9.956310133589145, -6.089979239319626, -12.845756546085427, -13.49701856069954, -5.9925978228949015, -5.838480736983154, -8.476754342328109, -7.647418825025372, -7.70861913449147, -12.782068033795035, 0.3018290663643004, 3.167808508133221, 4.187902126163049, 0.8526695744478623, 6.679145261374895, 8.102723909608411, 9.98458877853716, 9.958102189317794, 7.474672406286476, 10.372361660461452, 9.69245110565292, 4.621453002702134, 6.75683641743149, 7.951279952520528, 8.251930256625448, 7.765248099728563, 9.158637537817503, 14.806178804846164, 9.775614768262319, 8.42150799580949, 7.793034753302674, 9.272075544528105, 17.921201093350483, -0.9424776820222736, 10.606816181611926], "z": [0, 0, 0, 0, 0, 0, 0, 0, 0, 0, 0, 0, 0, 0, 0, 0, 0, 0, 0, 0, 0, 0, 0, 0, 0, 1, 1, 1, 1, 1, 1, 1, 1, 1, 1, 1, 1, 1, 1, 1, 1, 1, 1, 1, 1, 1, 1, 1, 1, 1], "regression_weights": [[[-10], 0.2, 0.4], [[10], -0.2, -0.4]], "ground_truth_mse": 15.658838522717295, "ground_truth_r2": 0.8179704307646074, "train": [0, 1, 2, 3, 4, 5, 6, 7, 8, 9, 10, 11, 12, 13, 14, 15, 16, 17, 18, 19, 20, 21, 22, 23, 24, 25, 26, 27, 28, 29, 30, 31, 32, 33, 34, 35, 36, 37, 38, 39, 40, 41, 42, 43, 44, 45, 46, 47, 48, 49], "val": null, "input_args": {"N": 50, "K": 2, "D": 2, "noise_std": 3.5, "outlier_ratio": 0.0}}