{"X": [[1.2362701882869005, 1.661375694552761, -1.580867596342455, -0.01458673801153254], [2.8165869307832176, 2.1551051044664256, 2.4806360367508917, 2.873304132166907], [2.163605594751994, 1.8643442554351113, 2.2053140475284723, -0.3695181925290967], [-2.8681029667606333, -0.6640847084424559, 1.1080931115676502, 0.29807381578227043], [0.6756698390069582, -1.2678525574543462, -2.202853507445411, 2.1292932994917164], [2.837662784129302, 0.49106845794367737, 2.6886788155984225, 0.0263117099302258], [-0.021753777080190773, 0.8340158644111436, 1.8755683405270216, 1.5179340343488832], [0.6275784637330415, -0.17267769912844644, -2.42643171665035, -1.571174064338901], [-0.8784887914416148, -4.18979224816581, -2.362412572080615, 2.7577305783406825], [0.642613693192591, 4.035994667074354, -2.2660894946185373, 0.7342853300326657], [0.9647309309009341, -1.2835256373536952, 0.6241540543756187, 1.3307496920246598], [-0.3516709273168499, -0.8838890294132584, 4.422318083375929, 4.5144483794881225], [-0.5803359709375948, 0.5024464761764207, 1.9561733648982462, -0.5290910208820292], [3.9827335611293404, -0.34214582959501705, 1.6236919840370254, 1.979839043936537], [2.9495307099183465, 4.311271763575322, 2.725747194885277, -2.336851971522248], [1.080636628399723, 4.175686529027017, 0.6219505865235457, 2.7589101825148994], [-0.9599307341625991, -1.8126039209895377, 2.5482336815219053, 1.482217751948883], [0.01470687121064973, 3.409500456412427, 3.132308760958407, 5.794999255912377], [-2.124903183024188, 7.80661042595292, 0.6418228210651079, -0.3668852735954089], [-1.4595237397779521, -1.0350045484305896, 1.399882814235521, -0.5867413747266204], [3.565470604766849, -1.4992843759050225, 2.394877901225665, 0.615362896722699], [0.6378270722610273, 0.3068819999812553, 0.2734796850216671, 1.7648007891347646], [3.512430197701974, 4.516235837728177, -1.3595957101091063, 0.07237199954963203], [2.328249423763939, 4.5198515394055, 3.047624677687784, 1.489036852279231], [3.7816117194310817, 2.375711559366593, 0.1086297604545352, 2.3395484402911615], [-2.2245113497723854, -1.2546736461361747, -2.581872222326304, 2.869389443275362], [1.2904715217976408, -0.7176437780508946, -3.040125717830599, 0.8003489816152265], [1.9829925215866577, 4.37045615749275, -3.5740481947894844, 4.874991993038925], [-0.44004550085250105, 0.8358986827672517, 1.4774717893820846, 2.240016460283298], [1.7986493849705436, 0.589843045263314, 0.36150426167402216, -0.308230032753686], [6.25778735291786, 4.455733115531991, -5.551533758299165, -0.501116203244137], [0.41225147514541016, 0.6881609371071045, 3.1413073768791024, 0.3659099552756837], [5.3441618044565855, -0.3650848429733309, 1.18989105161925, 0.49049090790177896], [-1.5913247120752358, -0.4563093225595054, 1.9167196780899405, -0.9287330640262073], [-1.082598702171786, 3.878574250668591, 1.5361562816641439, -0.38670523302586046], [-2.512469070912448, 3.990673408004059, 3.735410178421135, 3.1144255812058144], [-0.37528485352183516, 1.4923871405015396, -0.11502287694469926, 0.8014442441182023], [0.7627972167400796, -4.267141827323755, 0.667467365128471, -1.6328819678561044], [1.994393825884747, -1.3165503849211881, 2.5545767168203497, -2.257030832705049], [1.8653617820910742, -0.2893126635385359, 0.882097787166642, 1.948696747639862], [5.06288910427562, 3.844094585672628, 0.910619643662502, -1.281597380987538], [2.8249615741920397, 0.732717443283424, 3.005674690064332, 0.34313614656798874]], "y": [-11.518805740595075, -25.785121900708138, -19.06075771062086, -6.096776709443202, -9.340655299350207, -19.236189057717922, -16.093764818866468, -5.954073258323515, -1.9472853773875765, -14.945120648071919, -12.602168257881926, -20.76554203722776, -11.643839974169458, -21.13531416972677, 8.082517514479198, 10.27766141753742, 3.1241013266659907, 16.02166646282584, 6.996966356346009, -1.7780984277996508, 7.5431178768094505, 4.85946272330729, 7.95199593013856, 14.481741301901396, 10.94729552638767, -2.0984606634726095, -0.5883295506360059, 9.63244959560733, 10.93603241782964, 10.03593950665541, 10.094810288088372, 10.996998040228478, 9.840408097397509, 10.161749936105945, 9.362335258152921, 10.501724339838452, 9.578242442615455, 10.28401189227563, 10.980619371472553, 10.275977489379372, 11.27396721633409, 10.600655784784603], "z": [0, 0, 0, 0, 0, 0, 0, 0, 0, 0, 0, 0, 0, 0, 1, 1, 1, 1, 1, 1, 1, 1, 1, 1, 1, 1, 1, 1, 2, 2, 2, 2, 2, 2, 2, 2, 2, 2, 2, 2, 2, 2], "regression_weights": [[[-10], -1.6191384194954315, -1.5849778575202078, -1.423480222948159, -1.4077099771029324], [[1], 1.0895413420015418, 1.0273283953098211, 1.0466132954239704, 1.408578203072666], [[10], 0.1, 0.1, 0.1, 0.1]], "ground_truth_mse": 0.27827376155560923, "ground_truth_r2": 0.998008034501343, "train": [0, 1, 2, 3, 4, 5, 6, 7, 8, 9, 10, 11, 12, 13, 14, 15, 16, 17, 18, 19, 20, 21, 22, 23, 24, 25, 26, 27, 28, 29, 30, 31, 32, 33, 34, 35, 36, 37, 38, 39, 40, 41], "val": null, "input_args": {"N": 42, "K": 3, "D": 4, "noise_std": 0.5, "outlier_ratio": 0.0}}