{"X": [[1.99443181742895, -1.134794371779401], [1.7352111412294464, -3.2751371859219525], [3.0640939916432286, 3.9310161804674886], [-1.175612254398167, 1.038050611131499], [1.0224478948720543, 3.4653281885553704], [0.7830025444405816, 0.39899991658276834], [-0.365937474130966, 3.9552188293113444], [2.299807620609808, 1.4152331394004007], [2.988673898933744, -0.5185813327465667], [-3.1269349472495875, 1.5356389661976326], [-0.9327585434906371, 2.591916569723944], [-1.0077558798512198, 0.5977349564864756], [3.594691338710614, 0.6618168649207393], [1.428831121619765, 4.065106484150911], [0.4343686567014049, 0.3373464302459941], [0.1375471292769992, 3.267732388866517], [1.5792607172939777, 1.103851384746369], [-0.9667879262113788, -3.7990162737711772], [0.6465993492337432, 1.1440658988501093], [1.7587974099374395, 1.1515332520220287], [4.647368854018701, -0.13735176665404736], [-1.4823295736998903, -3.2315463731455045], [-0.6975755346738837, -0.1700125984163796], [1.4768278335963343, 1.0560710857987559], [1.9986423967773386, 2.269282878288176], [2.5258862762760845, 1.514946695766473], [1.6931193990870534, -1.1150851250116132], [-2.026419124969527, 1.1060744075065119], [1.331613421150192, -1.1562877840031787], [2.0502869325597266, 1.0514894108538757], [-1.8593706156834182, -0.39402772348099036], [2.3675778981445905, -0.4950443335469894], [1.897701536590679, 0.7583596692475489], [-3.4416152853976154, 3.3381984930160775], [2.1443246358865338, -1.9398189386301716], [3.2671792425431287, -1.7016328431872467], [-0.022513748884049, 2.871392654588943], [-0.8259517678334403, 4.466097672145256], [-3.4785420349143994, -3.2275075912152857], [-0.023518897163732122, 1.1800851235062435], [-0.1379564960483357, 0.42412346680433766], [1.4004248954045888, 1.35104203172007]], "y": [-10.398321259625913, -6.74310612624165, -19.559368377786733, -10.400307169851677, -17.26901417510903, -10.913816394353661, -16.828070564713464, -15.725073520734707, -12.879877001912494, -8.772939246132232, -13.87536627718561, -9.831839812526958, -15.981684602516705, -18.586872521619366, 1.1499322702917993, 4.546312401435935, 5.00807044256484, -3.715195994235463, 2.43478086796, 5.056748755275602, 6.769990662005718, -5.140370523470907, -0.5918431382467282, 4.025507649920729, 6.831506572093901, 6.561777965044432, 2.102255007228037, -0.7247076651850538, 10.019176985181756, 10.257212413312649, 10.171186825814543, 9.871467541563652, 10.262508666340942, 9.939124514857223, 9.994296494299707, 10.281163469218043, 10.383717936091738, 11.031438877551974, 9.285957234248214, 10.896422769358697, 9.875690186492285, 10.03628098407336], "z": [0, 0, 0, 0, 0, 0, 0, 0, 0, 0, 0, 0, 0, 0, 1, 1, 1, 1, 1, 1, 1, 1, 1, 1, 1, 1, 1, 1, 2, 2, 2, 2, 2, 2, 2, 2, 2, 2, 2, 2, 2, 2], "regression_weights": [[[-10], -1.2953818510313917, -1.731252661456181], [[1], 1.3805853265243448, 1.1342747602355587], [[10], 0.1, 0.1]], "ground_truth_mse": 0.19512351284168777, "ground_truth_r2": 0.9981570890749256, "train": [0, 1, 2, 3, 4, 5, 6, 7, 8, 9, 10, 11, 12, 13, 14, 15, 16, 17, 18, 19, 20, 21, 22, 23, 24, 25, 26, 27, 28, 29, 30, 31, 32, 33, 34, 35, 36, 37, 38, 39, 40, 41], "val": null, "input_args": {"N": 42, "K": 3, "D": 2, "noise_std": 0.5, "outlier_ratio": 0.0}}