{"X": [[1.1531691595829372, -0.840522380204896], [0.34386009826156116, -1.6596240763576584], [-1.2263925014456993, -0.2317332851508236], [1.9950255393060465, -3.978305493803548], [-0.2717258710470485, 2.7316381653797404], [3.1616641051263388, 1.2863576784876711], [2.4218476316393747, -1.8493430340636237], [1.1514323697986766, 2.098994520493332], [1.429310748409149, -1.8172343219273674], [1.7724400804200156, 0.5321373538035925], [-0.33168049893161733, -1.950118251676336], [2.9165046940894293, -1.5865810506666094], [-5.0113430845665725, 1.534559647686773], [-1.2208176609601464, 0.5404016212597678], [3.7459491998201058, 2.2715867075249925], [1.4942937701414278, -1.623293599150144], [4.660552491265689, 1.4176063494838442], [3.0286655023817413, 2.4103752897742394], [-0.5546883166266272, 1.2585345678358308], [1.9633636052146888, -0.7471482168913335], [-2.2383780601914682, 1.2886779207147567], [1.78303288465108, 5.154622873776565], [-1.8980039374158322, 2.1084880244732203], [2.2672181622236542, 3.5998239425408802], [2.8957861302127883, 3.5852320216601563], [-0.6136837239841555, 3.3916286269298865], [-0.6791332218567208, 2.127325542823434], [2.6077723854855064, -3.65822392017847], [4.083225934057662, 0.7712020384297057], [-1.727636172461184, 1.4052572950101523], [-1.345714715726102, 3.801772494349221], [4.7135876118573705, -0.21428356216768596], [-0.7977257515922662, -1.3395489592091416], [-0.9703851726452661, -0.15480239079533997], [-1.199952099996163, 0.6650619887676403], [-0.6108142724555379, -2.924910845469669], [-2.2493359253907608, -0.46783078685779245], [0.016378086517650714, 2.9269947694649185], [2.405646902665705, -2.038556324269664], [1.252164112669036, -0.05953781877738917], [1.8776963616082323, 2.073634986852822], [0.938306626403943, 3.8382645959743473], [1.002653547202227, -0.43945458970659423], [0.9309580522642229, -1.7677396917521366], [1.2286986974623946, 1.6762388897197282], [-1.6463899257345984, 0.6582973608622456], [-0.5876660508458815, 4.317580148801062], [3.918354954867236, -1.0069710120634974], [0.41808760923307586, 0.5427601389219316], [3.1404315423077573, 1.8039585015377415], [1.4909847820154598, 3.3326613076947935], [-0.4408751097419288, 3.1916169759818738], [-2.005902935568429, 3.2204539177198], [1.7678037279081527, 0.20590397579715036], [4.434289778260689, 0.3456352382785638], [2.798589873154536, 4.45054271989736], [1.4975903873691927, 0.2574584691418642], [-1.5153448305855561, 4.312387560094603], [0.9998358111910627, 1.2103547655565992], [1.3814874713226826, -2.733253432321703], [0.8328997235741761, 3.2060285823624657], [2.224157842002503, 3.2200620120451973], [-0.36065449119764903, -0.8052002972777701], [1.3927098502479252, 2.909422010333242], [2.3272758883660716, 2.673090357519852], [-1.2782234615645103, 1.7575375948943508], [-0.6881144720295937, 3.44686242993936], [-1.8166707177349841, 1.5643807436085666], [0.6034085099132688, -3.5853412926493498], [4.67576835854839, 0.8803525209098079], [-0.037862089100646035, 0.5555488747762858], [1.3923033018008502, 2.0787833392867925], [1.0761548880355525, -0.17420296330680407], [4.206436410916595, 2.803846207684084], [0.5965565140366799, 4.305453312423079]], "y": [-10.54663499285055, -8.801768706737132, -11.422768177722176, -6.741332426760095, -15.466583799861997, -19.248067316252676, -16.32501605894419, -17.222114371894616, -10.217208858286652, -16.18958964266429, -3.9201781148826367, -6.211092163035904, -2.997748448132622, -6.351733267580448, -13.842524775012421, -8.305038737550854, -14.943558635990872, -22.384947465736275, -11.65551139679749, -7.54895315945868, -5.989893505432411, -21.622270074335713, -7.102983618101245, -18.606909029519525, -19.179393592926058, 5.761954366977433, 5.140544022968843, -1.967681080769373, 5.743710580221453, -5.620155065550681, 6.6445458151217585, 14.88402291530899, -11.985810948553109, -3.6815736571327076, 0.07245795334611405, -4.61912679857887, 1.297264086355574, 10.493249805488638, 4.424339187653841, 7.263224379633464, 5.106687870162098, 9.579719951668762, -0.40805009378579205, 0.1387027053316474, 4.5108716564257865, -2.9176246187623924, 15.589956376991042, 3.222727227467502, 0.3517069853100647, 11.285916425367882, 6.244429005130584, 8.513155367379902, 7.664750171689879, 3.2874221824381555, 1.1829299240499438, 10.523025388581496, 7.878851834259516, 7.963730778314092, 12.913738592860117, 6.718306281078414, 16.331625555734867, 4.603748648876147, 0.10661880352925657, 9.63868590875981, 11.891037566744888, 15.85689407270373, 8.547760947120494, 8.65842910734657, 9.107717527991065, 19.015484220105726, 3.7208269629032316, 11.53623769745084, 10.010641031027857, 7.341038485875903, 9.149300510026523], "z": [0, 0, 0, 0, 0, 0, 0, 0, 0, 0, 0, 0, 0, 0, 0, 0, 0, 0, 0, 0, 0, 0, 0, 0, 0, 1, 1, 1, 1, 1, 1, 1, 1, 1, 1, 1, 1, 1, 1, 1, 1, 1, 1, 1, 1, 1, 1, 1, 1, 1, 2, 2, 2, 2, 2, 2, 2, 2, 2, 2, 2, 2, 2, 2, 2, 2, 2, 2, 2, 2, 2, 2, 2, 2, 2], "regression_weights": [[[-10], -1.7064057991386496, -1.6861652233595377], [[1], 1.2129461480383559, 1.9900934102030572], [[10], 0.1, 0.1]], "ground_truth_mse": 15.223808250149123, "ground_truth_r2": 0.8593603672030405, "train": [0, 1, 2, 3, 4, 5, 6, 7, 8, 9, 10, 11, 12, 13, 14, 15, 16, 17, 18, 19, 20, 21, 22, 23, 24, 25, 26, 27, 28, 29, 30, 31, 32, 33, 34, 35, 36, 37, 38, 39, 40, 41, 42, 43, 44, 45, 46, 47, 48, 49, 50, 51, 52, 53, 54, 55, 56, 57, 58, 59, 60, 61, 62, 63, 64, 65, 66, 67, 68, 69, 70, 71, 72, 73, 74], "val": null, "input_args": {"N": 75, "K": 3, "D": 2, "noise_std": 3.5, "outlier_ratio": 0.0}}