{"X": [[1.2362701882869005, 1.661375694552761], [-1.580867596342455, -0.01458673801153254], [2.8165869307832176, 2.1551051044664256], [2.4806360367508917, 2.873304132166907], [2.163605594751994, 1.8643442554351113], [2.2053140475284723, -0.3695181925290967], [-2.8681029667606333, -0.6640847084424559], [1.1080931115676502, 0.29807381578227043], [0.6756698390069582, -1.2678525574543462], [-2.202853507445411, 2.1292932994917164], [2.837662784129302, 0.49106845794367737], [2.6886788155984225, 0.0263117099302258], [-0.021753777080190773, 0.8340158644111436], [1.8755683405270216, 1.5179340343488832], [0.6275784637330415, -0.17267769912844644], [-2.42643171665035, -1.571174064338901], [-0.8784887914416148, -4.18979224816581], [-2.362412572080615, 2.7577305783406825], [0.642613693192591, 4.035994667074354], [-2.2660894946185373, 0.7342853300326657], [0.9647309309009341, -1.2835256373536952], [0.6241540543756187, 1.3307496920246598], [-0.3516709273168499, -0.8838890294132584], [4.422318083375929, 4.5144483794881225], [-0.5803359709375948, 0.5024464761764207], [1.9561733648982462, -0.5290910208820292], [3.9827335611293404, -0.34214582959501705], [1.6236919840370254, 1.979839043936537], [2.9495307099183465, 4.311271763575322], [2.725747194885277, -2.336851971522248]], "y": [-8.76972239783549, -8.81695988828905, -18.106490361686856, -17.28390804529111, -19.39130878151172, -13.330623806974385, -3.9373791373122318, -18.54757273279919, -5.721099952278146, -7.216296694109615, 2.7131382200405323, 3.4007124943522467, 4.067206783050998, 4.556852152343462, 0.5673118367600668, -9.248704496444482, -4.6701910571059635, 3.2065739372829034, 9.068310148666276, -5.672653075043961, 15.74556944850739, 10.735664748737282, 8.521454202824632, 17.995429418950295, 9.833359946011623, 5.065332787388611, 8.94576127915653, 2.3512502458963276, 14.398968170050757, 8.581229407516238], "z": [0, 0, 0, 0, 0, 0, 0, 0, 0, 0, 1, 1, 1, 1, 1, 1, 1, 1, 1, 1, 2, 2, 2, 2, 2, 2, 2, 2, 2, 2], "regression_weights": [[[-10], -1.7660190383380447, -1.5067547215840251], [[1], 1.100691397282235, 1.5858249526065693], [[10], 0.1, 0.1]], "ground_truth_mse": 12.16050641043884, "ground_truth_r2": 0.88986294829884, "train": [0, 1, 2, 3, 4, 5, 6, 7, 8, 9, 10, 11, 12, 13, 14, 15, 16, 17, 18, 19, 20, 21, 22, 23, 24, 25, 26, 27, 28, 29], "val": null, "input_args": {"N": 30, "K": 3, "D": 2, "noise_std": 3.5, "outlier_ratio": 0.0}}