{"X": [[2.016547393487338, 1.594842196808356], [1.5272069368669552, 2.3861930418111026], [-1.6277146172734036, -2.8715983046242446], [-2.094677247781901, 2.417106605527298], [-0.12623983988558085, 0.7262908977370313], [0.759966386654539, -0.9025642411841803], [0.42270695200077824, 2.199680118219809], [1.8024770916682038, 0.7126153837887422], [-0.8284492239404049, 1.1936707087976974], [1.403619457062781, 2.4731234385043486], [1.4704938488241392, 2.9812282874501035], [-0.5208152338483683, -0.5071155500774573], [0.277421764952529, -0.42706327256914434], [4.181798591209748, 0.8075809521104658], [1.2472534587102106, 0.41524499614420607], [2.219279074092765, 1.2860776257679425], [0.8842344617445622, 4.60069121490975], [-0.33579557463132925, 0.45236073803704746], [-0.8367533600013062, 0.5598708486333119], [2.84855686406783, -1.1140605809394701], [2.244358541381933, 2.590033446008218], [0.647985306985748, 0.2764196696367909], [-0.13723634609693725, 1.7834959880206247], [1.2757149804246253, 1.9134513522090622], [0.9753179149777567, 0.8746128305502561], [-1.208955620256996, 2.341843123732489], [-3.863386344708874, 2.198016479236647], [0.7813074754479729, 0.34626863982269085], [-0.718197360354708, -0.46233598428136835], [0.12056096726682863, 2.520029742082177], [-0.3965399912406231, -0.1426875008074031], [2.215549294067146, 1.6252114743927022], [3.653623002770114, 2.7856580130332897], [-0.7401303417084242, 0.7999638061802002], [2.7116049883353477, -1.111324108625094], [0.5033829020393923, 0.021529989031932595], [-2.866465978881555, 0.6238356894968057], [0.729889283871618, 1.529861735895942], [0.482359236552135, 2.0911180732665415], [1.3041699532287485, 1.4424681747332715], [-0.7606877524760107, -1.4541373714589838], [2.2726163968941524, -1.6002953252407233], [0.6122022300139336, -0.30337243339416586], [-1.7739098791897514, 0.6979553117964243], [2.645578040834428, 2.6798569814617257], [4.152927989899597, -2.4707450330951914], [-1.60610337560983, 2.184808735050497], [0.9218900571472959, 2.6188545243943775], [0.2316641434692891, -0.5301758265289649], [-1.2829043463608683, 2.8194542209393], [3.7384189843411177, -0.2772064388534017], [2.2669786583615026, -2.848350469913686], [2.4674224916768774, 2.572584266886916], [0.4456979423009225, 2.6787353590313563], [-0.9404364467113737, 1.648862644528342], [0.3164751667030756, -0.487912934727031], [3.7409873854951314, -0.027793900235361546], [-3.072252504350076, -0.4352552651346475], [3.4024091281016218, 0.7398512230963503], [-1.9367734245474417, -0.6821762484362697]], "y": [-14.644442585474795, -17.498638730818676, 0.3509471215421729, -5.578015840382783, -11.94879086408875, -10.442416005872603, -9.262798058480797, -11.699991132918194, -12.442409350037927, -15.066320142174243, -19.641340422536352, -9.80532290991666, -8.834892660720469, -25.30708996108652, -18.928096171346112, -18.124533816142847, -23.56363828990324, -9.165855456939008, -12.790291861200696, -17.728725147697112, 14.059158747243671, 1.6289696040549109, 4.336262368942001, 1.3350907805870538, 2.077274150987844, 4.015615875760661, -4.389868992706184, 4.050079795264754, -2.963115286229269, 4.800260715842286, -1.9255918011414423, 13.590849484931333, 11.220000279721463, -2.2633733174770567, 5.63081969404951, -2.5271316084951794, -1.1380319443293854, -2.010867591781973, 0.8882289525043934, 6.181181383817675, 12.363150517590437, 10.66702109133024, 9.626113991303134, 8.838541608698156, 5.357716535943619, 7.648763566298961, 8.44563483758481, 14.054002249920373, 11.172812845183648, 3.9830144436882744, 11.480415147430554, 8.594074837387673, 8.134773674785524, 12.453310341076264, 13.679340948517526, 13.242336640104298, 7.434058017246743, 8.567005907572275, 11.573648045032272, 13.152512977629886], "z": [0, 0, 0, 0, 0, 0, 0, 0, 0, 0, 0, 0, 0, 0, 0, 0, 0, 0, 0, 0, 1, 1, 1, 1, 1, 1, 1, 1, 1, 1, 1, 1, 1, 1, 1, 1, 1, 1, 1, 1, 2, 2, 2, 2, 2, 2, 2, 2, 2, 2, 2, 2, 2, 2, 2, 2, 2, 2, 2, 2], "regression_weights": [[[-10], -1.701683898100037, -1.850600578331553], [[1], 1.4026616393131583, 1.8460427345160206], [[10], 0.1, 0.1]], "ground_truth_mse": 10.235755213858305, "ground_truth_r2": 0.915623722321593, "train": [0, 1, 2, 3, 4, 5, 6, 7, 8, 9, 10, 11, 12, 13, 14, 15, 16, 17, 18, 19, 20, 21, 22, 23, 24, 25, 26, 27, 28, 29, 30, 31, 32, 33, 34, 35, 36, 37, 38, 39, 40, 41, 42, 43, 44, 45, 46, 47, 48, 49, 50, 51, 52, 53, 54, 55, 56, 57, 58, 59], "val": null, "input_args": {"N": 60, "K": 3, "D": 2, "noise_std": 3.5, "outlier_ratio": 0.0}}