{"X": [[1.2362701882869005, 1.661375694552761], [-1.580867596342455, -0.01458673801153254], [2.8165869307832176, 2.1551051044664256], [2.4806360367508917, 2.873304132166907], [2.163605594751994, 1.8643442554351113], [2.2053140475284723, -0.3695181925290967], [-2.8681029667606333, -0.6640847084424559], [1.1080931115676502, 0.29807381578227043], [0.6756698390069582, -1.2678525574543462], [-2.202853507445411, 2.1292932994917164], [2.837662784129302, 0.49106845794367737], [2.6886788155984225, 0.0263117099302258], [-0.021753777080190773, 0.8340158644111436], [1.8755683405270216, 1.5179340343488832], [0.6275784637330415, -0.17267769912844644], [-2.42643171665035, -1.571174064338901], [-0.8784887914416148, -4.18979224816581], [-2.362412572080615, 2.7577305783406825], [0.642613693192591, 4.035994667074354], [-2.2660894946185373, 0.7342853300326657], [0.9647309309009341, -1.2835256373536952], [0.6241540543756187, 1.3307496920246598], [-0.3516709273168499, -0.8838890294132584], [4.422318083375929, 4.5144483794881225], [-0.5803359709375948, 0.5024464761764207], [1.9561733648982462, -0.5290910208820292], [3.9827335611293404, -0.34214582959501705], [1.6236919840370254, 1.979839043936537], [2.9495307099183465, 4.311271763575322], [2.725747194885277, -2.336851971522248], [1.080636628399723, 4.175686529027017], [0.6219505865235457, 2.7589101825148994], [-0.9599307341625991, -1.8126039209895377], [2.5482336815219053, 1.482217751948883], [0.01470687121064973, 3.409500456412427], [3.132308760958407, 5.794999255912377], [-2.124903183024188, 7.80661042595292], [0.6418228210651079, -0.3668852735954089], [-1.4595237397779521, -1.0350045484305896], [1.399882814235521, -0.5867413747266204], [3.565470604766849, -1.4992843759050225], [2.394877901225665, 0.615362896722699], [0.6378270722610273, 0.3068819999812553], [0.2734796850216671, 1.7648007891347646], [3.512430197701974, 4.516235837728177], [-1.3595957101091063, 0.07237199954963203], [2.328249423763939, 4.5198515394055], [3.047624677687784, 1.489036852279231], [3.7816117194310817, 2.375711559366593], [0.1086297604545352, 2.3395484402911615]], "y": [-3.1713557212202694, -11.952789011366018, -8.459769999181741, -6.928244149295281, -11.582771779065641, -9.699514962335126, -10.84237082723187, -15.800686923582534, -6.8102040353581215, -7.487108575973973, -11.425041468880327, -10.05215846709325, -7.90219659996295, -9.932460171325808, -10.793177162258683, -16.200100912783398, -9.91058356593304, -8.935807114575216, -7.296469661371868, -15.502339628455081, -4.543015149608626, -8.802694938217758, -11.77887959873103, -0.20800425886567364, -10.073939708229211, 4.74302628836015, 7.922014125615236, 0.8742231287169506, 11.358473075287593, 8.93193123481178, 5.514660724493262, 12.525691270203565, 5.138263152307898, 10.771468910057385, 1.4078066322687848, 4.7379808566095365, 3.0875670066246057, 15.135304240472475, 16.887469640080496, 8.801771855347816, 12.829185976911013, 8.644926856682561, 11.73789839120323, 6.604453559866633, 1.5118324142836386, 3.932125037522874, 9.067335980636305, 16.6614430083777, 9.23633373914475, 7.206338503889645], "z": [0, 0, 0, 0, 0, 0, 0, 0, 0, 0, 0, 0, 0, 0, 0, 0, 0, 0, 0, 0, 0, 0, 0, 0, 0, 1, 1, 1, 1, 1, 1, 1, 1, 1, 1, 1, 1, 1, 1, 1, 1, 1, 1, 1, 1, 1, 1, 1, 1, 1], "regression_weights": [[[-10], 0.2, 0.4], [[10], -0.2, -0.4]], "ground_truth_mse": 14.542047570673594, "ground_truth_r2": 0.845913668536015, "train": [0, 1, 2, 3, 4, 5, 6, 7, 8, 9, 10, 11, 12, 13, 14, 15, 16, 17, 18, 19, 20, 21, 22, 23, 24, 25, 26, 27, 28, 29, 30, 31, 32, 33, 34, 35, 36, 37, 38, 39, 40, 41, 42, 43, 44, 45, 46, 47, 48, 49], "val": null, "input_args": {"N": 50, "K": 2, "D": 2, "noise_std": 3.5, "outlier_ratio": 0.0}}