{"X": [[-3.6539631699696464, 2.817022565617838], [2.067388141938462, 2.882969446946486], [3.0340633358171596, -0.9199951202928971], [-2.0457851326127336, 3.593409150595575], [-3.1413895137307337, 1.6302936362064344], [-0.9061693524868715, 4.632326490804342], [0.09418881520905253, -1.2127606025760858], [2.7057042879977398, -0.4097305449312081], [1.338344587198929, -0.8976049901595204], [2.8838165533214557, 4.844027564720149], [1.0743729884053221, -2.420082926873466], [0.3037077261450938, 1.6618107941676425], [-0.7079442394087858, 3.4579075255503926], [0.04945371088600947, 1.686622281472977], [0.15329659872407408, 1.7837780213653325], [0.9132981963382532, 0.9415822516467482], [-2.353785113851025, 0.08218358407372806], [4.0804824890663784, -0.5434038163993402], [1.2094028900468168, 0.598247670954643], [3.935801482677555, -1.601162442549667], [1.9748071943420118, -0.9086346022630039], [2.657697523459585, 2.0655030085387827], [1.9809982867267553, 0.5278332497236606], [-0.8435883167449298, -1.0540823678452114], [2.0947712448543347, -2.3424577566858362], [2.31588535865845, 1.8294834956377786], [2.9807346455525208, -3.4967289431294084], [-1.0187426263386423, 1.4042463822308708], [0.2696486576520225, 0.02895725562857565], [4.196070404614485, 3.37702688786592]], "y": [-6.8616117469841384, -18.31243050114785, -4.797930745142869, -12.805718892225254, -7.140375013240252, -9.5599268309275, -11.631044332550225, -15.592202878676366, -10.114675976235503, -22.2830516442711, -4.5493724043023605, 2.9016961589309664, 3.03850222720071, 5.353847583039331, -2.293520773146871, 1.2251410295408878, 1.3500259444875264, 13.365996818507181, -1.5773237150953898, 7.533642553235238, 6.674489660942725, 7.473334011693522, 7.199306012250254, 8.331455179472606, 13.462770743013618, 12.90801133349761, 10.15540542150895, 8.766962300902511, 10.041371541597444, 10.38655318204706], "z": [0, 0, 0, 0, 0, 0, 0, 0, 0, 0, 1, 1, 1, 1, 1, 1, 1, 1, 1, 1, 2, 2, 2, 2, 2, 2, 2, 2, 2, 2], "regression_weights": [[[-10], -1.5129946126170868, -1.3966286922817814], [[1], 1.6081323562887122, 1.2819520322021785], [[10], 0.1, 0.1]], "ground_truth_mse": 11.061440141760235, "ground_truth_r2": 0.8879102346898251, "train": [0, 1, 2, 3, 4, 5, 6, 7, 8, 9, 10, 11, 12, 13, 14, 15, 16, 17, 18, 19, 20, 21, 22, 23, 24, 25, 26, 27, 28, 29], "val": null, "input_args": {"N": 30, "K": 3, "D": 2, "noise_std": 3.5, "outlier_ratio": 0.0}}