{"X": [[1.2362701882869005, 1.661375694552761], [-1.580867596342455, -0.01458673801153254], [2.8165869307832176, 2.1551051044664256], [2.4806360367508917, 2.873304132166907], [2.163605594751994, 1.8643442554351113], [2.2053140475284723, -0.3695181925290967], [-2.8681029667606333, -0.6640847084424559], [1.1080931115676502, 0.29807381578227043], [0.6756698390069582, -1.2678525574543462], [-2.202853507445411, 2.1292932994917164], [2.837662784129302, 0.49106845794367737], [2.6886788155984225, 0.0263117099302258], [-0.021753777080190773, 0.8340158644111436], [1.8755683405270216, 1.5179340343488832], [0.6275784637330415, -0.17267769912844644], [-2.42643171665035, -1.571174064338901], [-0.8784887914416148, -4.18979224816581], [-2.362412572080615, 2.7577305783406825], [0.642613693192591, 4.035994667074354], [-2.2660894946185373, 0.7342853300326657], [0.9647309309009341, -1.2835256373536952], [0.6241540543756187, 1.3307496920246598], [-0.3516709273168499, -0.8838890294132584], [4.422318083375929, 4.5144483794881225], [-0.5803359709375948, 0.5024464761764207], [1.9561733648982462, -0.5290910208820292], [3.9827335611293404, -0.34214582959501705], [1.6236919840370254, 1.979839043936537], [2.9495307099183465, 4.311271763575322], [2.725747194885277, -2.336851971522248], [1.080636628399723, 4.175686529027017], [0.6219505865235457, 2.7589101825148994], [-0.9599307341625991, -1.8126039209895377], [2.5482336815219053, 1.482217751948883], [0.01470687121064973, 3.409500456412427], [3.132308760958407, 5.794999255912377], [-2.124903183024188, 7.80661042595292], [0.6418228210651079, -0.3668852735954089], [-1.4595237397779521, -1.0350045484305896], [1.399882814235521, -0.5867413747266204], [3.565470604766849, -1.4992843759050225], [2.394877901225665, 0.615362896722699], [0.6378270722610273, 0.3068819999812553], [0.2734796850216671, 1.7648007891347646], [3.512430197701974, 4.516235837728177]], "y": [-12.954447491428223, -4.278493235439242, -22.508137673060567, -20.922641237772197, -22.637575492004117, -3.7968305196107064, 0.18846316612177727, -3.9288770959842383, -6.651713157276152, -6.259335821228236, -18.059405032189964, -6.529232371460312, -14.808589830633561, -16.205282908195706, -11.886115513909928, -8.553302294494674, -5.006125947269324, 1.3547147185575144, 9.123459877455444, -2.076688607007835, 4.954285762705816, 2.2987826522546, -1.7814756369927451, 17.836341546806434, -4.792390397038628, 1.5229408134029259, 8.716011905234529, 11.30201219148718, 14.160558952754833, -1.1655492078745087, 15.57446677663459, 9.562903938642458, 9.832171632386299, 11.039798701452442, 10.122170178232023, 8.997241191732833, 12.228985186890203, 5.951424652314801, 7.997364304179152, 8.651350787074652, 6.93639937279307, 10.5968096188524, 10.597389470252043, 10.468251092090448, 10.258108766085188], "z": [0, 0, 0, 0, 0, 0, 0, 0, 0, 0, 0, 0, 0, 0, 0, 1, 1, 1, 1, 1, 1, 1, 1, 1, 1, 1, 1, 1, 1, 1, 2, 2, 2, 2, 2, 2, 2, 2, 2, 2, 2, 2, 2, 2, 2], "regression_weights": [[[-10], -1.1931585333809216, -1.0825953941518431], [[1], 1.6224099731286148, 1.8113727133383408], [[10], 0.1, 0.1]], "ground_truth_mse": 13.246774773314785, "ground_truth_r2": 0.8864711433701657, "train": [0, 1, 2, 3, 4, 5, 6, 7, 8, 9, 10, 11, 12, 13, 14, 15, 16, 17, 18, 19, 20, 21, 22, 23, 24, 25, 26, 27, 28, 29, 30, 31, 32, 33, 34, 35, 36, 37, 38, 39, 40, 41, 42, 43, 44], "val": null, "input_args": {"N": 45, "K": 3, "D": 2, "noise_std": 3.5, "outlier_ratio": 0.0}}