{"X": [[2.6883012710037484, 1.7302312743610784], [-0.26414981982995855, -0.7467071241359764], [-2.253156118525143, 7.841152731059105], [-0.02862309522519446, 0.20607951542713598], [0.4632651464275782, -1.5052483717335714], [4.352488040432883, 1.6204847662350828], [0.3875008508090797, 0.58931685079027], [-0.9636734645182272, 1.225700580077636], [4.824114677184214, -1.356539538534519], [3.124019521276319, -1.2306994628850476], [3.1605094888542866, 1.988749275816562], [-1.2046964057324954, -1.543089568005236], [2.7194933225518225, 1.608417478799108], [0.6492791339821641, -0.1626575910578265], [0.28460644587256456, -0.250429089345233], [-0.47037649476552823, 2.489790291126366], [-1.4562178111539685, -0.7930601367816328], [0.12640202676587986, 1.367585268753341], [1.2992701933161097, 2.1116143090688153], [-3.598241285287239, -0.8183228163531551], [-0.3983987846105417, 1.8904861648236628], [1.9689196963489424, 1.4273673627502557], [-0.714903002860745, 4.24902226373419], [-0.9231409395275585, 2.0961442731812916], [2.856998815753037, 0.46107890641460414], [-0.47400031314891056, 4.680149633861808], [-0.12477015176500639, -0.9725242284536593], [-0.23838840331418032, 2.1606019301949164], [2.59925172262065, -1.1679792789938652], [-0.0215647803838539, 3.26149034580497], [2.0023816348333683, -0.4345109426899818], [0.429505637709248, -0.15788627048261294], [6.446656703300523, 0.9200604686372321], [1.8273872915621734, 1.9997789916095143], [-1.091654405539375, -0.6075729244789934], [-3.363693990080347, 4.1977565897522044], [4.172057659818604, -0.8739308118347837], [4.252442819290333, 3.247353044714367], [1.5778241207747423, 2.282143043846875], [1.3591308284486834, 2.2827020187897333], [1.448400856543402, 0.9927647303261599], [1.6049100753827414, 0.6193750553580877], [-0.8213855495581508, 0.8398863506299149], [2.084554259158104, 2.285982778308928], [3.515868801221253, 2.45163852663079], [2.09511257241751, 1.513479916533789], [1.4098719294933595, 0.31346515098778716], [1.6340037721332463, -0.7458066894783548], [0.476262142516911, 3.839551253312536], [3.7467850775818916, -0.989545611842882]], "y": [-9.861490093261128, -7.799999080976619, -6.551797373015379, -13.070114100789171, -19.21317860010544, -5.284928161093782, -5.742050048620662, -15.001780761078347, -3.840274089695046, -11.372103491420974, 0.6370835585208496, -8.751797233503076, -9.988319996267851, -5.603124758336935, -9.654301762877342, -8.646129814840254, -10.342020974189767, -9.97063404210063, -6.675711536621516, -8.209684871607466, -8.081655159589474, -2.6912030172950185, -13.191037010053957, -10.968882359252664, -6.3578802180293295, 4.105230027625177, 15.889677530274177, 11.677904739458366, 9.313818274555501, 10.569415157309248, 7.7201826907454, 4.790766939891332, 11.343011136415598, 12.135457400849972, 10.861905070840848, 8.916787769537702, 2.0701548799923284, 4.930144079538885, 7.142298873484871, 9.633080094475158, 14.160837227426594, 7.612573159420767, 7.09779008447953, 12.013329603781965, 7.872593506022769, 4.185440637270828, 13.857321814482365, 6.970266887384708, 6.403779002596004, 6.029141581334905], "z": [0, 0, 0, 0, 0, 0, 0, 0, 0, 0, 0, 0, 0, 0, 0, 0, 0, 0, 0, 0, 0, 0, 0, 0, 0, 1, 1, 1, 1, 1, 1, 1, 1, 1, 1, 1, 1, 1, 1, 1, 1, 1, 1, 1, 1, 1, 1, 1, 1, 1], "regression_weights": [[[-10], 0.2, 0.4], [[10], -0.2, -0.4]], "ground_truth_mse": 13.392528288329865, "ground_truth_r2": 0.849722672159993, "train": [0, 1, 2, 3, 4, 5, 6, 7, 8, 9, 10, 11, 12, 13, 14, 15, 16, 17, 18, 19, 20, 21, 22, 23, 24, 25, 26, 27, 28, 29, 30, 31, 32, 33, 34, 35, 36, 37, 38, 39, 40, 41, 42, 43, 44, 45, 46, 47, 48, 49], "val": null, "input_args": {"N": 50, "K": 2, "D": 2, "noise_std": 3.5, "outlier_ratio": 0.0}}