{"X": [[1.1531691595829372, -0.840522380204896], [0.34386009826156116, -1.6596240763576584], [-1.2263925014456993, -0.2317332851508236], [1.9950255393060465, -3.978305493803548], [-0.2717258710470485, 2.7316381653797404], [3.1616641051263388, 1.2863576784876711], [2.4218476316393747, -1.8493430340636237], [1.1514323697986766, 2.098994520493332], [1.429310748409149, -1.8172343219273674], [1.7724400804200156, 0.5321373538035925], [-0.33168049893161733, -1.950118251676336], [2.9165046940894293, -1.5865810506666094], [-5.0113430845665725, 1.534559647686773], [-1.2208176609601464, 0.5404016212597678], [3.7459491998201058, 2.2715867075249925], [1.4942937701414278, -1.623293599150144], [4.660552491265689, 1.4176063494838442], [3.0286655023817413, 2.4103752897742394], [-0.5546883166266272, 1.2585345678358308], [1.9633636052146888, -0.7471482168913335], [-2.2383780601914682, 1.2886779207147567], [1.78303288465108, 5.154622873776565], [-1.8980039374158322, 2.1084880244732203], [2.2672181622236542, 3.5998239425408802], [2.8957861302127883, 3.5852320216601563], [-0.6136837239841555, 3.3916286269298865], [-0.6791332218567208, 2.127325542823434], [2.6077723854855064, -3.65822392017847], [4.083225934057662, 0.7712020384297057], [-1.727636172461184, 1.4052572950101523], [-1.345714715726102, 3.801772494349221], [4.7135876118573705, -0.21428356216768596], [-0.7977257515922662, -1.3395489592091416], [-0.9703851726452661, -0.15480239079533997], [-1.199952099996163, 0.6650619887676403], [-0.6108142724555379, -2.924910845469669], [-2.2493359253907608, -0.46783078685779245], [0.016378086517650714, 2.9269947694649185], [2.405646902665705, -2.038556324269664], [1.252164112669036, -0.05953781877738917], [1.8776963616082323, 2.073634986852822], [0.938306626403943, 3.8382645959743473]], "y": [-9.961187792400583, -8.018736278129555, -8.909368792976089, -6.1519539972380635, -14.00062095584605, -15.524831893366333, -10.55209074503216, -14.61699144003069, -8.9091364427178, -13.002698928187264, -6.403473022279529, -9.842422042017754, -6.839036707065677, -9.16232483900543, 8.75165290548257, 1.0721433204970081, 8.6824118419478, 6.731528115977747, 1.7293717653433072, 3.0338852368509146, 0.25454193317915474, 8.896673701742824, 1.693958914935555, 7.856444065924723, 8.622822309340314, 3.975069768683137, 2.7471673116616095, -0.022829078694105442, 10.23633041400899, 8.921873725484664, 10.204311907551547, 11.677521731118972, 8.450217526833889, 9.430841603362566, 9.832853810254859, 9.781085176687988, 10.293513957163487, 10.815536009330238, 10.688614279379875, 10.813962995570083, 10.066906846083455, 10.449528474299113], "z": [0, 0, 0, 0, 0, 0, 0, 0, 0, 0, 0, 0, 0, 0, 1, 1, 1, 1, 1, 1, 1, 1, 1, 1, 1, 1, 1, 1, 2, 2, 2, 2, 2, 2, 2, 2, 2, 2, 2, 2, 2, 2], "regression_weights": [[[-10], -1.0607344558084917, -1.500809759379809], [[1], 1.1375325986589004, 1.1353762934358445], [[10], 0.1, 0.1]], "ground_truth_mse": 0.2638289674118459, "ground_truth_r2": 0.9966994986998914, "train": [0, 1, 2, 3, 4, 5, 6, 7, 8, 9, 10, 11, 12, 13, 14, 15, 16, 17, 18, 19, 20, 21, 22, 23, 24, 25, 26, 27, 28, 29, 30, 31, 32, 33, 34, 35, 36, 37, 38, 39, 40, 41], "val": null, "input_args": {"N": 42, "K": 3, "D": 2, "noise_std": 0.5, "outlier_ratio": 0.0}}