{"X": [[-0.48583028051737887, -1.4288028948797962, -0.3137330021446272, -0.3976845655547212], [-1.1582073316940455, 5.073719563222064, 3.6299790235781813, 3.3539007766351423], [-1.0234645745641826, -0.6493166416307685, 1.476872566456098, 1.5426192669400478], [-2.4134868490780748, 2.6902802553300837, 1.994568079247232, -1.2194435994679425], [-0.9282887939761162, 0.5680046344213565, -1.118399954578019, -3.046392432811957], [2.793322246449071, -0.1471126624224599, -0.07566299025369494, -0.7958453029758388], [3.4187349422542996, -2.5086387537717463, -0.2532638255031392, -1.7252891206797725], [2.2444156432888382, -0.8252193225873781, 0.7968544717650367, 1.0739726665778058], [1.6598525969539342, 2.1096609491636062, 0.2850806149304973, 1.562445252899695], [3.2175265345399033, 3.5844573398037194, 3.6589729242466014, 2.2857746968140553], [3.177020975764492, -2.1564569980173474, 0.0035535990670507722, 0.08928293186926983], [-0.7145099362317653, 4.013936519448206, -2.7095430465893267, 3.496480806292683], [0.38854816487509536, 1.2744955588717592, -0.9927225746698585, 3.7253351713326834], [-0.9898901783991996, -0.41919524187187895, 1.8271081265740476, 1.7534148237488374], [-0.10004680746970251, 3.968793686253197, 3.9468175136656187, 2.2678352521773006], [0.579821381237951, 1.9042565785860603, 0.2002951934315076, 1.4897444872614503], [5.037847296076466, 1.756358637560113, 0.30093214794409706, 4.770709862577526], [2.0370152059416986, 2.233419306940382, 3.45214183538994, 2.096505480439602], [1.3032053124704512, 0.4541121282792482, -0.061165859914478204, 1.5632104271241047], [-0.49079231643156684, -2.376309544060173, -1.4487719252942814, 1.2729923124830063], [-0.09487488577863501, 2.4458563233596102, 2.51164827407505, 0.3449174545484188], [-0.492479078424068, 1.9442820728673926, 0.09230070163899429, 2.4177869694758862], [2.664366570388751, 0.5771400305178358, -1.0167384928950236, 4.294262838013227], [0.45450661750472465, -1.083647383370983, -0.5422112669781198, 4.469996486912047], [-1.1120880169361755, -0.09025847273147614, 0.00806225318155318, -0.3503509001181091], [-0.04669082731734164, 3.2904085925126045, 3.394439028451205, 2.6227749190577385], [-1.0541628422870768, 2.3975911317207643, -0.8677345273914172, 1.427908470808363], [0.44866187175843897, -0.23936237989234144, -2.421835205427639, 3.562437965416858], [1.687697117592279, -0.3527164709031838, 1.9587876214492457, 1.7856050164960116], [1.596440447707341, 2.835028576993889, 4.173964015281182, 1.262303307838907], [3.6380665681830955, 0.663519237447101, -2.085553178818465, 0.9806264543363545], [-0.46475419457832134, -0.8972817291578092, -2.180479512203075, 1.9826349325115045], [2.1138786743391655, 0.4659476858638829, 1.1951090489197844, 0.05066957837090935], [-2.3411116737531263, 1.1339497294704375, 1.6470548463343357, 2.490247028116549], [2.0605563118784467, 3.67405537386957, -2.095939143819709, -0.7540997196280457], [0.9992802830895412, 1.6004810320847498, 4.650973909019861, 0.7394675601945382], [3.258831206598067, 1.7428459623828019, 1.6836662854481264, -2.670558013299841], [-0.9237185171047517, 2.9402404634464108, 2.1403149308528686, 0.9988890483821209], [3.1108644917966624, -5.320760940270308, 3.181050292157789, -0.054101710880865905], [1.6198181507036473, 2.0805579305599693, 2.386909120993839, 0.8016812467538905], [2.791276256535887, 1.0157506432694459, 1.3210218612415403, 0.015488366340436821], [-1.9594617811213415, 0.9354875042857087, 4.192765404058671, -0.37910162006868253]], "y": [-6.375172087295587, -27.682392032594926, -14.055678174286186, -11.61588426769397, -2.0612652271436156, -11.709725061823505, -7.997854407710026, -15.305241636226642, -18.12356951066632, -29.216436410180002, -10.959561804383743, -15.126410437187928, -17.21470676141751, -14.47527747793016, 17.836694561365537, 8.239670516926486, 21.17037230340573, 16.08532073661616, 6.207316366006917, -4.070467874033779, 9.770337795288402, 7.289968668455757, 11.847367405474715, 5.2512653630226325, -1.3939926827741758, 15.265267077033599, 4.59081350001552, 3.0630306311421354, 10.258824945223688, 9.940885248011899, 10.278372037804044, 11.071603275807234, 9.046505496663404, 9.836374352723446, 10.174800103607739, 10.933677966919378, 10.966709172501258, 11.036771316289645, 10.7436104348206, 11.383597011082054, 10.186127423976082, 10.25084030277672], "z": [0, 0, 0, 0, 0, 0, 0, 0, 0, 0, 0, 0, 0, 0, 1, 1, 1, 1, 1, 1, 1, 1, 1, 1, 1, 1, 1, 1, 2, 2, 2, 2, 2, 2, 2, 2, 2, 2, 2, 2, 2, 2], "regression_weights": [[[-10], -1.1784780956702225, -1.2252566126265676, -1.7408552336043628, -1.8982867908461611], [[1], 1.810136016830192, 1.9326953912452383, 1.3573052399828325, 1.3576293285154313], [[10], 0.1, 0.1, 0.1, 0.1]], "ground_truth_mse": 0.263828967411846, "ground_truth_r2": 0.9983642498081299, "train": [0, 1, 2, 3, 4, 5, 6, 7, 8, 9, 10, 11, 12, 13, 14, 15, 16, 17, 18, 19, 20, 21, 22, 23, 24, 25, 26, 27, 28, 29, 30, 31, 32, 33, 34, 35, 36, 37, 38, 39, 40, 41], "val": null, "input_args": {"N": 42, "K": 3, "D": 4, "noise_std": 0.5, "outlier_ratio": 0.0}}