{"X": [[0.6376781613137088, 1.7434360960668078], [1.9142470641330749, -0.395623539385356], [-1.2421603424958225, -0.26831256021380323], [1.953338101665889, 2.4031006631607537], [-1.0716530564412823, 4.610586649341334], [1.2148578644267956, 2.4929329014968467], [4.087321154431173, 4.216496824178838], [1.2949313336635935, -3.5253396228329485], [2.702827108934264, 3.241532385530858], [3.7282411555273645, 2.6549577829565543], [-0.9785168579055463, 0.46040430211701744], [-0.3683112209280075, -0.7655660265012294], [0.6548013336372533, 3.307599331096878], [2.0713915765082738, -4.534942506711384], [-0.40800303929252424, -0.29942287583157956], [-0.640088491450518, -0.2942711998167973], [1.5334142590498838, -0.17645181429986034], [3.4716816243436646, 4.614935948875809], [-0.7713107043802412, -1.1713853294954832], [-0.39885566017154206, -0.9385029922509196], [3.826839559053724, 0.1909091639753493], [1.1208962260111108, 2.814954113260254], [0.7239508454528973, 2.171301964727072], [4.568362394645979, -0.1067582618638434], [5.232548614420419, -1.5262016360624377], [1.3970039574208566, 0.550305608741685], [1.524717014551054, -1.928261724939114], [2.2511494459631862, -1.1770215035845508], [2.1794149097316895, -3.5941264459795397], [-0.7712946779625629, 2.281247528643303]], "y": [-12.945885047640967, -10.3731355302658, -11.431741115521254, -13.354412817830541, -15.929545727842424, -20.428140533768055, -23.319774065565753, -5.144565667520997, -16.72993797976161, -22.563582207457962, 2.4945174768699703, -0.9760308806833853, 8.388258710068648, -1.785189762303253, -4.069469554322266, 0.8918914581316659, 0.7489219016867374, 18.2155639220497, 0.6895656673778525, -0.8099587254202777, 6.961304085338044, 10.584099619955188, 10.849150553772196, 6.214841856326992, 18.152395457024888, 11.574764208116626, 15.88289753229473, 6.212570255749657, 15.583645242680566, 5.387615713640346], "z": [0, 0, 0, 0, 0, 0, 0, 0, 0, 0, 1, 1, 1, 1, 1, 1, 1, 1, 1, 1, 2, 2, 2, 2, 2, 2, 2, 2, 2, 2], "regression_weights": [[[-10], -1.375267892453533, -1.2881875778150949], [[1], 1.3949751553164067, 1.5077623469642627], [[10], 0.1, 0.1]], "ground_truth_mse": 11.527852250291392, "ground_truth_r2": 0.9209417624508106, "train": [0, 1, 2, 3, 4, 5, 6, 7, 8, 9, 10, 11, 12, 13, 14, 15, 16, 17, 18, 19, 20, 21, 22, 23, 24, 25, 26, 27, 28, 29], "val": null, "input_args": {"N": 30, "K": 3, "D": 2, "noise_std": 3.5, "outlier_ratio": 0.0}}