{"X": [[0.16648430518905877, 0.887466345547341], [-3.272392191336908, 4.280541616809977], [-2.5868711703897262, -0.683494731312408], [2.0057628343160854, -1.4905761732144631], [-1.1159044377246778, -0.8180152298536987], [2.102908089092849, 5.584416025629915], [1.083078785996807, -1.2358508902270335], [2.0781166411615777, -0.19231939961293398], [0.9617390069576971, 3.350002439000582], [-0.4957418985877249, 1.0180505019466501], [-0.756215786480684, 0.6871316592307527], [1.5131409040025914, -0.9775580975392435], [0.3223560679416073, 0.5276319382947974], [-0.27531002496860246, -1.3752245727705685], [-1.8424344546082536, 0.6930096086461017], [0.461886079567973, 5.462733577773209], [-3.8695351530420883, 1.2254530096332978], [1.7408890733264686, 3.7192677253451922], [2.0037144135626264, -0.6884274076597237], [1.0000195229431923, 2.0847051442980584], [0.37298360601318226, 2.542023476138823], [-2.736181309127527, 4.462369331960936], [3.9353560211468257, 0.3286453229523051], [2.2226815591474347, 1.0959411837363768], [-0.6582705780295575, 1.1754204368166628], [3.00073177310139, 0.2378149649693001], [0.2486611538420127, 0.8510584742120381], [1.8669926601531417, 3.5567584605437363], [-0.26935861035872466, 2.0167924853668637], [1.432232012527364, -2.717224772246995], [0.1613670356946223, 0.7353422031265133], [0.9208595206127886, 1.6520068667739611], [-3.0806460974574303, 1.0925110462833938], [-0.355351154656083, -1.8788780534772362], [2.0485928600206975, 2.470559152130405], [-0.3065005355840713, 2.6849125631426802]], "y": [-12.264876997742268, -6.6592340835331765, -4.442466666340013, -14.792650017421417, -16.098690900644335, -15.858963645012388, -6.502021342323989, -18.391096763363887, -9.220209159254765, 0.473752464249958, 10.305801702122505, 3.5543651886527723, 1.1064557847324625, 2.746255848055614, 0.041605250267416516, 10.878469557091146, -1.9341954006294784, 8.783241412043532, 12.351317401678028, 13.145764978715368, 11.53333083961837, 16.51668490061843, 5.678734819434428, 8.709150393668713, 12.938003442132931, 6.206344492347188, 15.585685771345116, -11.180538512420313, -1.5787125848215864, 11.140144031041586, -0.12858217379573222, -9.048248035339537, 15.042791065773216, 15.959727300638658, -10.200262265301182, -3.1737169850049076], "z": [0, 0, 0, 0, 0, 0, 0, 0, 0, 1, 1, 1, 1, 1, 1, 1, 1, 1, 2, 2, 2, 2, 2, 2, 2, 2, 2, 3, 3, 3, 3, 3, 3, 3, 3, 3], "regression_weights": [[[-10], -1.5826848885290346, -1.0255509418496929], [[1], 1.3377979807316742, 1.6124765741267186], [[10], 0.1, 0.1], [[5], -3.4970737987345126, -3.414905837374687]], "ground_truth_mse": 13.600338108370035, "ground_truth_r2": 0.8746542948625474, "train": [0, 1, 2, 3, 4, 5, 6, 7, 8, 9, 10, 11, 12, 13, 14, 15, 16, 17, 18, 19, 20, 21, 22, 23, 24, 25, 26, 27, 28, 29, 30, 31, 32, 33, 34, 35], "val": null, "input_args": {"N": 36, "K": 4, "D": 2, "noise_std": 3.5, "outlier_ratio": 0.0}}