{"X": [[2.21669098761548, -0.2733468160751136], [0.18224564225051199, 2.7050645772424797], [2.4750741011835093, -0.19359766660553812], [2.907305051243844, 3.52333264263349], [-0.24939542773132772, 1.6793784776076006], [0.8608896380157345, 3.183376063380554], [0.3967396266527339, 1.3008235247930062], [3.6447060955382717, 0.33939283861633995], [1.0532700552065093, 0.02734137790937119], [2.1939795067379064, 2.100031640622404], [-1.117643951586305, -2.3464358838091317], [0.210591735134532, -1.2456015701342915], [-0.9954455936517119, 1.5397306176220211], [4.299160553393587, 1.4208211768447407], [7.120717110595336, -1.1083802547334445], [4.637025602301818, 2.7261803118835735], [-1.1984232637054766, 0.6507278600921338], [-0.24047004462867694, -0.31273513328774527], [2.411442430505296, 2.9184305203963175], [1.8146060543798979, 1.0407998004825596], [2.829128262466264, -0.8665540862474035], [0.410746974718017, -3.6184900316248365], [3.424505476347369, 2.7236212049260313], [0.5788464465317297, 2.5089812066803634], [-0.32503128543527904, 1.1898164184254563], [-0.4481629296360259, 1.4540893379265978], [0.13323183954106765, 0.02961378692590655], [2.4545117792760998, 0.8133052789957828], [4.565275884292693, 3.341379157995958], [0.2915548830139356, -0.3306513666746085], [-1.3114130178546333, 3.527546903392469], [0.45327262152007664, 1.2445920738726337], [1.1120600598971804, 2.1544130284821295], [-0.8986436977467129, 0.9273051627728195], [2.095749386186523, -1.8667965455141835], [1.1446367923809313, 3.971973210898289], [1.5920280488349932, 0.22859624249677746], [2.406752432414139, 0.7431630603471865], [1.1117047263318576, 0.8727875201508446], [4.502445043025363, -0.8544823077236465], [1.1247081550476168, 4.829336522877504], [0.9389549131152062, 3.499991890907097], [0.5921508839572889, -2.593760962825871], [0.4120381687704553, 0.8838242076073459], [4.373824194141763, 2.551163562668858], [3.7560049776209135, -1.65408133347078], [-0.34377870151696466, -1.4515806001916802], [2.562440848381165, 1.905581319029472], [0.17496548524502686, -0.3739383558926368], [3.223785034192245, 2.101632783696995]], "y": [-8.010550118692022, -11.266515618690963, -8.73388600798884, -13.961780651831996, -6.742127775681025, -13.925996337772784, -9.382377891289297, -9.556098490992479, -12.60284601280028, 1.33017644005775, -13.254483361763118, -8.802522803651659, -5.747350458651567, -12.824930222406138, -4.320961379741375, -8.409647011625337, -6.435589339284136, -13.371730075711373, -11.95369503155116, -4.986471295220093, -8.024242918779093, -10.879284997659514, -5.982986526064262, -7.034973900134193, -13.629340512975283, 1.761329672867685, 4.075360330938477, 2.9254456538289126, -0.014479147666826009, 7.807941839487462, 7.001848719363672, 9.274276534246319, 9.66823859608284, 8.463550865502953, 9.438904467646768, 8.438665618278295, 6.099942462247924, 6.722887282754801, 9.552501258164977, 7.068495136554924, 5.84174004428669, 8.041694157350946, 15.59448389369008, 10.679391191259446, 6.923186360928975, 7.861992564838204, 10.247168187615925, 16.571641583095296, -0.9013755800958805, 10.38756550616316], "z": [0, 0, 0, 0, 0, 0, 0, 0, 0, 0, 0, 0, 0, 0, 0, 0, 0, 0, 0, 0, 0, 0, 0, 0, 0, 1, 1, 1, 1, 1, 1, 1, 1, 1, 1, 1, 1, 1, 1, 1, 1, 1, 1, 1, 1, 1, 1, 1, 1, 1], "regression_weights": [[[-10], 0.2, 0.4], [[10], -0.2, -0.4]], "ground_truth_mse": 15.658838522717295, "ground_truth_r2": 0.8144916285160984, "train": [0, 1, 2, 3, 4, 5, 6, 7, 8, 9, 10, 11, 12, 13, 14, 15, 16, 17, 18, 19, 20, 21, 22, 23, 24, 25, 26, 27, 28, 29, 30, 31, 32, 33, 34, 35, 36, 37, 38, 39, 40, 41, 42, 43, 44, 45, 46, 47, 48, 49], "val": null, "input_args": {"N": 50, "K": 2, "D": 2, "noise_std": 3.5, "outlier_ratio": 0.0}}