{"X": [[0.6376781613137088, 1.7434360960668078], [1.9142470641330749, -0.395623539385356], [-1.2421603424958225, -0.26831256021380323], [1.953338101665889, 2.4031006631607537], [-1.0716530564412823, 4.610586649341334], [1.2148578644267956, 2.4929329014968467], [4.087321154431173, 4.216496824178838], [1.2949313336635935, -3.5253396228329485], [2.702827108934264, 3.241532385530858], [3.7282411555273645, 2.6549577829565543], [-0.9785168579055463, 0.46040430211701744], [-0.3683112209280075, -0.7655660265012294], [0.6548013336372533, 3.307599331096878], [2.0713915765082738, -4.534942506711384], [-0.40800303929252424, -0.29942287583157956], [-0.640088491450518, -0.2942711998167973], [1.5334142590498838, -0.17645181429986034], [3.4716816243436646, 4.614935948875809], [-0.7713107043802412, -1.1713853294954832], [-0.39885566017154206, -0.9385029922509196], [3.826839559053724, 0.1909091639753493], [1.1208962260111108, 2.814954113260254], [0.7239508454528973, 2.171301964727072], [4.568362394645979, -0.1067582618638434], [5.232548614420419, -1.5262016360624377], [1.3970039574208566, 0.550305608741685], [1.524717014551054, -1.928261724939114], [2.2511494459631862, -1.1770215035845508], [2.1794149097316895, -3.5941264459795397], [-0.7712946779625629, 2.281247528643303], [-1.904395960379785, -0.7103408079218536], [0.6320251276911308, 5.97871378200825], [0.3192870365268371, 2.7568394763940374], [0.9624627435102617, -1.0539400355878215], [1.3386011577048356, -0.18942256362935672], [1.5902256340411174, 0.574514298165812], [0.6143421122163437, -0.7030513136941916], [-1.6859154157211038, 1.6725131230060084], [-2.571547226222462, 6.83273079026017], [1.4149184953085385, 1.101872131986845], [-0.2307266322510626, 0.8463075970624934], [0.44280926624282946, 3.128828010068241], [-2.5649184703612296, 1.1421309589636075], [-1.462554361050842, -0.18430242539091024], [0.7083370083376817, 0.5416853161933974]], "y": [-15.496466509217019, -12.449098191075214, -15.09478367740612, -11.477975976988116, -22.710986496781842, -19.18611333485806, -21.921904809098343, -10.170748760296679, -23.545016558912256, -23.57331958108798, -7.371273435664241, -0.06833552769841944, -16.66100059718435, -9.149848923960903, -6.9605016720626995, -2.111107503213687, 2.4171867894459127, 13.992693952993232, -3.751283487648846, -0.43811359384369025, 2.325422584885916, 4.778150608425269, 5.080637932836501, 2.422019380342266, 3.8612761229382295, 2.308232741603251, -1.6856228206255799, -1.98836990790715, -5.545338331602904, 2.129829530947373, 8.796826962413789, 18.470857652073054, 1.7859261334684327, 10.385395037650515, 11.411473737728867, 14.97519251257478, 11.74762930358681, 7.043911807323974, 10.426152521554357, 12.14991306525114, 8.964279407004211, 13.055704810874047, 3.319403957887065, 15.894460652287462, 15.261875269460052], "z": [0, 0, 0, 0, 0, 0, 0, 0, 0, 0, 0, 0, 0, 0, 0, 1, 1, 1, 1, 1, 1, 1, 1, 1, 1, 1, 1, 1, 1, 1, 2, 2, 2, 2, 2, 2, 2, 2, 2, 2, 2, 2, 2, 2, 2], "regression_weights": [[[-10], -1.538858109348089, -1.7531573657913795], [[1], 1.0945430525939803, 1.1008353611573356], [[10], 0.1, 0.1]], "ground_truth_mse": 14.684046508141105, "ground_truth_r2": 0.8933696451253466, "train": [0, 1, 2, 3, 4, 5, 6, 7, 8, 9, 10, 11, 12, 13, 14, 15, 16, 17, 18, 19, 20, 21, 22, 23, 24, 25, 26, 27, 28, 29, 30, 31, 32, 33, 34, 35, 36, 37, 38, 39, 40, 41, 42, 43, 44], "val": null, "input_args": {"N": 45, "K": 3, "D": 2, "noise_std": 3.5, "outlier_ratio": 0.0}}