{"X": [[1.448986859731054, -0.5770845679181209], [0.6577817946771689, 1.7028790491632386], [4.0439013138884015, 1.46371818931895], [2.689356257240349, 3.725301961571185], [1.3407596582266392, 2.3243644969262482], [-0.4063433926747737, 6.1550213236092475], [0.18896309922326748, 0.911374632214464], [2.7435712768173817, -0.03154878509714987], [1.046200592833472, -0.8076226177913266], [1.447560547442015, 3.1820374234286573], [-2.454858323775123, 0.2525578010722923], [1.5808335531097946, 2.0219443166773203], [1.1295877212491925, -3.1455310227134765], [4.134929744002378, 2.0091974165846977], [2.3871398616349633, 4.162374932480343], [0.9626974796453711, -2.4227807888841366], [0.23828709000596981, 1.8949112754372313], [1.423652037003784, -1.1539873706709507], [-0.5157052734463969, 3.636170398286095], [-1.7021881392847051, 0.18893662150120694], [-3.938011523655172, 2.513421533964549], [0.2255338928815025, 0.6631098649748757], [-0.29631962228537656, 0.7563654433779368], [-3.11628012899315, 2.0473764352041837], [-0.6215977699671005, 2.196252147263631], [1.0553219982784996, 3.0971459466095927], [1.3322217067299564, -1.4431403997535344], [-1.2814376997445915, 4.3949645011720895], [-1.561555806562398, 4.130165948385272], [3.7815176204532985, 0.4414066609067826]], "y": [-10.060437463338836, -10.098829465774543, -23.735023868836166, -24.701132307482197, -23.83842527652793, -12.88506601904692, -5.883089417852352, -5.025933298885605, -6.746870405298333, -14.127452350177249, -6.534268398006166, 12.810382804672743, -5.417902243427767, 7.642421730214274, 8.863516400971928, -3.544870262452024, 6.902066248837819, 0.8134724599355244, 4.8446209147030945, -2.0639587176083065, 14.571580996430113, 7.964529585035706, 9.436135834353044, 11.377289604232132, 4.3965000708464865, 8.722853469610293, 11.86304700575281, 14.39284438245076, 10.822751894790068, 8.067373683378586], "z": [0, 0, 0, 0, 0, 0, 0, 0, 0, 0, 1, 1, 1, 1, 1, 1, 1, 1, 1, 1, 2, 2, 2, 2, 2, 2, 2, 2, 2, 2], "regression_weights": [[[-10], -1.0213067054037528, -1.9064901152115872], [[1], 1.519310695646187, 1.3360075350450873], [[10], 0.1, 0.1]], "ground_truth_mse": 17.668729593072822, "ground_truth_r2": 0.8672620015745809, "train": [0, 1, 2, 3, 4, 5, 6, 7, 8, 9, 10, 11, 12, 13, 14, 15, 16, 17, 18, 19, 20, 21, 22, 23, 24, 25, 26, 27, 28, 29], "val": null, "input_args": {"N": 30, "K": 3, "D": 2, "noise_std": 3.5, "outlier_ratio": 0.0}}