{"X": [[1.2362701882869005, 1.661375694552761], [-1.580867596342455, -0.01458673801153254], [2.8165869307832176, 2.1551051044664256], [2.4806360367508917, 2.873304132166907], [2.163605594751994, 1.8643442554351113], [2.2053140475284723, -0.3695181925290967], [-2.8681029667606333, -0.6640847084424559], [1.1080931115676502, 0.29807381578227043], [0.6756698390069582, -1.2678525574543462], [-2.202853507445411, 2.1292932994917164], [2.837662784129302, 0.49106845794367737], [2.6886788155984225, 0.0263117099302258], [-0.021753777080190773, 0.8340158644111436], [1.8755683405270216, 1.5179340343488832], [0.6275784637330415, -0.17267769912844644], [-2.42643171665035, -1.571174064338901], [-0.8784887914416148, -4.18979224816581], [-2.362412572080615, 2.7577305783406825], [0.642613693192591, 4.035994667074354], [-2.2660894946185373, 0.7342853300326657], [0.9647309309009341, -1.2835256373536952], [0.6241540543756187, 1.3307496920246598], [-0.3516709273168499, -0.8838890294132584], [4.422318083375929, 4.5144483794881225], [-0.5803359709375948, 0.5024464761764207], [1.9561733648982462, -0.5290910208820292], [3.9827335611293404, -0.34214582959501705], [1.6236919840370254, 1.979839043936537], [2.9495307099183465, 4.311271763575322], [2.725747194885277, -2.336851971522248], [1.080636628399723, 4.175686529027017], [0.6219505865235457, 2.7589101825148994], [-0.9599307341625991, -1.8126039209895377], [2.5482336815219053, 1.482217751948883], [0.01470687121064973, 3.409500456412427], [3.132308760958407, 5.794999255912377], [-2.124903183024188, 7.80661042595292], [0.6418228210651079, -0.3668852735954089], [-1.4595237397779521, -1.0350045484305896], [1.399882814235521, -0.5867413747266204], [3.565470604766849, -1.4992843759050225], [2.394877901225665, 0.615362896722699]], "y": [-12.603623249777462, -8.517325501486825, -15.75945371422341, -16.128703478521064, -15.098030975056396, -11.894384371056605, -6.073502233221105, -12.447544949018692, -8.597274172416537, -10.05443044195941, -13.986017171196933, -13.005593791301674, -10.789142101806707, -14.082638596070323, 1.2932890054776505, -5.407227022033611, -7.373949017876886, 3.3396409935551583, 9.23431812136736, -1.0588062853063964, 0.6086240076333624, 4.225938184170549, -1.2119215311398461, 15.374430308388877, 1.2181163620125344, 1.5838358486371644, 4.801580974129307, 5.348061769532209, 11.250778522020994, 9.830652363076293, 10.154355553140391, 10.874321142691592, 8.897208739781867, 10.670759821510124, 9.310213331201721, 10.561651131853674, 9.966060801493008, 10.758481568353732, 10.633627610143813, 9.916607267994356, 10.62698524395795, 10.21103087916866], "z": [0, 0, 0, 0, 0, 0, 0, 0, 0, 0, 0, 0, 0, 0, 1, 1, 1, 1, 1, 1, 1, 1, 1, 1, 1, 1, 1, 1, 2, 2, 2, 2, 2, 2, 2, 2, 2, 2, 2, 2, 2, 2], "regression_weights": [[[-10], -1.07347008507716, -1.2771265671188998], [[1], 1.16184543220655, 1.8212289613123938], [[10], 0.1, 0.1]], "ground_truth_mse": 0.27827376155560923, "ground_truth_r2": 0.9971691814644134, "train": [0, 1, 2, 3, 4, 5, 6, 7, 8, 9, 10, 11, 12, 13, 14, 15, 16, 17, 18, 19, 20, 21, 22, 23, 24, 25, 26, 27, 28, 29, 30, 31, 32, 33, 34, 35, 36, 37, 38, 39, 40, 41], "val": null, "input_args": {"N": 42, "K": 3, "D": 2, "noise_std": 0.5, "outlier_ratio": 0.0}}