{"X": [[0.6376781613137088, 1.7434360960668078], [1.9142470641330749, -0.395623539385356], [-1.2421603424958225, -0.26831256021380323], [1.953338101665889, 2.4031006631607537], [-1.0716530564412823, 4.610586649341334], [1.2148578644267956, 2.4929329014968467], [4.087321154431173, 4.216496824178838], [1.2949313336635935, -3.5253396228329485], [2.702827108934264, 3.241532385530858], [3.7282411555273645, 2.6549577829565543], [-0.9785168579055463, 0.46040430211701744], [-0.3683112209280075, -0.7655660265012294], [0.6548013336372533, 3.307599331096878], [2.0713915765082738, -4.534942506711384], [-0.40800303929252424, -0.29942287583157956], [-0.640088491450518, -0.2942711998167973], [1.5334142590498838, -0.17645181429986034], [3.4716816243436646, 4.614935948875809], [-0.7713107043802412, -1.1713853294954832], [-0.39885566017154206, -0.9385029922509196], [3.826839559053724, 0.1909091639753493], [1.1208962260111108, 2.814954113260254], [0.7239508454528973, 2.171301964727072], [4.568362394645979, -0.1067582618638434], [5.232548614420419, -1.5262016360624377], [1.3970039574208566, 0.550305608741685], [1.524717014551054, -1.928261724939114], [2.2511494459631862, -1.1770215035845508], [2.1794149097316895, -3.5941264459795397], [-0.7712946779625629, 2.281247528643303], [-1.904395960379785, -0.7103408079218536], [0.6320251276911308, 5.97871378200825], [0.3192870365268371, 2.7568394763940374], [0.9624627435102617, -1.0539400355878215], [1.3386011577048356, -0.18942256362935672], [1.5902256340411174, 0.574514298165812], [0.6143421122163437, -0.7030513136941916], [-1.6859154157211038, 1.6725131230060084], [-2.571547226222462, 6.83273079026017], [1.4149184953085385, 1.101872131986845], [-0.2307266322510626, 0.8463075970624934], [0.44280926624282946, 3.128828010068241], [-2.5649184703612296, 1.1421309589636075], [-1.462554361050842, -0.18430242539091024], [0.7083370083376817, 0.5416853161933974], [4.233710539691842, 1.4963548161382116], [4.578920373976608, 0.42627178109562425], [2.0616760486031724, 3.0827961638337555], [0.6969908603125581, -2.981273194488359], [0.7084295841382727, 1.5600242903028383], [-0.9698988080237572, 1.7805281899038372], [0.37225254973657207, 3.174873608699409], [0.7528281785200497, -0.3171903756940162], [-0.5551652484516658, 1.9811228941626744], [0.6778134911692588, 1.4638367790988989], [-0.7294776430347034, 1.1519138314714048], [-0.8192926116346162, 0.37528366928408396], [-1.7765251761832026, 1.7445663615804936], [0.7249425304466772, -1.7596833560716165], [2.869963221629612, 4.1235870878181915], [-1.564577696790201, 5.037449036381959], [1.2073594583352532, -2.105755451738767], [2.7268963575425995, 1.8654904432260446], [-0.1809038304095243, 2.9648891988420907], [-2.938355997719875, -1.3262001371517735], [-1.7489931150132474, -0.8548244638190765], [1.5964668447449475, 1.63630557871915], [-0.13475209217442852, 1.726635964243831], [0.5884480946069088, 0.1702429594478445], [-2.363463510842652, -1.222483224476096], [-0.7114749520448349, 1.3479239691244242], [1.497393793581339, 3.4389506437984636], [1.6221864317209023, 3.504650823131083], [0.34718424730473574, 3.1186618681406584], [1.554993567759817, -0.3960847078858043]], "y": [-13.723592923151251, -10.134087574611504, -11.346818413867956, -14.393733091074223, -18.070038408939467, -21.530973016235514, -25.123316449188096, -3.4934547891404373, -18.129806968580887, -23.66411243446587, -7.3222498489902526, -8.476416396267389, -15.16589370398357, -3.7076860719298823, -12.977535408682739, -7.397053233813741, -13.878386673177395, -17.309382188367046, -4.3864719680152735, -7.664068323454469, -18.920316169246167, -16.230120528482587, -14.203748581042879, -20.188879613882236, -6.591582008265769, 4.902574780735064, 4.641510461351867, -2.9389138137176047, 1.7954147626155592, -0.009308989518681976, -4.638707698609011, 15.447515229815595, 6.982901261905958, -8.368547824664944, -1.8794250181130459, 6.700524618840672, 7.535291863681522, 5.809850912238385, 11.010397856024378, 7.426778304582916, -1.5539950120614723, 9.466379155703189, -4.061990249263067, -0.8935574180168971, 2.3445057649582584, 11.11081345010134, 5.465241920761759, 13.450537672612871, -4.912296684769438, 7.7573896809434855, 12.83417092782756, 3.911647082048658, 10.174979983069615, 10.268343944526604, 7.488575291077543, 10.670181119093813, 4.861228960580469, 11.943452398866206, 11.68075190832179, 11.750914431263576, 19.01533169903366, 11.143362288577949, 10.695387182004204, 7.7154720876509355, 10.61353862249288, 6.373399438258907, 14.77464240298708, 7.892432521796252, 10.630512484806072, 16.60669588363197, 14.13830136401322, 11.34294499872304, 15.342404065159466, 10.15562914245938, 12.899209708513013], "z": [0, 0, 0, 0, 0, 0, 0, 0, 0, 0, 0, 0, 0, 0, 0, 0, 0, 0, 0, 0, 0, 0, 0, 0, 0, 1, 1, 1, 1, 1, 1, 1, 1, 1, 1, 1, 1, 1, 1, 1, 1, 1, 1, 1, 1, 1, 1, 1, 1, 1, 2, 2, 2, 2, 2, 2, 2, 2, 2, 2, 2, 2, 2, 2, 2, 2, 2, 2, 2, 2, 2, 2, 2, 2, 2], "regression_weights": [[[-10], -1.3448790368594215, -1.745380237109113], [[1], 1.0214035510926953, 1.9909604932788836], [[10], 0.1, 0.1]], "ground_truth_mse": 12.066780476275902, "ground_truth_r2": 0.9092406826530262, "train": [0, 1, 2, 3, 4, 5, 6, 7, 8, 9, 10, 11, 12, 13, 14, 15, 16, 17, 18, 19, 20, 21, 22, 23, 24, 25, 26, 27, 28, 29, 30, 31, 32, 33, 34, 35, 36, 37, 38, 39, 40, 41, 42, 43, 44, 45, 46, 47, 48, 49, 50, 51, 52, 53, 54, 55, 56, 57, 58, 59, 60, 61, 62, 63, 64, 65, 66, 67, 68, 69, 70, 71, 72, 73, 74], "val": null, "input_args": {"N": 75, "K": 3, "D": 2, "noise_std": 3.5, "outlier_ratio": 0.0}}