{"X": [[-0.7378263921789554, 1.5951043448545603, -0.3605386689032535, -1.1157905858462533], [-0.6896623761448852, 0.6524985916309576, 0.4099322192299938, 5.628787146260688], [-1.4953727261652716, -0.5552716338305379, -0.02474655414947513, 2.021078701604446], [-0.4769066142057943, 0.1775186491798686, 2.4749724135686533, 4.2855320216773105], [0.311420714199106, -2.196006687370509, -2.1911674165846056, -0.4388764626053414], [-0.5388854798659213, -2.9658970825688615, -1.5152868698240267, 2.5178151594794524], [-0.5264469903034843, 3.4110602045445795, 1.4208664072605512, -1.0381624652861858], [-2.3570992734412077, 0.7470221134416899, 2.884005147465076, -1.163082259499542], [-1.006308404511611, -1.469712622654952, 0.023957762188501763, 2.1131292066132787], [-2.441323510378649, 1.9932100201372078, 4.757392978883507, 2.1732669470983677], [0.38591972143057607, 1.9297489452191292, 0.15277598648195356, 0.8480623104415707], [-0.8938219203912203, 1.1308346607600512, 0.26653011775783453, 0.4761416240999421], [-0.6321127282591923, 2.0162596115433558, 1.079969520218514, 5.755437565899772], [1.77029447604435, 1.4877942750509, 1.1041695096235264, -0.39946762111607237], [-3.0415946948185146, -0.5970830305421713, 0.6498345277565276, 0.15153912456474516], [6.961876787352528, 1.5957707959216751, -1.6676984495089786, -1.1085686085091764], [2.2856054184497574, -0.482676487075578, 1.2080679939147179, 1.8444048687011563], [0.19636023126362012, 2.1103879272184374, 2.7776495297969905, 2.3345802051565414], [-0.8438196369197879, -0.19671022696858453, 0.27152695330442256, 0.2963931582029926], [2.54830568745431, -0.4805942388992246, -1.5224398872777605, 1.6816110261944885], [1.5952535639435865, 3.0093553718329367, 0.4240958011953444, 3.1428816251204297], [-0.8199093702635203, 3.6848134183254877, 0.40063692332822176, -2.0889302632334266], [0.6026601075979163, 3.0922620820882734, 0.7245002881820242, -0.1180789863816325], [0.5742672593461914, 1.8750284766178256, 0.05362795990099889, -3.0128258872552225], [2.7697982555795426, -0.22090960577882712, 4.9574136305013345, -0.5774841249916427], [1.036257744691683, 1.693184958500896, 3.1521617994036504, 1.3703331042163844], [0.9109261390162654, -1.3365325635756622, -1.0634115637724273, 1.8862504674234126], [3.695114644526915, -0.4345675656669101, 0.555581301862516, -1.2871849999840008], [1.3628595525587166, -0.09291772490863148, -1.6812467999179743, 3.509624584002714], [0.31841700503250936, 1.2398511059639046, 3.2208191541788285, 1.8480759169321528], [-2.012448651230166, 3.9985295260465246, -1.1203819746332058, 2.1953432188460935], [-0.1769151608443822, 1.4030575574491762, 1.753490849367879, -0.18448413304164868], [-0.009748359373785043, -0.176472483764198, -2.2914883602597844, 2.0743076409329646], [3.205649989673777, 1.5190840996827364, 2.537724373174502, -1.1727150619104378], [-1.4768479160807937, 2.696863438249306, 3.006856491918962, 0.6479739101829967], [0.9782473169215423, 0.19265730942030157, 2.9524035181262898, -1.0098424936503334], [-2.036891103140424, -1.1061237175354148, 5.296068809804669, -1.6208967190181935], [1.291965440818245, 0.08665663724692219, -2.8402308030550283, 3.0944775577290016], [3.4382395030279373, 1.7526236697634632, -1.6228106607135424, -2.0297289917022585], [0.7982130457334915, 5.442671935753157, 5.946655446566259, 1.0737038185094279], [1.078420345694063, 2.181434286013336, -0.07261328039488513, 2.0473771831788987], [1.367888544924005, 0.3871949279021206, 2.456300463809994, 2.492987353790153]], "y": [-8.651521249787715, -17.109590338597528, -9.9145924791729, -17.36992642945777, -4.785449253560815, -6.6635371429953825, -14.282684274847872, -11.550040998755893, -8.973043824099042, -17.89049904086659, -14.268589296312244, -11.395874111374932, -19.356833501339295, -14.809886441569121, -2.658326384056734, 7.647039795817905, 7.596577026366917, 12.867568661895355, 0.538395869806013, 1.3887240274306367, 13.238556977987212, 5.2155895559542325, 8.360314431543825, 3.113814751940303, 13.252288668293474, 12.169591334664618, -0.5634832591756226, 3.604585370769488, 10.83453023584511, 10.454479158950729, 9.934827449300641, 10.81574997708085, 9.1341220490506, 10.876689018225104, 9.45527719086646, 9.980266895248377, 9.451105804211199, 10.894274696880675, 11.036912791002226, 11.161417548699701, 10.94382847452091, 10.580443928416452], "z": [0, 0, 0, 0, 0, 0, 0, 0, 0, 0, 0, 0, 0, 0, 1, 1, 1, 1, 1, 1, 1, 1, 1, 1, 1, 1, 1, 1, 2, 2, 2, 2, 2, 2, 2, 2, 2, 2, 2, 2, 2, 2], "regression_weights": [[[-10], -1.0753697792837307, -1.2449916391855709, -1.2408447168732342, -1.1187572113216522], [[1], 1.2835268345536095, 1.7731477470578523, 1.9565703692078915, 1.018126605085286], [[10], 0.1, 0.1, 0.1, 0.1]], "ground_truth_mse": 0.2782737615556092, "ground_truth_r2": 0.9975949200788986, "train": [0, 1, 2, 3, 4, 5, 6, 7, 8, 9, 10, 11, 12, 13, 14, 15, 16, 17, 18, 19, 20, 21, 22, 23, 24, 25, 26, 27, 28, 29, 30, 31, 32, 33, 34, 35, 36, 37, 38, 39, 40, 41], "val": null, "input_args": {"N": 42, "K": 3, "D": 4, "noise_std": 0.5, "outlier_ratio": 0.0}}