{"X": [[-1.3653817834882251, 3.6749233080642276], [0.3713899123930101, 2.1132862067797475], [0.5814013406906607, 0.9763992659489612], [3.4698668908054118, 0.9131621164416904], [-0.3635744728658197, 3.4013839405703257], [3.68788876865941, -0.6682179972386293], [3.0719953935090407, 4.331598192348544], [2.898957115714487, 3.1340190443808926], [1.7889615552475602, 2.200709231608297], [-1.706608943100743, -0.9289923593435612], [0.2986611850679576, 1.6422950126821299], [-1.012482880862514, 2.4975916369394087], [1.0606474131796828, 1.363698601487471], [0.005129901090374367, 0.3255616256130164], [1.974701407115427, 1.0525298950833002], [0.6403271528249719, -0.11789992113621062], [2.082304837142629, 0.4460066533771948], [0.778664724522021, 1.619535656383734], [4.529266859956266, 0.47146564123776014], [2.7479923930558363, 3.164193405810623], [0.11049725984908043, 0.7042034364437735], [4.258536994624846, 3.2002645787630195], [0.19177584784822965, 2.05285067025918], [4.257658497053644, 0.05945067451042285], [0.15913334492388032, -1.5844161749781636], [4.972475707733663, 1.4709895149936725], [-0.9197920112776978, 1.0067646421099594], [0.10096375628870957, -0.6639592590441712], [-1.1279826481288562, 2.8113925709973113], [2.8026819449872464, 5.407571960873746], [-0.46051545049176146, 2.3373685263777677], [0.91807753792792, 1.276156532097304], [1.556048458213695, 0.6285285399218935], [-1.7332497118928871, 1.388277303475032], [-2.3099959856875674, 1.3469531439650313], [-0.1298084404958053, 5.940822924658945], [-0.18577459453720135, -1.5058227258057597], [-0.12061906349429208, 0.9854454401207793], [-1.2670800556648247, 1.1064141663811349], [-3.8924429617151484, 4.9751031010159945], [2.500177792924218, -2.456555156076159], [4.871547572658384, -0.4649990121009264], [2.52847865614713, 2.195712697720711], [1.7651872777360762, 5.267782621807459], [6.0548885007587385, 0.7479494580151986], [-0.017691158340536806, -1.4116044793434743], [1.2735024635877243, 1.277848461753208], [0.16653382292549046, 2.6787989186034915], [0.4076969064591506, -1.7012826663527507], [-0.34716119123748057, -0.26320003290284677], [1.6080262819155944, -0.32387239731428297], [-0.7466090634233602, 2.7063813427504915], [-0.25867990115872286, 1.4221578932152807], [3.10219040245086, 2.3893948106352147], [-1.280731986273858, 1.9274646093478265], [0.34412744219732916, -0.585000957259747], [-2.267386732341491, -0.6183136466689152], [-4.104489226377708, -3.092978610790638], [1.3002551392172486, 1.0404794758855], [-1.3777456526267282, 2.781970511479334], [-2.5363642946039486, 1.9548630716833482], [1.5496645294865337, -1.445853813620456], [3.658895773965598, 3.083492944714247], [-2.598379747472405, 1.4215412117979855], [0.6108240744445668, -1.5618949497382837], [2.371730069735995, -0.1902312920027296], [2.266616972726168, 5.857723873034444], [1.4936182480217544, 2.4979119017079627], [4.479829704803388, 5.961553413103499], [4.706780090753352, 3.643317052038886], [2.301438370384372, 1.4676217530702642], [-0.06943657832058703, 1.5032919908775928], [0.24783478736140807, 0.8880178197289831], [1.480514054255696, 0.5415874118261308], [-1.8612354637732693, -0.878934474039724]], "y": [-15.55019434859048, -14.216470149857232, -19.924385968411556, -10.764934158290117, -21.361222931555183, -17.158833675716426, -19.808686611079885, -23.703378369181195, -19.90931324467861, -9.190501093519316, -11.208080409737223, -4.636201936605234, -13.631504150130867, -14.456910703007932, -12.694344321368659, -12.814916616098785, -13.803045204135364, -9.679853097905031, -19.921827271239536, -19.145483616269722, -14.393686401305809, -21.96084738940863, -12.763060543658824, -19.694280600450448, -8.802845202859125, 8.432896438582937, -1.3173389884700504, -3.771420810234876, -2.3009418624829796, 10.281665684089008, 2.083037154002493, 11.467686019265473, -4.747307244305842, 0.659454351853761, 0.7492754793050247, 12.28634571702248, 0.8116624089272104, -1.0034955852446337, 0.5658715628799752, 3.342126926194074, 0.4510674253620959, 9.64073896729706, 0.29432830608872873, 15.343197252990297, 15.017805690184497, -1.7903329330522508, 6.271303056031319, 4.410052681770614, -3.279458105537891, 0.5493237111039002, 13.629695991387564, 8.862153416628988, 8.801504818429178, 10.288510851179673, 11.581910417575394, 14.450239954445296, 7.490052393971191, 11.059640065675177, 10.990479483433162, 3.635279134453018, 8.474242190173529, 9.547229927058005, 10.535743032940365, 11.02332816328699, 2.7637622419201264, 10.380044208769265, 8.440569563927916, 5.361116421387809, 12.87917581682691, 13.408488230507432, 8.090530075073339, 13.091982526755391, 8.778277574531238, 10.43492167861969, 5.8803966917325035], "z": [0, 0, 0, 0, 0, 0, 0, 0, 0, 0, 0, 0, 0, 0, 0, 0, 0, 0, 0, 0, 0, 0, 0, 0, 0, 1, 1, 1, 1, 1, 1, 1, 1, 1, 1, 1, 1, 1, 1, 1, 1, 1, 1, 1, 1, 1, 1, 1, 1, 1, 2, 2, 2, 2, 2, 2, 2, 2, 2, 2, 2, 2, 2, 2, 2, 2, 2, 2, 2, 2, 2, 2, 2, 2, 2], "regression_weights": [[[-10], -1.4410580163799451, -1.6487789646902447], [[1], 1.3274250390357016, 1.127779477158097], [[10], 0.1, 0.1]], "ground_truth_mse": 11.875831734208125, "ground_truth_r2": 0.910911777442986, "train": [0, 1, 2, 3, 4, 5, 6, 7, 8, 9, 10, 11, 12, 13, 14, 15, 16, 17, 18, 19, 20, 21, 22, 23, 24, 25, 26, 27, 28, 29, 30, 31, 32, 33, 34, 35, 36, 37, 38, 39, 40, 41, 42, 43, 44, 45, 46, 47, 48, 49, 50, 51, 52, 53, 54, 55, 56, 57, 58, 59, 60, 61, 62, 63, 64, 65, 66, 67, 68, 69, 70, 71, 72, 73, 74], "val": null, "input_args": {"N": 75, "K": 3, "D": 2, "noise_std": 3.5, "outlier_ratio": 0.0}}