{"X": [[0.6376781613137088, 1.7434360960668078], [1.9142470641330749, -0.395623539385356], [-1.2421603424958225, -0.26831256021380323], [1.953338101665889, 2.4031006631607537], [-1.0716530564412823, 4.610586649341334], [1.2148578644267956, 2.4929329014968467], [4.087321154431173, 4.216496824178838], [1.2949313336635935, -3.5253396228329485], [2.702827108934264, 3.241532385530858], [3.7282411555273645, 2.6549577829565543], [-0.9785168579055463, 0.46040430211701744], [-0.3683112209280075, -0.7655660265012294], [0.6548013336372533, 3.307599331096878], [2.0713915765082738, -4.534942506711384], [-0.40800303929252424, -0.29942287583157956], [-0.640088491450518, -0.2942711998167973], [1.5334142590498838, -0.17645181429986034], [3.4716816243436646, 4.614935948875809], [-0.7713107043802412, -1.1713853294954832], [-0.39885566017154206, -0.9385029922509196], [3.826839559053724, 0.1909091639753493], [1.1208962260111108, 2.814954113260254], [0.7239508454528973, 2.171301964727072], [4.568362394645979, -0.1067582618638434], [5.232548614420419, -1.5262016360624377], [1.3970039574208566, 0.550305608741685], [1.524717014551054, -1.928261724939114], [2.2511494459631862, -1.1770215035845508], [2.1794149097316895, -3.5941264459795397], [-0.7712946779625629, 2.281247528643303], [-1.904395960379785, -0.7103408079218536], [0.6320251276911308, 5.97871378200825], [0.3192870365268371, 2.7568394763940374], [0.9624627435102617, -1.0539400355878215], [1.3386011577048356, -0.18942256362935672], [1.5902256340411174, 0.574514298165812], [0.6143421122163437, -0.7030513136941916], [-1.6859154157211038, 1.6725131230060084], [-2.571547226222462, 6.83273079026017], [1.4149184953085385, 1.101872131986845], [-0.2307266322510626, 0.8463075970624934], [0.44280926624282946, 3.128828010068241], [-2.5649184703612296, 1.1421309589636075], [-1.462554361050842, -0.18430242539091024], [0.7083370083376817, 0.5416853161933974], [4.233710539691842, 1.4963548161382116], [4.578920373976608, 0.42627178109562425], [2.0616760486031724, 3.0827961638337555], [0.6969908603125581, -2.981273194488359], [0.7084295841382727, 1.5600242903028383]], "y": [-8.998123954310248, -8.025570336595127, -13.841438351458713, -6.22049733538293, -9.834151271645908, -14.305875589408338, -9.762910724368707, -9.056136473514641, -6.999946509865929, -12.208536871021085, -7.8461977391402185, -10.687842903977057, -7.058246613129223, -10.236812678579724, -14.250226671408136, -9.017236142427961, -11.888003364750874, -2.0452616440258984, -8.091120642056739, -10.293697843629099, -12.598739209563979, -8.459324523465625, -8.427063772264393, -13.360349382767563, -1.7822101723518013, 10.880510216519525, 16.389613290398973, 6.125736173752978, 16.726883992750828, 4.478380352707464, 8.385725098590399, 9.380689041070129, 9.00142866730443, 1.9758257499926266, 5.938504640542872, 12.384576392645917, 17.465900142025326, 12.870121186244207, 6.814505389212792, 12.064059093680813, 5.704327286163428, 10.444626183119897, 5.340020277666672, 10.333471490161855, 9.184192236796545, 11.362019113309099, 7.853333327816776, 12.561555389087992, 10.36450263105865, 12.162154824508363], "z": [0, 0, 0, 0, 0, 0, 0, 0, 0, 0, 0, 0, 0, 0, 0, 0, 0, 0, 0, 0, 0, 0, 0, 0, 0, 1, 1, 1, 1, 1, 1, 1, 1, 1, 1, 1, 1, 1, 1, 1, 1, 1, 1, 1, 1, 1, 1, 1, 1, 1], "regression_weights": [[[-10], 0.2, 0.4], [[10], -0.2, -0.4]], "ground_truth_mse": 11.92251500658562, "ground_truth_r2": 0.8864272090470962, "train": [0, 1, 2, 3, 4, 5, 6, 7, 8, 9, 10, 11, 12, 13, 14, 15, 16, 17, 18, 19, 20, 21, 22, 23, 24, 25, 26, 27, 28, 29, 30, 31, 32, 33, 34, 35, 36, 37, 38, 39, 40, 41, 42, 43, 44, 45, 46, 47, 48, 49], "val": null, "input_args": {"N": 50, "K": 2, "D": 2, "noise_std": 3.5, "outlier_ratio": 0.0}}