{"X": [[0.7516174549373975, -0.5190350592767012], [1.9261571780445959, -1.1783759846638198], [1.9459401010377266, -0.8571395613873547], [-0.9782953945553117, 1.5516142968563247], [-0.44506769255213774, 0.7510582546179239], [-0.4388785184026758, 0.5748471976119909], [0.7103144824046428, 0.09497015525520847], [2.9919641832780064, 3.286001652188042], [-3.9143014028690795, 3.356313094552249], [-0.5462152777391931, -0.7283403343068928], [1.4684105981246085, 0.7410191847056607], [-0.4350134603059175, 3.444471634069427], [4.776966923025369, -2.0732991190205126], [0.4684520790874094, 1.464609378954631], [1.3212244744073276, 0.286987648873939], [-1.9222286945344562, -0.6424241315232588], [-4.563402930581982, 3.0937505777319685], [2.7412056273830068, -0.12306427231455963], [-0.3777311246106485, -1.255901557855652], [1.582613598514574, -0.5086825663026244], [3.2688463377039336, 0.7202634888495749], [0.46546619897761077, 1.195824369874884], [-4.891132430184077, 0.03351472874093553], [-1.0545218845810296, 1.6883344350264962], [-1.6970605409622856, -1.2378622267215373], [0.7169801897933026, -2.6311342513853972], [-0.8642458691328903, -2.0352214000954767], [2.61940160828732, -3.3357875118390137], [-1.235701815312011, 2.730145932341415], [1.6600718026151897, 4.31572076200916], [3.106263241566157, 0.7791926071782848], [2.5451473928557604, 0.31427816501721595], [-0.46922260627915, -0.0939814529624945], [0.29364207552840527, 4.561214341702858], [3.9797016576830555, 1.645787873231103], [-1.3273932276675007, 0.4052572360661272], [3.7048454869192398, -0.054695259638234184], [-1.286739898586175, 0.8099308671842527], [-0.5786746778969891, 4.078747378034091], [2.0744382912736494, 2.9290845901530798], [1.7088865548007526, 1.307815227670708], [-0.13629922706603947, -0.42259718033320715]], "y": [-9.83426139562307, -11.871471970093515, -12.551964546222086, -11.268639414323738, -10.358218088454061, -10.15066349412214, -11.58883967741233, -21.065549741168685, -7.185971874156602, -8.087271520873124, -14.655051116425021, -13.748503027498863, -15.98768494488983, -12.222531226655551, 3.9268859586716207, -3.686471138389661, -4.531929487491104, 5.4095584338228875, -0.7072970930497968, 2.9313824178666317, 7.598926919031705, 3.1960725540664034, -7.721567450233323, 1.0381649772860269, -4.252862809431794, -1.0315804705972709, -2.739960736314543, 2.119453854220923, 9.765026236543326, 10.482563895323466, 10.76107371807713, 11.273997947350448, 9.321617929597867, 10.172277186128943, 10.160665905803127, 8.698244814250527, 9.903119011880205, 9.44038121643839, 10.911996249492445, 10.434395171742223, 9.490027455329523, 10.267448085395163], "z": [0, 0, 0, 0, 0, 0, 0, 0, 0, 0, 0, 0, 0, 0, 1, 1, 1, 1, 1, 1, 1, 1, 1, 1, 1, 1, 1, 1, 2, 2, 2, 2, 2, 2, 2, 2, 2, 2, 2, 2, 2, 2], "regression_weights": [[[-10], -1.982422553648241, -1.4670449489606154], [[1], 1.9430518184725196, 1.1661181980783983], [[10], 0.1, 0.1]], "ground_truth_mse": 0.264330227316237, "ground_truth_r2": 0.9971486508090361, "train": [0, 1, 2, 3, 4, 5, 6, 7, 8, 9, 10, 11, 12, 13, 14, 15, 16, 17, 18, 19, 20, 21, 22, 23, 24, 25, 26, 27, 28, 29, 30, 31, 32, 33, 34, 35, 36, 37, 38, 39, 40, 41], "val": null, "input_args": {"N": 42, "K": 3, "D": 2, "noise_std": 0.5, "outlier_ratio": 0.0}}