{"X": [[0.16648430518905877, 0.887466345547341], [-3.272392191336908, 4.280541616809977], [-2.5868711703897262, -0.683494731312408], [2.0057628343160854, -1.4905761732144631], [-1.1159044377246778, -0.8180152298536987], [2.102908089092849, 5.584416025629915], [1.083078785996807, -1.2358508902270335], [2.0781166411615777, -0.19231939961293398], [0.9617390069576971, 3.350002439000582], [-0.4957418985877249, 1.0180505019466501], [-0.756215786480684, 0.6871316592307527], [1.5131409040025914, -0.9775580975392435], [0.3223560679416073, 0.5276319382947974], [-0.27531002496860246, -1.3752245727705685], [-1.8424344546082536, 0.6930096086461017], [0.461886079567973, 5.462733577773209], [-3.8695351530420883, 1.2254530096332978], [1.7408890733264686, 3.7192677253451922], [2.0037144135626264, -0.6884274076597237], [1.0000195229431923, 2.0847051442980584], [0.37298360601318226, 2.542023476138823], [-2.736181309127527, 4.462369331960936], [3.9353560211468257, 0.3286453229523051], [2.2226815591474347, 1.0959411837363768], [-0.6582705780295575, 1.1754204368166628], [3.00073177310139, 0.2378149649693001], [0.2486611538420127, 0.8510584742120381], [1.8669926601531417, 3.5567584605437363], [-0.26935861035872466, 2.0167924853668637], [1.432232012527364, -2.717224772246995], [0.1613670356946223, 0.7353422031265133], [0.9208595206127886, 1.6520068667739611], [-3.0806460974574303, 1.0925110462833938], [-0.355351154656083, -1.8788780534772362], [2.0485928600206975, 2.470559152130405], [-0.3065005355840713, 2.6849125631426802], [0.23696703646982764, 1.1329780182922897], [-1.197477893992113, 4.168974112791353], [-4.318898912766977, 0.8170947542186837], [2.390239210093983, -3.066933092245227], [0.6210614705752384, 0.8455626692940856], [2.649406010873963, 3.496425841194068], [0.19221546132412104, -1.7690373330717297], [3.734470847854249, 3.4357712661125808], [0.07598930369323909, 1.7017769881754927], [1.763732468253394, 2.132550882884912], [1.408415957828224, 3.813392483322741], [-2.475919008769136, 3.0816479067814577], [1.760943940430001, 0.5657294625102413], [3.347062996989907, -3.687206381999924]], "y": [-6.518090706582542, -8.256734214411633, -9.539394321004405, -18.396494572163306, -14.347301035097079, -5.386714959015752, -6.98958187439518, -13.085988079028292, -6.706812282626057, -8.26947753780708, -8.744276958899084, -11.81533314489626, -12.496534778813896, -13.553439603586641, -14.569542363310326, -6.862526259687805, -10.43840762914776, -2.677401160080551, -6.195747701705246, -7.543824547981138, -9.498855242686329, -19.92624829132955, -5.161007759261823, -4.452363486208444, -10.513171622286302, 8.849620169807388, 9.228283579866217, 13.650550621178104, 9.697878962480678, 3.566122977099722, 6.574363670452009, 5.2889971570808605, 13.444157014113447, 18.0320544576707, 5.329774913860437, 3.341869318564841, 11.3441593987259, 3.143053360107934, 11.690588568107843, 6.7708825045381635, 8.352845522235581, 9.194946206816645, 8.561093777755497, 13.2853465870515, 11.568710636765584, 10.870493397219112, 9.726045554672275, 14.014786191709156, 13.637308889482856, 15.536756608389753], "z": [0, 0, 0, 0, 0, 0, 0, 0, 0, 0, 0, 0, 0, 0, 0, 0, 0, 0, 0, 0, 0, 0, 0, 0, 0, 1, 1, 1, 1, 1, 1, 1, 1, 1, 1, 1, 1, 1, 1, 1, 1, 1, 1, 1, 1, 1, 1, 1, 1, 1], "regression_weights": [[[-10], 0.2, 0.4], [[10], -0.2, -0.4]], "ground_truth_mse": 14.95942571503832, "ground_truth_r2": 0.8651835721382337, "train": [0, 1, 2, 3, 4, 5, 6, 7, 8, 9, 10, 11, 12, 13, 14, 15, 16, 17, 18, 19, 20, 21, 22, 23, 24, 25, 26, 27, 28, 29, 30, 31, 32, 33, 34, 35, 36, 37, 38, 39, 40, 41, 42, 43, 44, 45, 46, 47, 48, 49], "val": null, "input_args": {"N": 50, "K": 2, "D": 2, "noise_std": 3.5, "outlier_ratio": 0.0}}