{"X": [[1.448986859731054, -0.5770845679181209, 0.6577817946771689, 1.7028790491632386], [4.0439013138884015, 1.46371818931895, 2.689356257240349, 3.725301961571185], [1.3407596582266392, 2.3243644969262482, -0.4063433926747737, 6.1550213236092475], [0.18896309922326748, 0.911374632214464, 2.7435712768173817, -0.03154878509714987], [1.046200592833472, -0.8076226177913266, 1.447560547442015, 3.1820374234286573], [-2.454858323775123, 0.2525578010722923, 1.5808335531097946, 2.0219443166773203], [1.1295877212491925, -3.1455310227134765, 4.134929744002378, 2.0091974165846977], [2.3871398616349633, 4.162374932480343, 0.9626974796453711, -2.4227807888841366], [0.23828709000596981, 1.8949112754372313, 1.423652037003784, -1.1539873706709507], [-0.5157052734463969, 3.636170398286095, -1.7021881392847051, 0.18893662150120694], [-3.938011523655172, 2.513421533964549, 0.2255338928815025, 0.6631098649748757], [-0.29631962228537656, 0.7563654433779368, -3.11628012899315, 2.0473764352041837], [-0.6215977699671005, 2.196252147263631, 1.0553219982784996, 3.0971459466095927], [1.3322217067299564, -1.4431403997535344, -1.2814376997445915, 4.3949645011720895], [-1.561555806562398, 4.130165948385272, 3.7815176204532985, 0.4414066609067826], [5.181387955230119, 0.5076267058716332, 2.0281933633487013, -0.6486876433857676], [1.117153554443509, -0.9571543997906831, -0.6953074487496074, 1.9306671180137456], [0.9700129966745995, 2.527750072264147, 4.983803308641862, 2.082056635043937], [1.2548763631896942, 2.1068462261417906, 4.867916821935907, 0.7236116785269067], [0.314197770716911, 1.0768087425984743, 2.1565967528101764, -2.317409611300003], [0.28649976293766666, 1.2929236455873512, -1.0433104663848014, 0.1674320495150854], [1.147329899473204, 2.3436030719736465, -0.04649838048897492, 2.5439363657846457], [-1.7953816874609703, -2.656021936457814, 2.80365385741847, 0.3209141888903376], [2.682400570488041, 0.40485351568533845, -1.9097456421325756, 2.0270003573102855], [-0.6304670533933363, 5.118768308825699, 0.25084416149009303, -1.7267075133155827], [1.1657954773079164, 0.677155551610626, 0.8790868779801846, 0.7413747685517041], [4.023353581945125, -1.8310491300986729, 1.660484939663797, 1.6799726399222896], [0.052973820569249486, 2.168045692278428, -1.4922888590509564, -1.8531650269390276], [1.8186251224901635, 0.9030948943973945, 2.8122445720587406, 0.14818454024845673], [2.523095790610294, 1.4138462127495566, 1.1960966369743176, -1.320833242247252], [-1.4154519931947869, -0.7093273205671229, 0.9778324996722971, 0.48482898502381355], [0.574079046990678, -0.324632224494362, 3.97690435171195, -1.2459516709297827], [1.4489480480953811, 0.779567653502629, 2.8119927339245097, -0.1899107958096291], [2.494078101192784, 0.46142799700528747, 0.9738249044341927, 3.0223749519250758], [-2.3487327759699235, 2.9318065213781574, 2.586487562531935, 1.5433715114366704], [1.013620648831085, 0.13439894521712492, 2.850481798118415, 2.2564231706168503], [-1.1667243406370722, -2.3404156125676105, 2.1006044198179543, 2.1484980056232073], [0.8783871136167415, 1.5647923155075603, -1.5896514758030493, -2.0374290695288413], [3.9546858197020667, 3.00941349775406, 0.50463460717897, 0.7927243329857881], [1.0622730647893663, -2.870122397885247, 1.1735806587155178, 1.717144781041998], [2.4084707804737646, 1.0820784214273864, -3.5473688780641783, 2.505689404463567], [0.76115320535143, 0.5955288428145629, 1.047343283740581, 0.21949683346971882]], "y": [-14.63793948069543, -27.63794771049333, -26.473875051097153, -16.00871147501217, -18.06227862953047, -10.521795460893259, -13.361924354736985, -17.71344164510064, -13.422630610955077, -13.593021868739537, -10.358717916641861, -9.319296613367724, -19.775433486291966, -15.047742799027748, 9.481592923008607, 8.228616267581524, 3.6110803715744355, 14.721752755995444, 12.379379471591811, 1.7414600914082226, 2.092702027368922, 8.17818189326043, 0.7897257770771539, 4.8316132875116775, 2.473399619998898, 5.031034726365271, 8.418780593886623, -1.1134084590126294, 10.649056467292016, 10.044803576271917, 10.655050282935123, 10.187299644861936, 10.500691920814363, 10.786135389470786, 10.439828917004785, 10.354708226284885, 10.311455456166124, 9.299314302317503, 10.575691130476375, 9.904007131112415, 9.777712794245323, 10.304607293545851], "z": [0, 0, 0, 0, 0, 0, 0, 0, 0, 0, 0, 0, 0, 0, 1, 1, 1, 1, 1, 1, 1, 1, 1, 1, 1, 1, 1, 1, 2, 2, 2, 2, 2, 2, 2, 2, 2, 2, 2, 2, 2, 2], "regression_weights": [[[-10], -1.5687182918711315, -1.8420508655638923, -1.2354718354870706, -1.562552487441294], [[1], 1.0158493553428523, 1.03076951087781, 1.404652851475975, 1.5589004100435577], [[10], 0.1, 0.1, 0.1, 0.1]], "ground_truth_mse": 0.2893514368659381, "ground_truth_r2": 0.9980594317354601, "train": [0, 1, 2, 3, 4, 5, 6, 7, 8, 9, 10, 11, 12, 13, 14, 15, 16, 17, 18, 19, 20, 21, 22, 23, 24, 25, 26, 27, 28, 29, 30, 31, 32, 33, 34, 35, 36, 37, 38, 39, 40, 41], "val": null, "input_args": {"N": 42, "K": 3, "D": 4, "noise_std": 0.5, "outlier_ratio": 0.0}}