{"X": [[-0.13399849107058182, 1.3740226593223812], [2.56149710886219, 4.773242843028594], [0.5818435706553433, 5.756143707776153], [2.2249645240751654, 2.733960816842484], [-0.34639425098076937, 0.5271211739777755], [-1.4948285657823837, -0.7809887710960082], [2.044595113695105, -0.6766024950857659], [0.05942490674096623, 1.4117475176194454], [1.3538408347004727, -2.2867436736766567], [3.553358169383715, 0.4151765426142672], [0.7549068401205988, 1.502473599992161], [2.853705827209801, 1.1344083870812967], [-0.6920482125348846, -1.7447469400406725], [2.1971092903588048, -1.0057073424558118], [-2.2353784158433134, 5.029824496082565], [-2.543713254447053, 3.1228893925558823], [3.4520792258526054, -0.2180856783903551], [2.2315885433835136, 0.6173184388580728], [1.772380073993773, 0.89465446466633], [2.488646762736609, 0.8342720179667396], [1.9424956525215182, 1.137587798355389], [3.052502658799143, 0.12659528622730765], [1.2038812328764685, 4.0433778534843725], [-1.1690790822240276, -0.2449797683787458], [-2.381708774294245, -1.267603261125482], [-1.2630301969335864, 1.051770426426605], [2.952142731471076, 2.5372282078649753], [4.122682972760231, 1.0231464542484832], [6.547811181191631, 0.32089787478547616], [-1.2175514591205525, -0.2979385262837593], [2.9097376186999653, -1.2725123275322199], [0.6083304780836012, 0.7937515127214668], [2.8699290232204144, 1.9813097434563998], [1.7997639328740436, -0.9261533471551058], [0.17607072989281214, 2.600891386747567], [-1.870124686277903, 3.194812250669032], [1.5375467731643635, -0.12227659880227648], [2.8752814857291833, 1.8190075778806507], [0.15920404579317393, -0.812566293371727], [-3.1076399576754588, 1.181637342790233], [-1.4038803626751855, -0.15563398383722205], [-2.783308559264808, -0.20327810690667047], [3.1908366522979623, -0.6182398758270242], [3.2315932554836047, 1.0252804958251143], [0.21008721408259368, 0.013191287735053736], [2.056570453220054, 0.9325007736214648], [0.35508250428420274, 4.4833102230235955], [3.479112167935279, 2.8025721567700743], [2.2420135199452544, 1.3183871146377388], [5.886874325133479, 1.7835636062741467]], "y": [-3.3540990399170356, -8.579658929873155, -9.277151765532475, -17.74803772586315, -9.887426583410319, -11.730070994769925, -11.739924743116841, -8.31950667211409, -9.170251795636393, -12.852868180648468, -12.349868036823171, -10.640562704117404, -8.422420332818271, -7.99868846279408, -13.004565668967668, -13.177750309465724, -6.817887556882299, -3.7955356599150756, -9.396425008972223, -11.560625036394313, -5.321761805335482, -10.422379584021565, -5.601739825234375, -4.91005700699505, -8.778103680582088, 10.089124198322688, 10.957629909158188, 6.51719095023182, 7.938752500253978, 8.35384474440189, 9.211743802455292, 7.85810044891382, 7.983276664116827, 8.678631093631864, 9.235851022950428, 9.31895085197469, 10.77861616321802, 13.607039589895393, 4.879166721581707, 14.683538101228276, 9.512653105956012, 6.32476123150768, 9.005659434750285, 9.265003462826076, 13.68916064175671, 5.499965030955987, 8.89637813783648, 8.595516968941906, 3.1298543247841986, 3.9590562637366693], "z": [0, 0, 0, 0, 0, 0, 0, 0, 0, 0, 0, 0, 0, 0, 0, 0, 0, 0, 0, 0, 0, 0, 0, 0, 0, 1, 1, 1, 1, 1, 1, 1, 1, 1, 1, 1, 1, 1, 1, 1, 1, 1, 1, 1, 1, 1, 1, 1, 1, 1], "regression_weights": [[[-10], 0.2, 0.4], [[10], -0.2, -0.4]], "ground_truth_mse": 10.090454497772976, "ground_truth_r2": 0.8892841478780255, "train": [0, 1, 2, 3, 4, 5, 6, 7, 8, 9, 10, 11, 12, 13, 14, 15, 16, 17, 18, 19, 20, 21, 22, 23, 24, 25, 26, 27, 28, 29, 30, 31, 32, 33, 34, 35, 36, 37, 38, 39, 40, 41, 42, 43, 44, 45, 46, 47, 48, 49], "val": null, "input_args": {"N": 50, "K": 2, "D": 2, "noise_std": 3.5, "outlier_ratio": 0.0}}