{"X": [[0.16648430518905877, 0.887466345547341], [-3.272392191336908, 4.280541616809977], [-2.5868711703897262, -0.683494731312408], [2.0057628343160854, -1.4905761732144631], [-1.1159044377246778, -0.8180152298536987], [2.102908089092849, 5.584416025629915], [1.083078785996807, -1.2358508902270335], [2.0781166411615777, -0.19231939961293398], [0.9617390069576971, 3.350002439000582], [-0.4957418985877249, 1.0180505019466501], [-0.756215786480684, 0.6871316592307527], [1.5131409040025914, -0.9775580975392435], [0.3223560679416073, 0.5276319382947974], [-0.27531002496860246, -1.3752245727705685], [-1.8424344546082536, 0.6930096086461017], [0.461886079567973, 5.462733577773209], [-3.8695351530420883, 1.2254530096332978], [1.7408890733264686, 3.7192677253451922], [2.0037144135626264, -0.6884274076597237], [1.0000195229431923, 2.0847051442980584], [0.37298360601318226, 2.542023476138823], [-2.736181309127527, 4.462369331960936], [3.9353560211468257, 0.3286453229523051], [2.2226815591474347, 1.0959411837363768], [-0.6582705780295575, 1.1754204368166628], [3.00073177310139, 0.2378149649693001], [0.2486611538420127, 0.8510584742120381], [1.8669926601531417, 3.5567584605437363], [-0.26935861035872466, 2.0167924853668637], [1.432232012527364, -2.717224772246995], [0.1613670356946223, 0.7353422031265133], [0.9208595206127886, 1.6520068667739611], [-3.0806460974574303, 1.0925110462833938], [-0.355351154656083, -1.8788780534772362], [2.0485928600206975, 2.470559152130405], [-0.3065005355840713, 2.6849125631426802]], "y": [-11.16975419904322, -10.224152058552637, -9.11107148533147, -11.69091837811671, -8.719223744674522, -20.73931773940716, -15.757403509010254, -14.809822397434244, -15.800109974296037, -0.2894360360034369, 3.321938532563049, 7.538397882305373, 3.3204291990202313, 0.8904362132474595, 6.032511837495007, 11.934131792674965, 3.1989116458251448, 6.173665867040263, 9.651591164267272, 14.8499990090043, 12.65494979422785, 10.284472211666785, 13.639910771451099, 11.663645406829225, 11.859001191211387, 9.080516569595707, 10.840691467100678, -12.525567577404253, -2.6889761749818994, 1.9492269840954854, 1.6355060933928272, 4.731377688470355, 2.69003938664083, 9.462403362778833, -11.396407535598582, -2.154264773063855], "z": [0, 0, 0, 0, 0, 0, 0, 0, 0, 1, 1, 1, 1, 1, 1, 1, 1, 1, 2, 2, 2, 2, 2, 2, 2, 2, 2, 3, 3, 3, 3, 3, 3, 3, 3, 3], "regression_weights": [[[-10], -1.5826848885290346, -1.0255509418496929], [[1], 1.3377979807316742, 1.6124765741267186], [[10], 0.1, 0.1], [[5], -3.4970737987345126, -3.414905837374687]], "ground_truth_mse": 12.89458155806992, "ground_truth_r2": 0.8722752267789131, "train": [0, 1, 2, 3, 4, 5, 6, 7, 8, 9, 10, 11, 12, 13, 14, 15, 16, 17, 18, 19, 20, 21, 22, 23, 24, 25, 26, 27, 28, 29, 30, 31, 32, 33, 34, 35], "val": null, "input_args": {"N": 36, "K": 4, "D": 2, "noise_std": 3.5, "outlier_ratio": 0.0}}